-3.053056071281542216e+00,1.667671073426160433e+01,-7.099596039218695864e+01,1.820647594664217763e+02,-1.183124821388076100e+02,1.407231510078589451e+02,-4.409980260895844140e+01,-9.190366871894661926e+01,-1.209965127858620804e+01
-6.346159404725078446e+00,1.518709487329119767e+01,-6.085654588208302584e+01,1.705881659597688440e+02,-1.072464460394652690e+02,1.234629030742904092e+02,-4.291099067063944972e+01,-8.079455441321761100e+01,-1.208346749721731328e+01
-2.387370887756991067e+01,-2.200319332110210979e+01,-8.544923663372480860e+01,1.745204903682146096e+02,-6.893731642782881863e+01,1.323416440121780511e+02,-6.787338964978079048e+01,-5.830539743014855958e+01,1.858010795973706308e+01
-6.033729973122106571e+00,2.961235605374514179e+01,-3.067132376882349121e+01,1.321047586042032549e+02,-1.191475902186140132e+02,6.612412490407137966e+01,-3.652620740802549903e+01,-4.016430109824392503e+01,3.701912901971823544e+00
-6.288122115281169044e+00,2.028965132009360062e+01,-3.388166518734769284e+01,1.334560096732895715e+02,-9.223264721952330092e+01,7.080218627013329069e+01,-4.598669560304261950e+01,-3.412218500662810072e+01,-1.303653213177405590e+01
-3.954079942788812474e+00,3.642658185033404550e+01,-2.344549421033044823e+01,1.169280025552865254e+02,-9.588011855198064382e+01,4.042968474995736017e+01,-3.678140089374183930e+01,-2.745184351319018035e+01,-7.271332043544294521e+00
-5.359605362348304425e+00,2.905775521776872239e+01,-1.656543485760359502e+01,1.170217114272224705e+02,-7.999371394768867560e+01,3.226662291622767498e+01,-3.516585329593600306e+01,-2.400279221859471335e+01,-1.825868987903230689e+01
-1.333985756278172730e+01,-3.972711275250670582e+00,3.985657666542536504e+00,1.459709910002188735e+02,-5.552950863934944437e+01,9.226972646457227256e+00,-2.738670897792644965e+01,-1.411639492145122432e+01,-4.583843993646910775e+01
-6.179637345312924523e+00,3.676615283911618093e+01,-1.388611393024614316e+01,8.345362956015202371e+01,-6.012237956280284834e+01,2.369753758891320672e+01,-3.406525118287376586e+01,-1.967885269279155125e+01,-1.098508527419707548e+01
-1.992873037633854594e+01,1.441447339268261807e+01,-2.801341372069817481e+01,8.030041545680862214e+01,-3.039280640005184608e+01,4.998651383911563073e+01,-7.082919548833846335e+00,-8.480407341919832476e+00,-5.180312563402465287e+01
-1.188816224164566471e+01,1.296353171815228400e+01,-2.325326014668943131e+01,6.125630460276391887e+01,-1.874810694129391209e+01,4.665141957299451292e+01,-5.833771924798671904e+00,-8.643853050293039075e+00,-5.350410158892955792e+01
-1.204124387459682666e+01,-1.842918495565402992e+00,-1.687670131135289964e+01,4.185142497607823486e+01,-9.733401312886158507e+00,3.349492251718244518e+01,-5.808876964221823869e+00,-6.524510272603613714e+00,-2.351869526095918417e+01
1.944457871547385253e+00,1.014239011512130517e+01,-1.091962269027740184e+01,3.415299784209266676e+01,-2.759228310043940269e+01,1.322223834073533766e+01,-4.924166160848528762e-01,-2.287539271075327463e+01,1.417630948056316953e+00
9.266621692354778617e+00,2.167840865154703067e+01,-9.608438905192603130e+00,2.976455599424876652e+01,-3.175577004667749037e+01,1.101710799647051431e+01,-3.459833229241638719e+00,-2.775423126487073233e+01,-1.484208886391229498e-01
7.390576972044378579e+00,1.753375653060678019e+01,-1.002739535261894588e+01,3.165641508908147728e+01,-3.296358838860052742e+01,1.594824340681618935e+01,-2.316575611257171374e+00,-2.616833092255325255e+01,-2.053101723516725485e+00
3.768447744519676235e+00,4.646357203126596502e+00,-1.136650947681137325e+01,3.831977021170348507e+01,-3.818354333416772306e+01,1.936986023145658464e+01,4.251616974076057431e+00,-1.593577214422167643e+01,-5.870227409511301175e+00
2.014812768096803097e-01,-8.032256656259537664e-01,-1.195031188760715324e+01,4.374418202337341199e+01,-3.621321778794704471e+01,2.191888209663238740e+01,1.832292688648067269e+00,-1.763474022976116018e+01,-2.095342514625684771e+00
-1.400541331831125547e+01,1.399438448525422807e+01,-1.710575011623172514e+01,4.527791414972993778e+01,-3.434224889022923577e+01,3.029489711895345749e+01,-1.672121571584916211e+01,-3.162980986245321091e+00,-5.229586727022383030e+00
-1.300729933528721816e+01,1.376872891503318641e+01,-1.913646199341143017e+01,4.873594397409613777e+01,-4.513215969832943131e+01,3.462699819689100167e+01,-1.749915111398109602e+01,-2.656631790178581198e+00,-6.999671548092578632e-01
-1.090135331598393975e+01,1.359566519128281747e+01,-1.918515198921588549e+01,6.474524729786307375e+01,-4.983772989982184498e+01,3.231829029736977077e+01,-1.478165594515696135e+01,-1.900089817298382755e+01,2.047586536889490105e+00
-1.393742852187624770e+01,2.786101447674229625e+00,-2.714844189708783162e+01,9.996017494676041792e+01,-6.578277925227484957e+01,3.921081134212653296e+01,-9.605598981209242382e+00,-3.729621057840911647e+01,1.081337149428903999e+01
-1.805173119224814116e+01,-1.519583913790156657e+02,-5.007247307078897336e+01,1.356261715668366605e+02,2.292114364408217853e+02,-6.801247970184437008e+01,-1.040832500244636663e+02,-8.944530332969517872e+01,1.157860206904266533e+02
-5.278622395985146198e+01,-1.484758614443896931e+02,-6.443651309587458798e+00,1.456097776425274901e+02,2.341961894997213562e+02,-3.664548110797528579e+01,-5.447085192959110600e+01,-9.972222997274059253e+01,1.773833258190415307e+01
1.990816462492216132e+01,-1.085094142526845644e+02,7.889403644512885450e+00,8.647151404833428145e+00,7.850409116165947410e+01,-7.196828666005127673e+01,9.129398913519696634e+01,-7.468598335883856976e+01,4.792088430046734970e+01
1.966604925950594662e+01,-1.024434122963400000e+02,-1.835674014991995007e+00,1.153137811795519951e+01,7.629936475288531028e+01,-6.722860486204717745e+01,8.081039803976881331e+01,-6.609462579546797656e+01,4.829512680588332785e+01
3.137863222980406164e+01,-9.091049096434431931e+01,1.945252075762340382e+00,-6.037172257009416398e+00,5.816507271231486698e+01,-7.540654073089434917e+01,8.252141012060126002e+01,-5.577593460109284962e+01,5.311977141486731568e+01
3.335815928441137146e+01,-8.348106203626763033e+01,1.998435906007522078e+00,-7.724080233344601254e+00,4.813868935106637537e+01,-7.080952618733030590e+01,7.481707211454774153e+01,-5.211455789432697827e+01,5.481686969525314623e+01
3.451634998810018828e+01,-7.285864465247080091e+01,-3.874960659751138792e-01,-7.594127495293960806e+00,4.025907010922935569e+01,-6.541295463023767809e+01,6.869131227987301713e+01,-4.933661848372673830e+01,5.112310895054008597e+01
1.991742437994162174e+01,-5.605580180356457731e+01,-2.318884252201814888e+01,6.625557179538191122e+00,6.383521861459053071e+01,-4.352655160233766196e+01,5.433492903570345334e+01,-5.599250113964615139e+01,3.305056785770818806e+01
3.060169476930880705e+01,-6.302917627104842779e+01,2.253913043447883524e+01,-3.025336500729815725e+01,4.822197720874055449e+01,-5.936668186710603123e+01,4.290487492093222954e+01,-2.613279118175012172e+01,3.351433699366165797e+01
2.605771054574212542e+01,-5.355873397422836746e+01,2.542813579119626866e+01,-3.389953917194645783e+01,4.296818363016359399e+01,-3.941684270359588282e+01,3.353587825753056961e+01,-2.773075652440828520e+01,2.561596414941163857e+01
1.603388438563541740e+01,-4.261091804497564794e+01,1.419445244963104713e+01,-2.777910359261129969e+01,2.139806050407904081e+01,-2.882677117100043773e+01,4.012709230221997814e+01,-2.460642307922145022e+01,3.106972625149995793e+01
9.173615846136392804e+00,-2.841246969875249206e+01,1.090925991453968180e+01,-2.009701421495545759e+01,1.966841513761686144e+01,-1.632209505010665396e+01,2.596964608838793964e+01,-1.987411855522875825e+01,1.798476053235471284e+01
5.413367032010771851e+00,-2.078458217488420345e+01,6.348960563819792569e+00,-6.322756219892244900e+00,2.689879062337288218e+01,-2.124366118495359856e+01,1.977820279709047213e+01,-2.590588242364348659e+01,1.481756098707689162e+01
6.102483382686401114e+00,-2.213543015377433676e+01,7.874686809541550758e+00,-8.836433210343273004e+00,2.827028896700508653e+01,-2.146137632438987097e+01,2.158264325296673292e+01,-2.775875389315594788e+01,1.536189116967809554e+01
-6.644411564771104395e-01,-2.116099099134472894e+01,1.138148597113604410e+01,-1.187652372849082383e+01,4.191848903684507377e+01,-6.776475781154431388e+00,2.461003650273215015e+01,-3.595688185059970721e+01,-2.474698001390958524e+00
-1.210754689587492550e+00,-2.470041592412855991e+01,7.572441884459600203e+00,-1.075277164256593210e+01,4.263250277628173990e+01,-6.814538660087208655e+00,2.697307691115907602e+01,-3.602194527183234385e+01,1.322404615544680695e+00
-4.884050466984980687e+00,-2.645571921727603737e+01,5.053007535935279293e+00,-8.186970361395211171e+00,4.401008811974699597e+01,-3.478703900649421143e+00,3.809585276286280475e+01,-4.040223696917294660e+01,-4.751267507374183907e+00
-9.377653844106347947e+00,-2.493650625606121451e+01,7.209705724728955545e+00,-7.368764069319539090e+00,5.726368603352176478e+01,1.151224346631134665e+01,3.321796772737010173e+01,-5.133193343619075222e+01,-1.718874534796851350e+01
-8.840558625069107279e+00,-3.243754871895606584e+01,-2.934011447646987847e+00,-1.214081479055963086e+00,5.509358339347832612e+01,1.800300226679858895e+01,4.236164911513789377e+01,-5.802345682283441164e+01,-1.300857769215342330e+01
-2.183380419655739146e+01,-3.491948607729767673e+00,2.479584163082607517e+01,7.958192505782335502e-01,1.034688864991354080e+02,5.520675128159439282e+01,1.738885909093356474e+01,-7.455371262252415931e+01,-1.027766923262664847e+02
1.243646933865881010e+01,-4.447175612345824902e+01,-1.538008495182367596e+01,4.416380248104451312e+01,4.311539075225232409e+01,1.457400234275010007e+02,-5.819260746117606686e+00,-7.404007491123167028e+01,-1.067445092667620514e+02
-1.326446651919590458e+01,-1.802779230247833198e+01,-1.404912541195246334e+01,4.092044352481978819e+01,2.749633013318071306e-01,1.518260109003518892e+02,-1.791590579247933235e+01,-3.635967515797049998e+01,-9.440445254240681550e+01
-1.284322059537156235e+01,-1.384882290390938664e+01,-1.148636275731537282e+01,3.709439319865106910e+01,-7.756527735633081733e+00,1.433302130644742931e+02,-1.564599565595739250e+01,-3.403134989656760467e+01,-8.581232671837427972e+01
-1.432972119221008889e+01,-8.254450676845014101e+00,-8.717270770788919876e+00,3.437600963770106688e+01,-1.144045569763900616e+01,1.342645707632391634e+02,-1.740325769821305002e+01,-2.910163058485061072e+01,-8.039379378038849211e+01
-1.493921883190272837e+01,-5.739447390158764151e+00,-6.418274282028145095e+00,3.143889099941898024e+01,-1.445338627825701039e+01,1.271907734295542696e+02,-1.542437956571588487e+01,-2.705655022293735712e+01,-7.559840785800253116e+01
-1.714216578224903031e+01,-4.288709680715886208e+00,-3.053761433329530206e+00,3.348160993916825134e+01,-1.454084729695461675e+01,1.177144860203710977e+02,-1.389196803770269106e+01,-2.581513463769551109e+01,-7.346350909089096604e+01
-2.250050897621750323e+01,-4.998760084264542769e+00,-4.593804457609692804e+00,3.550301722599407128e+01,-1.340983782220027365e+01,1.094387189394309132e+02,-1.091365858379997889e+01,-1.750732231082062995e+01,-7.201784393080038171e+01
-4.578451636816151904e+01,-2.693049516130935217e+01,-1.215484544787841514e+00,1.168938241740045214e+01,-2.868359345159774421e+01,1.043577355977701586e+02,1.632047753288982506e+01,2.627703957452126815e+01,-5.703054559625002184e+01
-3.114689713877133670e+01,-1.136886929159812354e+01,-7.346298966122617458e+00,1.610838510359980091e+01,-2.274576401880298704e+01,9.874068489628939460e+01,6.441329795564035621e+00,1.929734760220295442e+00,-5.161229947190528833e+01
-2.332601078487991231e+01,9.653616457325126632e+00,-1.109511643767495670e+01,7.943400357452503613e+00,-2.643761121521683322e+01,8.500828869128837084e+01,2.781890439467612275e+00,6.772562689325585694e+00,-5.230102019702242444e+01
-1.654955033865396530e+01,6.971258929991765108e+00,-2.091773581830998197e+01,3.712435950023767361e+00,-1.989520255140099891e+01,7.571587737071806146e+01,9.890707052054819926e+00,4.770099025557705374e+00,-4.469788961997350896e+01
-1.316019572129449955e+01,4.763122853634616405e+00,-1.252612639643897907e+01,3.210951611987081122e+00,-1.082398498092330108e+01,5.785055142594323030e+01,1.331480356215415561e+01,-2.059630925881980268e+00,-4.156949142919925322e+01
-6.442981173007335194e+00,6.044267771592924277e+00,-5.046179361675704911e+00,3.638517801725924095e+00,-9.707331349225560402e+00,3.798521242520094887e+01,7.570077570686651214e+00,-4.302057396468760508e+00,-3.073952628883132476e+01
-9.351887501700893779e+00,4.543124179927261252e+00,-5.839598051090673536e+00,1.951285614847252159e+00,-9.645725313117981869e+00,4.180170431506163453e+01,9.938486288359607457e+00,-4.982957562167558585e+00,-2.941443197016330302e+01
-9.716460880480138229e+00,3.342207681423678078e+00,-5.308857061604276062e+00,5.238672880866014125e+00,-7.759853910136076394e+00,4.281725073381764446e+01,7.125015995634276678e+00,-1.909669078734556269e+00,-3.482830636078245590e+01
-1.121883676142651787e+01,3.760329069027730675e+00,-6.695517925528525538e+00,3.594555757899295045e+00,-9.106737806848629546e+00,4.670021982986204989e+01,9.554782046375956739e+00,-2.993115125419679057e+00,-3.459567908394315339e+01
-1.217416628784994970e+01,-4.477946283617074918e+00,-3.597282955276787320e+00,1.565958780073970757e+01,-8.155979455416790813e-01,4.714325587286201369e+01,-7.050646646132072703e-01,8.224402858332151567e+00,-5.025718839503775826e+01
-1.325837325268106781e+01,-1.919991279580470778e-01,-9.298200915694215141e+00,8.903228846095540661e+00,-5.837555183832623840e+00,5.524857749223203029e+01,8.221702274510532149e+00,-7.041363959120605642e-02,-4.471696649305399518e+01
-1.295972196768583728e+01,-3.648942966934668686e+00,-1.484050697930111617e+01,2.843950886665063749e+01,8.242926899862617063e+00,5.765551774838862542e+01,-8.125891186662769883e+00,1.896616712896285151e+01,-7.472905754332033723e+01
-1.596405163694949003e+01,-1.070322376829930633e+01,-2.830867425084790057e+01,5.508029212958875576e+01,2.743793695323417126e+01,6.889466840579875395e+01,-1.711196932354224032e+01,2.750334618812182441e+01,-1.078283246967905598e+02
-2.591709152716699194e+01,-8.531588170939256699e+00,-3.948123353750391828e+01,6.459420019516612399e+01,2.858838429660018221e+01,9.904039376204168832e+01,-1.798175377979985612e+01,3.268291765844864472e+01,-1.339942288982374805e+02
-5.967003122667202319e+01,4.892032182373317539e+01,-5.140688310451065490e+01,3.718200703970396148e+01,-4.433698904158387677e+01,1.945291448194138297e+02,1.576425052471051913e+00,3.219299345091677367e+01,-1.599869888141192860e+02
2.054742031298081173e+01,-3.911081831136473852e+01,9.407735953348402802e+01,-1.331730374300450990e+02,-4.246047839279459879e+01,-5.258989886669617420e+01,6.735104333104216323e+01,-5.894577114467531942e+01,1.433041809679733092e+02
9.681001317524085437e+00,-4.695886442202408517e+01,9.635367689190357510e+01,-1.322803791969862459e+02,-5.298474309823296835e+01,-3.516837844872616614e+01,8.429194335352366352e+01,-4.254243494819874627e+01,1.186081785638037189e+02
5.375230394724384908e+00,-4.485291510864281861e+01,8.015547475941519906e+01,-1.177893793433628247e+02,-4.126395498805101170e+01,-3.532409188638374076e+01,7.817966162330941415e+01,-3.681769821412731147e+01,1.113376727632604997e+02
-2.562035890994566412e+00,-4.323729500190245290e+01,7.159427060090325767e+01,-1.043161549905231169e+02,-4.454923340086721595e+01,-2.135366406113890037e+01,7.406245633030297881e+01,-3.641198735989757296e+01,1.057736437741127276e+02
-2.352629429423228835e+00,-4.836077737889312544e+01,8.133890029891577456e+01,-8.989434529796945128e+01,-2.798193199088268202e+01,-1.155525156489604299e+00,3.850744553396326353e+01,-4.791640220316022436e+01,9.681526562395410451e+01
-6.211036815743942618e+00,-4.173049684037016505e+01,7.010192970148803226e+01,-7.887159625504979488e+01,-2.828754254444966065e+01,9.366945157956436674e-01,3.362260521645143285e+01,-4.339056018551647043e+01,9.283000320734247168e+01
-8.344346533367843932e+00,-4.220514636089327354e+01,6.451478912478140160e+01,-6.827611224881279384e+01,-1.587300706000820050e+01,5.692676695891776717e+00,2.413178807955612371e+01,-4.513774331322960620e+01,8.449710161606634529e+01
-6.401304686752730788e+00,-3.794998466590970310e+01,5.562908427513679044e+01,-5.672225629851013196e+01,-8.481823211181414024e+00,3.558962354806361361e+00,1.542740637378092572e+01,-4.492610930743703079e+01,7.886602516607086955e+01
-1.217014706159119442e+00,-3.569342482531450145e+01,3.821237938608914675e+01,-4.710637047375715269e+01,-3.847514280579211743e+00,5.998449998772557024e-01,7.200777327441635123e+00,-3.532589317808182727e+01,7.617721575047482929e+01
7.772082182929450411e+00,-2.117166511442587407e+01,3.711576617776918141e+01,-4.162923551494185403e+01,-2.921800647160522857e+01,-1.391517137244256830e+01,1.002028121388064719e+01,-1.410581089344020711e+01,6.413175979226912204e+01
8.929267466497853079e+00,-1.615581085870761058e+01,3.652623218235451219e+01,-3.225611286085246832e+01,-2.861987620769992446e+01,-1.634725178244568866e+01,8.794891847564088039e+00,-9.598687258936891453e+00,4.772734747184095738e+01
7.910864697882281860e+00,-4.195403708496344919e+00,2.577910297737419398e+01,-1.521860392116104777e+01,-3.051657001920401768e+01,-2.079142513115701973e+01,1.478193473041463335e+01,-1.118219551306905224e+01,3.243229588530445540e+01
1.455360253258527692e+00,-1.654529745791648310e+01,2.003321376822022515e+01,-2.522036505481019120e+01,-8.532896388193867310e+00,-5.665156849038908149e+00,1.026010672947582769e+01,-1.362935795606371769e+01,3.684439295507166179e+01
6.746642476044871550e+00,-9.064579931772957622e+00,2.287288897859929193e+01,-2.796125535833417786e+01,-1.510943065916332095e+01,-9.181210208621914504e+00,6.609334820072959360e+00,-1.437082668582389466e+01,3.845843656902267327e+01
4.046717977442741976e+00,-1.451554048401926700e+01,2.300083990507992127e+01,-2.896275678247404173e+01,-1.172773669710857547e+01,-7.570695139467710000e+00,9.285128573786794348e+00,-1.596239649856608978e+01,4.140643914377906754e+01
1.727112735764975149e+00,-1.991348664760416654e+01,2.389300049991445363e+01,-3.102484092991942433e+01,-8.614395239725180176e+00,-6.203809563573353003e+00,1.220280721050023942e+01,-1.780747941322810490e+01,4.474109134786224473e+01
-5.537220215433139003e+01,-1.148559745890842834e+02,1.098782402163145377e+01,-2.024337951168313054e+01,5.534372624187869860e+01,2.028748616455750664e+01,7.058837361702683211e+01,-2.841150599562645596e+01,6.067565220531068348e+01
-1.099464349742601321e+01,-5.068700598177531447e+01,2.351937958493824610e+01,-3.267810080201966372e+01,3.073928513792541395e+00,-4.339037607639347982e+00,3.303289732774925369e+01,-2.181231251468848953e+01,5.988489497701311848e+01
-9.097413320213181720e+00,-6.169746182237561527e+01,3.506687478235123478e+01,-3.854050460257578692e+01,-7.625106168526969874e+00,-1.278951420068798761e+01,4.159956026174029375e+01,-1.653579918397856474e+01,6.861936425426935671e+01
-2.547900414305542327e+01,-9.839413242635933443e+01,4.225626938936366628e+01,-4.315619967051500083e+01,-1.258993487281762569e+01,-2.116091001989876474e+01,8.117927822767636314e+01,-2.707693641430402920e+01,1.034215699298872835e+02
5.005384676793401866e+01,2.830643040050870241e+01,7.493679302625405114e+01,-1.301896243809798648e+02,-7.954380345301053978e+01,-6.722975639927589953e+01,2.376686304615507339e+01,7.263584030961908411e+00,9.163566696063368511e+01
1.356244299992957849e+02,2.579166319027144709e+02,3.431550631723874289e+01,-1.081066696619061531e+02,-1.708930458256879206e+02,-2.031019377716113752e+02,-2.060166058277559387e+01,9.303104323298077816e+01,-1.918429752800062715e+01
1.077302813702923459e+02,2.307345451439678072e+02,4.727495019912737462e+01,-9.021056016477473349e+01,-1.210495802032261849e+02,-2.019272555656104373e+02,-1.712176014593396189e+01,7.096049514124842972e+01,-2.739111577509798678e+01
5.519232483981486581e+01,1.293718412134337257e+02,-1.726859953994610208e+01,1.143443318168483529e+02,-1.757630082468247679e+01,-1.070550248700631641e+02,-7.866973123796904588e+01,-1.418721722313398814e+01,-6.515162417430609310e+01
6.773597997636225898e+01,9.651680430988099602e+01,2.996600410548424520e-01,1.311077924214969812e+02,-4.678730602282060147e+01,-1.055369995386367208e+02,-7.622327324861795717e+01,-2.885697975313183505e+01,-3.925567818515757779e+01
5.979201192832530154e+01,7.336594120905502336e+01,-1.767245719023433281e+01,1.514451179583797966e+02,-6.460063442863432215e+01,-7.623487907644283723e+01,-7.514147043187867325e+01,-3.663931009388212345e+01,-1.531431987468968181e+01
5.650877059096065835e+01,5.613533623859569843e+01,-1.233094801352303094e+01,1.414986696624755211e+02,-6.953349418738173426e+01,-8.601295503255592223e+01,-5.656302775102165015e+01,-9.990327608400903614e+00,-2.071202389916137321e+01
4.737643107597342151e+01,5.847211929491214732e+01,-1.459478404664210416e+00,1.107311705454058028e+02,-2.676258647845128280e+01,-4.017208947869545455e+01,-8.851188058209970677e+01,-9.852769246185687280e+00,-5.082091672620573064e+01
1.225697614981453825e+02,1.824468212226786363e+02,1.038752629384991195e+02,-3.220059306366957799e+02,-1.452968527644534902e+02,-1.043605327547586370e+02,-6.456284290884400434e+01,2.503192342433624731e+02,-2.398492083791203555e+01
3.544340025140214578e+01,7.782410530377183022e+01,-2.046142712467365499e+01,-6.830879066640754615e+00,-5.543580336908921424e+01,-6.277785603541937576e+01,-2.810825906960440790e+01,4.007879948961667793e+01,1.926791962063919073e+01
2.791271615882580903e+01,7.201715530543430077e+01,-6.471183268119384380e+00,-2.015249806078452366e+01,-3.520025899002654057e+01,-5.097551315964752661e+01,-1.852588930628599684e+01,2.072432427943647681e+01,9.671147041172803327e+00
1.940657660479666191e+01,5.628734724222606189e+01,-4.977597375661034107e+00,-1.501382382933549664e+01,-2.684504294088882048e+01,-4.227318155761987839e+01,-1.291309144582613655e+01,1.602120269586858470e+01,9.307610606469731707e+00
1.111811445576962498e+01,3.542962131538624249e+01,-1.405551539443003151e+00,-2.347623726383392118e+00,-2.385159780653735950e+01,-2.505298854743471537e+01,-9.014524494063175908e+00,1.369924789713733837e+01,4.253024455678344751e-01
8.317255061575139052e+00,4.108840151689140896e+01,1.119313491382989412e+00,-2.646299818726358666e+01,-2.521507007290182401e+01,-3.571783622434509198e+01,-5.386283186296466852e+00,3.174853012264662055e+01,9.508687478313746055e+00
9.086798490976729425e+00,4.167215703144286465e+01,3.421033800423103344e+00,-2.400988045317830455e+01,-2.594598903170384574e+01,-3.458199019203308211e+01,-6.178266982334559287e+00,2.877378851435133456e+01,6.762348822060999964e+00
1.949790078003696792e+01,3.979300844266239068e+01,5.503795966405501616e+00,-1.363861906673811220e+01,-2.011607828401792020e+01,-2.756217860127662078e+01,-8.967050264730954012e+00,1.105617974665470804e+01,-6.566958718996968258e+00
3.503526101154024275e+01,3.657455605634199003e+01,2.172219528865917226e+01,-3.538120949759320411e+01,-4.069740826913636056e+01,-3.527283957603849274e+01,1.286012732904684697e+01,2.565152537411386646e+01,-2.149220771679291886e+01
2.574260596345574825e+01,3.856381223191644381e+01,-3.665133690129529498e-02,1.075129813870500683e+01,-2.384299200100766924e+01,-1.937958340755708875e+01,-1.398342265588779654e+01,-1.792021037086572344e+00,-1.702304589388871747e+01
-1.056310086084089761e+01,5.065683069251319637e+01,9.964713099644859184e+00,1.605406098536022341e+00,-4.257615033600481524e+01,-5.242598409602158682e+01,8.511784316900161684e-01,3.702331102597997869e+01,4.463795944412854766e+00
8.433472005002210281e+00,5.961115105095072408e+01,6.267444702017926694e+00,-4.358093510767149681e+00,-2.833895532442940279e+01,-4.387275149531126317e+01,-6.220793220410049784e+00,1.125583079812280118e+01,-3.777305006947954347e+00
2.433516495737945107e+01,6.392997224443988102e+01,1.254743894741334742e+00,4.626904423259448507e+00,-3.628633984013077907e+01,-3.996505246137768808e+01,-1.604726139779519656e+01,9.383149728798098721e+00,-1.223128154911738719e+01
2.612188847867627572e+01,1.061361819683582155e+02,4.946811089960220897e+00,-1.128237488950658474e+01,-3.827363088853657302e+01,-7.325956733379649677e+01,-2.548576880063651373e+01,1.070611349953819058e+01,-6.096531240881866154e-01
2.219272044785993785e+02,-1.199520940787587051e+02,-1.780215821298299943e+02,2.085117844643773424e+02,-1.433187502116857104e+02,1.340757747648476652e+02,3.089545321680679990e+01,-3.718375097970567822e+01,-1.179340395246563276e+02
2.002575988349284444e+02,-1.031929917421217624e+02,-2.282467334045650205e+02,1.928203000609170203e+02,-1.122404126530259418e+02,1.357707636713860211e+02,8.538706545696481953e+01,-6.135430950210047740e+01,-1.102012807213480983e+02
1.410189497905376754e+02,1.258563756021175095e+00,-2.701945334830884349e+02,3.045633366940217002e+02,-4.641260075299646815e+01,1.654080643120668128e+02,5.617627461091387886e-01,-1.849418745064906489e+02,-1.122616685562011867e+02
1.297868256311774360e+02,2.762947145449489028e+01,-2.206217653715291931e+02,3.158806647272336932e+02,-2.212275713716360315e+01,1.578212825587953034e+02,-5.767995564078347570e+01,-1.732795025093215031e+02,-1.584142637128777551e+02
1.265855080223532383e+02,4.559864581832341912e+01,-1.701339169407040401e+02,2.948490919475336227e+02,-1.813448022197141540e+01,1.142231073836491504e+02,-8.259545494084733264e+01,-1.623934502142016072e+02,-1.489990508540529675e+02
1.192265961278419155e+02,4.290803348108592274e+01,-1.516793047568312431e+02,2.607018652373523651e+02,-1.453321769862210999e+01,1.028021141857270209e+02,-8.391398159086817543e+01,-1.512573043398742243e+02,-1.252548006458162604e+02
1.084300790667722936e+02,4.357042557191515186e+01,-1.322044705104223965e+02,2.413514191533380995e+02,-8.049711329697366580e+00,9.452859101885910320e+01,-9.103795874603164862e+01,-1.410278163339293087e+02,-1.165605578908003821e+02
1.077716740643400470e+02,6.275643331782988099e+01,-1.135333169430955138e+02,1.999064804220995484e+02,-1.903569649517771722e+01,7.621090510321809575e+01,-9.530098883766927997e+01,-1.234513767571605030e+02,-9.632411387741450426e+01
9.331195788988856066e+01,5.489896613397701230e+01,-9.460387997329513610e+01,1.818023549706370261e+02,-2.533400313765230294e+01,5.991330944637172706e+01,-8.700918682286481953e+01,-1.144539802336822447e+02,-6.952553827334872949e+01
5.478231763080924566e+01,-3.604816572866963043e+01,-6.928499659130562804e+01,2.362799532770491169e+02,7.917076344444922142e-01,5.399050120283709475e+01,-6.541375321839306878e+01,-1.440898370348947140e+02,-3.200772717194763572e+01
7.885006044633333033e+01,2.129580816297016810e+01,-1.617236326796694357e+01,1.281918268626001236e+02,-8.918525115694887972e+01,-3.458274267423234960e+01,-2.340549161988101190e+01,-1.340099597124460047e+02,6.801811296131458562e+01
1.495459378127920900e+02,3.323590790003564166e+01,1.958963467108537770e+01,-2.247192176251337514e+01,-2.690708747660119116e+02,-1.533166085907887464e+02,7.903770419663032953e+01,-8.366450346386136516e+01,2.461147239553508825e+02
1.040699393959357621e+00,-1.128233837464023281e+02,-7.975383200730084354e+01,1.767842451215115034e+02,2.841246982317670700e+01,6.824683689267430964e+01,-2.821561066454637512e+01,-1.207822754032733883e+02,6.609085022522594954e+01
1.547633220459169934e+02,-1.328852635407619687e+01,4.257285418779440533e+01,6.481497853227836003e+01,-9.715383945169855906e+01,-8.236205476415102567e+01,2.653598329016324442e+01,-1.537306392049262058e+02,5.684792171035655883e+01
6.836686853831213284e+01,-1.931362071697888894e+01,-7.811306756305421573e+01,6.497605197008277855e+01,-5.539425550225297457e+01,4.801566320063881221e+01,-1.917055513029697522e+01,-1.329492518393738010e+01,2.927840387541408518e+00
1.232175519497778140e+02,-8.899293858300922011e+00,-3.591516064535167629e+01,6.851787397987645534e+01,-7.507210078977783496e+01,2.972995225332738300e+00,-3.800105761328893550e+00,-7.353474058334097663e+01,1.512980481435647562e+00
-2.425706391273885387e+01,-3.472464575741355475e+01,-1.639422365763656160e+02,1.090046833180520451e+02,1.884664869795693676e+01,1.460575481154120325e+02,-5.246856054343558640e+01,2.374873969162132425e+01,-2.326511303298606492e+01
-1.648265578537064471e+02,-4.582418356169807794e+01,-2.039320806359006895e+02,1.497809155232318972e+02,1.799781978902838091e+02,2.701370239086541005e+02,-1.293813683020373446e+02,1.087718205240075804e+02,-1.657037674928226352e+02
-1.431600465905290775e+02,-2.605127405089058357e+01,-1.542031455793574821e+02,1.458900617703355067e+02,1.657257593725104243e+02,2.028291413017429932e+02,-9.711148571288441644e+01,9.958768199200585514e+01,-1.945066925027114735e+02
-1.167055714970850744e+01,1.019194785068723519e+01,-1.195136529085158941e+02,1.028747798104902529e+02,-8.769947835366124878e+00,1.090489969886376258e+02,-5.217837165195761884e+01,4.714040770753703669e+01,-7.812360281184842847e+01
-8.099509738071080278e+01,8.614350464593997003e+00,-9.886791859242296709e+01,5.975903820570027847e+01,1.339064917396217425e+01,1.375809759287264455e+02,-4.007053786892080893e+01,1.100551446592654088e+02,-1.104666045902053497e+02
-1.068285932881067595e+02,2.154378987067896389e+01,-7.907358592161547506e+01,4.196427743279704714e+01,1.616705788118622422e+00,9.818522022739520594e+01,-5.270840009376739488e+01,1.319149689721831749e+02,-5.761438298769066790e+01
-9.795838607089545746e+01,3.340722172226141140e+01,-8.128974391822396228e+01,3.999212854695105079e+01,-6.012861679990066932e-02,7.006471229993776717e+01,-7.241374706761901336e+01,1.306648248735772881e+02,-2.340688176919059771e+01
-8.913679356769212347e+01,3.416187370778357746e+01,-7.562032591058351727e+01,3.916209581178507193e+01,2.005706467477352817e-02,7.148009246255573146e+01,-7.187791777158346918e+01,1.169143363963989373e+02,-2.610341819331774715e+01
-8.247515089758914542e+01,3.820422667077518497e+01,-7.177153940576074831e+01,2.251500878438227460e+01,3.732547197526571381e+00,5.507191327469774222e+01,-5.964993803868095767e+01,1.132009692518382593e+02,-1.982803683720056398e+01
-4.981534064477968116e+01,2.023935004309529972e+01,2.193394307243048047e+01,-3.881758498292941795e+01,4.876580142005343532e+01,-4.113091446193206480e+01,-3.851541159212663956e+01,2.075826591547757971e+02,-1.312425020086433562e+02
-6.824569836286086399e+01,4.232279927992334478e+01,-5.532195335726787988e+01,-1.082481789295934504e+01,3.374144008024543950e+01,4.663358901939640333e+01,-2.905053544821219447e+01,9.627064512412147224e+01,-5.652546844236497492e+01
-5.054409647300569475e+01,5.174420980924656988e+01,-2.834531619297460736e+01,-7.095099051721828687e+01,-1.762914886858396812e+00,7.383447263652524839e+01,4.034222814404916591e+01,8.686109688846259758e+01,-1.021786894080042316e+02
-3.273765908978532480e+01,-1.243349174445277328e+01,-2.718741064157601528e+01,-9.226471307201904892e+01,-1.049500833910265385e+01,1.051000310939297719e+02,5.245155987198812397e+01,8.714331498999482051e+01,-7.057662306827286613e+01
-4.493501173877858434e+01,6.584816332875357148e+01,-4.955987654110212759e+01,-6.041927321423503372e+01,1.317986491850044217e+01,9.532269908359764088e+01,-4.157264383228125837e+01,1.716765369165098321e+01,3.968424303893797855e+00
-3.762136343866043120e+01,1.168223501338752968e+01,-4.236544367855126580e+01,1.271397070787386951e+00,8.633143183545463728e+00,5.932260913049500317e+01,-2.800641118673015484e+01,3.971696284137883026e+01,-1.363312893565812445e+01
-3.535390442963025492e+01,-3.856403397938000133e+00,-3.187945874787185119e+01,8.771966297100544097e+00,9.430882266510430156e+00,6.509607353875196623e+01,-1.111305617959714631e+01,2.174543027756455160e+01,-2.384152962491371142e+01
-2.557799394931256387e+01,-1.039340306691676297e+01,-2.214349361605225397e+01,6.460078584978724336e+00,1.539129016559100194e+01,8.021219477903565576e+01,-8.805678215493355054e+00,-5.580133764704860333e+00,-3.056286091713255360e+01
-2.483489111756474443e+01,-2.878059430111889583e+00,-2.407583568660869844e+01,7.735556310027448035e+00,9.769596817484814011e+00,5.948206769360725588e+01,-1.079311646413190218e+01,8.441321085413068914e+00,-2.384663920811424020e+01
-2.570306591593526591e+01,9.420365778597600936e+00,-2.855240131395609993e+01,8.336650108557858374e+00,9.538270954218718956e+00,6.086030464887934954e+01,-1.091689984764949983e+01,5.215952274652553733e+00,-2.919917668742093397e+01
-2.521124257342221142e+01,3.971599311708195135e+00,-2.773946084849730909e+01,5.047505985582239951e+00,1.892591222416823982e+00,3.564481336019619562e+01,-9.432735218948888445e+00,2.961072262687583034e+01,-1.478379386511866045e+01
-2.873550992428861406e+01,-1.976052821963047545e+00,-2.830917039151599468e+01,7.152043770440510428e+00,3.803251989599033767e+00,3.737996798769395923e+01,-1.051998857119934883e+01,3.418288923034102567e+01,-1.397743127074034675e+01
-3.148071734823248846e+01,-2.058747460763600934e+00,-2.954981147864609525e+01,1.325163192128142242e+01,6.848377384792327049e+00,4.206570109552226455e+01,-1.686454400526190511e+01,3.650798455222478367e+01,-1.971987465934519435e+01
-3.232318834780045336e+01,-3.154564749011283808e+00,-2.760677491889530799e+01,4.859505560346352837e+00,2.058278607715163133e+00,2.349331165670156452e+01,-2.209886643581184629e+01,6.012075964660238014e+01,-6.348461019841613151e+00
-3.646828427106477477e+01,1.329872886230862328e+01,-4.607706996952661171e+01,5.524098530062278911e+00,-1.553895531934821772e+00,4.538313456509622767e+01,-1.307476288891610317e+01,5.474695050694622722e+01,-2.277889980294504824e+01
-4.656144696262103366e+01,1.575987100825410181e+01,-5.962745661223801363e+01,3.318948629349645074e+00,-5.074174914588386542e+00,4.764910988306209561e+01,-1.760815900925868149e+01,8.294332873291065766e+01,-2.180002075493080582e+01
-1.359188034741592332e+02,-1.956509722549899095e+02,-5.575232361411917736e+02,2.160460898922140700e+02,9.518738810114962234e+01,1.516872840269914491e+02,-1.227235951183584461e+01,9.832911703738855635e+01,3.391154923245706527e+02
4.830496091538319803e+01,-2.558703528688859308e-01,3.409211922722171266e+02,-1.883257712548741125e+01,8.039884426548070451e+00,-4.122458770126389993e+01,-1.233810059458397177e+02,-5.103653483852347250e+01,-1.635354616501630858e+02
1.307974980245556651e+01,2.666100713814580558e+01,2.573216277080520058e+02,-8.748135351395515613e+01,3.460701400649668358e-01,-9.324337329784441408e+01,-1.522878451987990545e+01,-6.949626874140369637e+01,-3.295867471563738604e+01
3.932360470839935829e+01,-1.658827953024169943e+01,2.512792084407786319e+02,-3.354039601781382629e+01,1.222333698348456110e+01,-8.543547635925625627e+01,-5.041059134056737179e+01,-3.680434316551153273e+01,-8.104706371927389341e+01
-7.512284981470997991e-01,-4.837907060100073409e+01,1.987433899543191558e+02,-3.787618647748972478e+01,3.337737959355241202e+01,-9.309818119166385486e+01,-4.505925894260063558e+01,-1.503468303817844287e+01,7.077839201209371822e+00
-1.689061196884721028e+01,-1.336857093219776118e+02,1.315189509014861926e+02,-1.664756841176007640e+01,7.654631721096711772e+01,-4.659192245003782773e+01,-1.034893334629414596e+02,-1.098919092241204964e+01,1.192290684255234510e+02
-1.659981787671918596e+01,-6.821086730663172659e+01,3.996572786151810419e+01,-2.620864091346725644e+01,7.935666244912911793e+01,-2.295787543577600616e+02,-7.343852135522764968e+01,9.748784786892329635e+00,2.839654267122491547e+02
1.469229017213662303e+01,-4.190493354326071085e+01,1.175219541741439002e+02,-3.311799980950721078e+01,2.591710745134039229e+01,-1.271910220142669061e+02,-2.223902612658071121e+01,-6.851004334833788789e+00,7.217263403007943623e+01
1.046249637097535867e+01,-3.521416490926267784e+01,1.118013213129599706e+02,-3.573249089187560656e+01,5.269366614643821833e+00,-1.179845298299253358e+02,-2.101741935171000364e+01,1.015177882514174712e+01,7.126364185905607940e+01
1.905849065212998994e+01,-7.074046735578534140e+01,1.067674912204836346e+02,-3.253934476963233635e+01,7.134713803826343792e+01,-4.135432300717019416e+01,-1.579579361809842908e+01,-9.258630283544462714e+00,-2.848456087665684322e+01
1.541131641935746188e+01,-5.404599382690534526e+01,8.470295313482665733e+01,-4.336090343433872363e+01,1.796442739554733947e+01,-5.412620342681699981e+01,-9.840782948642470274e-01,-4.604760230614886041e-01,3.389895805623666547e+01
1.083361800101389605e+01,-8.905401684758943759e+01,7.935415812447133987e+01,7.039356134244604846e+01,1.475891372409120095e+02,3.380328924260785328e+01,-7.563780012144044917e+01,-5.120816997300583751e+01,-1.270737770089261431e+02
9.142435056643975599e+00,-4.406796497480505082e+01,5.217855401009320815e+01,1.349058893911407608e+01,5.840166171295227571e+01,1.089308281215707552e+00,-2.786002906473908070e+01,-2.724743470282368207e+01,-3.612711844949852491e+01
-6.121962099581296002e+00,-7.533749270027819023e+01,5.509808137828458996e+01,3.749330018079321292e+01,7.991048596506965396e+01,1.438010810455834942e+01,-1.887320903853295562e+01,-3.176165257876044734e+01,-5.578765921146960238e+01
3.000615829909776267e-01,-5.906072675877524603e+01,5.732290613255488410e+01,1.271787171200691091e+01,5.416095265462399055e+01,-6.712361043058074017e+00,-1.430504100160361958e+01,-2.375503067205520935e+01,-2.166863260643707889e+01
5.270260840757828191e+00,-4.552206850167071650e+01,6.086310128079647086e+01,3.082274355106662256e+00,4.990886824350202033e+01,-1.512464581347043691e+01,-2.188410776516661116e+01,-2.755579438010257931e+01,-1.003788825982125132e+01
6.123276774876373452e+00,-3.387471813921863628e+01,6.790200010949867249e+01,-4.073590110013093124e+00,4.129551299177496304e+01,-1.728227836567764086e+01,-2.846697227834438593e+01,-3.379973105205124995e+01,1.176500069634808909e+00
2.958595756348316286e+00,-5.999549148742396198e+01,7.653251893984693766e+01,1.347464364676469017e+00,4.267254364254614529e+01,-2.001643353713177476e+01,-2.251742287873661752e+01,-2.427787346267430735e+01,2.296098664524979682e+00
2.302671423934604888e+00,-8.593180956331745790e+01,8.822352233232516028e+01,3.026041044440418659e+00,5.260006321280624064e+01,-2.887165921177496131e+01,-1.391874579634894360e+01,-2.166267553623516307e+01,3.232592094361081081e+00
1.536433813393186476e+01,-2.995932716516031036e+01,1.026819889046691117e+02,-2.256348902378549326e+01,4.905642215228262160e+01,-2.626301074959058823e+01,-4.538658308082348469e+01,-5.167902624026056912e+01,7.748687048611535566e+00
1.976117694412890202e+01,-5.576398672161458592e+01,1.340064000491689455e+02,-2.712540943784640035e+01,6.336443099492568365e+01,-4.668840439990592728e+01,-4.648641915123315016e+01,-5.757710952803336824e+01,1.550932125097936343e+01
1.011303372641430940e+02,3.567574551608942102e+00,1.962853714546405968e+02,-4.752505928240100275e+01,5.522437243707786791e+01,-3.668230677132953588e+00,-1.002265925777141007e+02,-1.080574516362267588e+02,-9.773032147816391557e+01
1.244404412596373817e+02,1.837705117480730621e+02,-1.319821366925772210e+01,2.622567729169291795e+01,-5.286857132966017048e+01,3.583623091133881644e+01,-9.287610032149140693e+01,-7.801890299925869954e+01,-1.343110728910921239e+02
1.277221812467881250e+02,1.691157746299726057e+02,-1.417916670758702757e+01,3.490130699340628695e+01,-7.593865794605827091e+01,-1.680044364253328126e+01,-6.888667191605772189e+01,-6.558800178522989199e+01,-9.134632087265246980e+01
1.191165934640945210e+02,1.562103143108166137e+02,-1.587399005545534436e+01,2.417610734474060052e+01,-6.294919278384483619e+01,1.507014831039167291e+01,-7.273777707958734595e+01,-6.455206088083971849e+01,-9.946014263026090418e+01
1.076729400814116389e+02,1.468024256377942152e+02,-1.398839042969722257e+01,1.979628026749488967e+01,-5.734122093806986697e+01,1.274477961482979538e+01,-6.799276204936555246e+01,-5.633000568548348497e+01,-9.236404649891218810e+01
7.796949029908785178e+01,1.425155919475536734e+02,-8.997178634320029289e+00,-1.014717319277212226e+01,-3.489262935835526491e+01,3.368339322633578803e+01,-6.371058127499487966e+01,-5.094935186348123324e+01,-8.647156114904947799e+01
5.847294047474129286e+01,1.317300825223056506e+02,-6.426502260082989082e+00,-2.563307896115905749e+01,-5.306330052900713667e+01,4.123509014533397021e+01,-4.767913381901803405e+01,-3.994091261305575102e+01,-5.969518495993890639e+01
7.768437986763503034e+01,1.024116428366154707e+02,-5.423280112835957567e+00,-2.877399336800095853e+00,-1.673059819081790067e+01,5.690449376131648762e+01,-7.284532667997544308e+01,-6.708252582871310210e+01,-7.304138631594565823e+01
1.264309603169531329e+02,8.044971989971575965e+01,2.114291612233522244e+01,-1.295877910287847499e+02,-3.221312562811630187e+01,3.578910940046810651e+01,-3.924620920264155188e+01,-6.581134924700242550e+01,2.045769366766753805e+00
1.357457807311890008e+02,4.207747038354272462e+01,-1.238601987239174917e+01,-5.877623618125475957e+01,-4.108863788091264269e+01,6.251659518290730233e+01,-5.775868484465222252e+01,-1.034693070366258922e+02,3.213903951612846299e+01
7.945734222030912974e+01,4.672813569446230275e+01,-5.004063768821094271e+00,-2.959008612508063862e+01,-3.758622911100686537e+01,4.758041109927415135e+01,-4.461675275478279445e+01,-5.622874705697088160e+01,-1.740010197284961535e+00
1.466520653522589512e+01,6.027916128074561897e+01,-1.435684760385185221e+00,-2.492874986775550639e+01,-3.243613519089691977e+01,3.542910223364526701e+01,-1.321929379806332783e+01,-2.407142356113406834e+01,-1.528218287141095644e+01
-9.227246107764541350e+00,5.560370408765524530e+01,1.542893181939524183e+00,3.234143766443281720e+00,-3.839620280812366104e+01,6.338410454751794987e+00,-2.249979675196751572e+01,3.968067954118084550e+00,-1.563973777043778046e+00
1.206306032201491796e+00,2.385674919870909605e+01,-3.204227722820885305e+00,-4.018741442469613645e+01,-1.893737277427510435e+01,8.210395847547366088e+01,6.456217676276065731e+01,-8.402629274702823636e+01,-2.637388280031282051e+01
-2.243985697228019660e+00,3.627576683713452610e+01,3.425712617064192500e+00,-4.992738831313768344e+01,-1.803162689357602488e+01,4.739037309479542159e+01,7.027641437921786860e+01,-6.135720273898358101e+01,-2.680806328525837046e+01
2.772258819504751060e+01,3.864436367234011982e+01,1.367365389281119725e+00,-2.490105199209689602e+01,-1.037025773715404142e+01,7.208517150524370365e+00,2.384226183893679618e+01,-3.740937870939084320e+01,-2.710440780747286027e+01
5.866250920420088022e+01,-1.996354151583627612e+00,2.814542836985404861e+00,-8.208030735565037617e+01,3.422183229456126696e+01,4.667331382900647441e+01,1.045589453204592445e+02,-1.024409269546804069e+02,-6.141355502322312532e+01
2.294687668686714943e+01,4.526213019161959039e+01,7.599779962990184323e+00,-2.826667770581140005e+01,-1.464888801864559120e+01,1.023016934098773589e+00,2.516364067087870637e+01,-3.584496923094364718e+01,-2.423490949059044297e+01
2.645980604465283292e+01,5.068537830177820780e+01,4.445333255442710296e+00,-2.336775826022029889e+01,-1.916531342478283051e+01,2.344279425261394323e+00,7.715957384877587089e+00,-2.864444386174737645e+01,-2.147323886548252148e+01
3.184545321916350957e+01,5.261488486631373007e+01,-8.780011167147581119e-01,-2.569083781356679452e+01,-1.496498860803092334e+01,1.299658008580401436e+01,1.713431993928464792e+00,-3.338929422417731985e+01,-2.524722840217960140e+01
3.213956417395696263e+01,5.789691181929597974e+01,5.327296124405188849e+00,-3.199797542267727124e+01,-8.496282396502115475e+00,1.696257218815566681e-01,1.859678584452155548e+01,-4.314575132633770238e+01,-3.149017453855714166e+01
3.406747746111114594e+01,6.500283984385583835e+01,1.363207505528637320e+01,-3.859558764948097576e+01,-5.846511095049777396e+00,-6.824777303123541472e+00,3.610141309647912777e+01,-5.690928147993412267e+01,-4.162764792899221789e+01
3.912575576061384908e+01,6.744874877090674659e+01,4.145184522042588071e+01,-6.429356511503803517e+01,1.393223744233248595e+01,-3.472878551339206865e+01,1.023425679159029329e+02,-9.926765540100547014e+01,-6.701114908069618537e+01
3.532621271423677456e+01,6.531911276759362295e+01,3.741526157830197974e+01,-5.924332878285419213e+01,1.164985779195208693e+01,-3.334703164834876787e+01,9.447995546147880930e+01,-9.057657117019391535e+01,-6.202346871216330015e+01
3.284142985125146907e+01,6.699117216038099798e+01,2.671176869736221349e+01,-5.561488112969662723e+01,1.441838235342420305e+01,-2.945421073979920834e+01,8.510969474721632366e+01,-8.294438293650665628e+01,-5.905897300359895041e+01
-1.178507069695399423e+00,1.042620155852947761e+02,-4.187041817932610144e+01,-8.262681087919241918e+01,1.486759368078908778e+02,3.403892071756666837e+01,3.115266706949260112e+01,-9.905254206458715771e+01,-9.440126198765847221e+01
2.596769515330511524e+01,5.165778065327037893e+01,1.877090647438219762e+01,-3.164432418676338443e+01,-1.726944535582223850e+01,-3.273218717428257207e+01,8.765860925201624809e+01,-5.584329972046278812e+01,-4.756573509564427127e+01
2.579268567909726073e+01,4.985923648326165392e+01,1.488637907405542649e+01,-2.997783641076668815e+01,-7.036505635663701241e+00,-3.463287963616336640e+01,7.581853044463018421e+01,-5.254942769216782494e+01,-4.316018230627655328e+01
3.138334521647243847e+01,4.665958945708692340e+01,1.286348690666796557e+01,-3.164489247758107382e+01,-2.101561351633303154e+00,-3.219043110394522955e+01,6.292868092831762539e+01,-4.854370965928604420e+01,-4.035450791785844160e+01
2.978187676643568693e+01,3.793609856809647596e+01,1.091157894674940643e+01,-2.714965044028324570e+01,-7.841961088689934911e-01,-2.920387585868951774e+01,5.785957787168559463e+01,-4.459536971711472830e+01,-3.575604002801144787e+01
2.077937302760361504e+01,5.953192926854295308e+01,1.489716751020681329e+01,-2.077813132219836589e+01,-1.541566410400241516e+01,-2.856181353903638609e+01,4.181033884339576900e+01,-3.341377199562429468e+01,-3.984942768888753051e+01
2.122703885969406556e+01,3.796828525101946639e+01,1.030276148812969339e+01,-1.900946740100614107e+01,-5.850498044378715790e+00,-2.235731636521118304e+01,3.971450247223192065e+01,-3.265252913737990070e+01,-3.034277712309954822e+01
1.449688078529504054e+01,3.146285214824193943e+01,1.363949671241762474e+01,-1.108993398076952808e+01,-8.517757467726355003e+00,-2.072076732860099924e+01,3.088360050699779435e+01,-2.811530795046175513e+01,-2.303906342539247731e+01
1.162800855437987124e+01,5.487671942090845079e+00,-2.538221157071253842e+00,-1.519388987701298488e+00,2.710517064286158018e+00,-1.407994990441255290e+01,3.113862884265110864e+01,-2.106283921804516979e+01,-1.276442713617881353e+01
1.406809692940084311e+01,5.240801230134175981e+00,-2.722200607240417014e-01,-6.353870013128108951e+00,2.401972634448298560e+00,-1.264951097551742798e+01,3.115800715903131746e+01,-2.210809371111200150e+01,-1.248518319253336628e+01
1.786887743234332504e+01,8.962211271515521105e-01,-5.004416833655973562e+00,-2.505901575808196391e+00,6.357664340388300417e-01,-1.761760512587514782e+01,3.671229007281617385e+01,-1.978838506835014854e+01,-1.219684646265250549e+01
1.790353757232703913e+01,3.893990483119331714e+00,-2.008560705003706204e+00,-6.133179649346269358e+00,2.277955029772392059e+00,-1.584407531407550707e+01,3.597791476554289147e+01,-2.336303765062923432e+01,-1.370454453177650223e+01
6.669615821605427541e+00,3.333613115302342322e+01,3.078678593568200128e+01,-3.696025950162756146e+01,1.140805956029607060e+01,9.514964179900578856e+00,1.306349850118443179e+01,-4.847048550930729505e+01,-2.034831014075832911e+01
1.800757780757220772e+01,9.405974684986698975e+00,4.979889545740274315e+00,-1.497970473978253914e+01,5.053069460419926884e+00,-1.157943226688227689e+01,3.747501585005187508e+01,-3.273494266190807167e+01,-1.662744768020623454e+01
2.558188821156211645e+01,-1.873749782405333519e+00,-1.190709708861556670e+01,6.734001918213934346e-01,1.641530510763303585e+00,-2.730009222532782687e+01,5.259614336832441239e+01,-2.389181196001621998e+01,-1.652021122610864978e+01
2.495620894645550436e+01,5.399733433407270411e+00,1.809135792109906049e+00,-1.469276132875189589e+01,8.207519214117850126e+00,-2.021128190002768932e+01,5.358704668284853767e+01,-4.112857028670568837e+01,-1.892703055495548270e+01
3.330559495639466405e+01,2.304043549636535460e+00,-7.023084827151016896e+00,-1.076604280691728377e+01,9.730352111291935557e+00,-3.040808106283722623e+01,7.223635234297555030e+01,-4.625229338883570307e+01,-2.412684077858397202e+01
6.241530584257512970e+01,-1.403326499427237195e+01,3.048858741480049162e+01,-7.165731200877365836e+01,5.578088483214338567e+01,-4.915157618443667786e+01,1.356115131406321836e+02,-1.196843375666944667e+02,-3.076980047610550173e+01
-5.553139135305385565e+01,5.681764585117157651e+01,-2.378629463866194627e+01,2.358670635689601625e+01,-1.842165002137806766e+02,-2.562835791002296304e+01,-9.536607353245507568e+00,1.718134388914713213e+02,4.548136036936600846e+01
-5.073098689646434423e+01,5.207914830986976540e+01,-2.229170228804780152e+01,2.078132905010622267e+01,-1.717436266477964750e+02,-2.001370782021481887e+01,-8.748860169429445222e+00,1.582027767689438633e+02,4.146562969291203160e+01
4.740166903440645285e+01,1.121070404527433340e+02,4.721341181903633810e+01,-1.348952281456485878e+02,-2.542634199130955608e+02,5.108223465082031112e+01,1.538229274738299068e+01,2.250412020347709756e+02,-1.100692026804843948e+02
-4.746126599000320567e+01,3.946504652974532235e+01,-2.310397391432853809e+01,1.799992611095615302e+01,-1.409320017559983285e+02,-1.994382124421974822e+00,-1.615130678353989424e+01,1.342529012677711648e+02,3.692505666002324460e+01
-4.038787230031474706e+01,2.219943930559976764e+01,-2.376593878299150475e+01,1.706357960148329767e+01,-1.132540069327621808e+02,-2.456650012143410322e+01,-4.826235199061898129e+00,1.292851880774526876e+02,3.725234635268950001e+01
-3.622378992833411360e+01,-7.309903439993092888e-02,-3.785407018829020842e+01,1.945783691211224209e+01,-6.491700899042230333e+01,-4.284347664155083635e+01,2.892560935063144711e+00,1.264945758561754019e+02,3.206647107963848953e+01
-3.415640036346647435e+01,-7.639830981768758633e+00,-3.403402714580968791e+01,3.043702835072623714e+01,-4.426859643383303933e+01,-3.398208750098233821e+01,-7.060422748067619381e+00,1.142442961947068198e+02,1.546004062863597639e+01
-3.086043645269827707e+01,-9.871296003656821583e+00,-3.012803591015766358e+01,3.247008102067601953e+01,-3.862593223263851172e+01,-2.545905685422568610e+01,-9.271967385643339554e+00,9.926100265517013099e+01,1.148564116315521488e+01
-2.677121932962091577e+01,-1.613826635438651991e+01,-1.980593273694447021e+01,2.468446834456771910e+01,-3.306997759080910981e+01,-2.283348032159655716e+01,-8.331193838053156497e+00,8.861944955508297994e+01,1.264615227175993084e+01
-2.327348849396270580e+01,-1.165727845964845599e+01,-2.095773886334112746e+01,2.688270791263289539e+01,-2.716440206229062326e+01,-1.409507409711628867e+01,-1.308194482943588710e+01,6.889808569553598261e+01,1.344913319763775306e+01
-1.152246596206851059e+01,-8.842467518886206079e+00,-2.769572968544967395e+01,2.523787049479453515e+01,-2.266582315982103779e+01,-1.699198443502973532e+01,-1.667414969668600833e+01,4.690678255061727953e+01,3.124796741245941689e+01
1.349746554843883928e+01,-3.252349049174284801e+00,-3.133907300601094903e+01,2.433945434894576465e+01,-3.316384642334762134e+01,-1.192082111546156398e+01,-2.025275150273519387e+01,2.123940977211337611e+01,3.985251142695005910e+01
-1.937461371971110680e+00,1.002629919167575423e+01,-2.707629682100774460e+01,8.230729414268218136e+00,-2.507987377608483470e+01,4.732907493422175094e+00,-1.540660558485710396e+01,3.797213891154974874e+01,7.538162542275934186e+00
6.048352353630690459e+00,9.650619429602343757e+00,-2.859312542208764896e+01,-3.668333287581745594e+00,-3.067831632059679947e+01,-2.108414330222316835e+00,-1.230380611724982742e+01,4.393695774047096592e+01,1.671606595504610482e+01
-6.761665662038637947e+00,-2.641175788149805470e+01,1.363153324991856596e+00,1.415649981448122219e+01,-1.495257886720110285e+01,-4.022197141627309236e+01,8.337969140941680735e+00,3.778910271332573245e+01,2.570124883328411158e+01
-9.118080052424472726e+00,3.117338841423837437e+00,-1.815985646932291075e+01,7.723571138795740865e+00,-2.396653710255145597e+01,6.655197682042981455e-01,-1.146462826532645707e+01,4.891376509727668065e+01,1.288907043921110329e+00
-1.094880736301965030e+01,-2.230079219911136335e+00,-1.434407658548915698e+01,1.660741548594693029e+00,-2.273890635244069713e+01,-8.113604382930155623e+00,-4.118879767671696612e+00,5.505878889116561936e+01,4.774823231677849833e+00
-3.291066151856815836e+00,-4.751672380911472260e+00,-2.666525348837146581e+01,1.719336169095284816e+01,-3.576389026074777178e+01,-5.653934164409399443e+00,-9.973912412421427121e+00,4.933943106172783644e+01,1.856693610606714628e+01
1.212698980696416129e+00,-3.868192573601709938e+01,-1.052567390602498776e+01,4.632189424057810356e+01,-3.555318028678500042e+01,-5.224524596153315770e+01,8.332373468450441578e+00,2.968623446844827640e+01,5.045282473284478897e+01
-1.021061941147678453e+01,-1.458430427562757359e+01,-7.350136415017425406e+01,-1.954840118382639957e+01,-4.846740591115303687e+01,-3.024803680853187871e+01,7.045815865542499523e+01,7.053012883880774098e+01,5.457184422946977520e+01
-3.419118758796327029e+01,-3.157864493936382644e+01,-6.389399457685897232e+00,1.943376590245520674e+01,-6.918939006539858383e+00,-8.541401547668439775e+01,1.216253932697713935e+01,9.363203942161067062e+01,3.826384181769195436e+01
-1.033552837981923886e+02,-3.111327270891130325e+01,9.116262220222516532e+01,7.275928508736622291e+01,2.348286435247464397e+02,-1.275280659803864580e+02,-4.177331791008873552e+01,-6.961546342502714424e+01,-2.636514699173666898e+01
-9.685444978554616569e+01,-2.602727749893763942e+01,1.003452660871757587e+02,7.340756207068844219e+01,2.093770023272012963e+02,-1.099679177815860243e+02,-5.009369131306893763e+01,-5.659277385782495884e+01,-4.459372024810070201e+01
-9.565405501942825595e+01,-3.022397063763110481e+01,4.762758906499119860e+01,1.074008912141257781e+02,1.773833877361980456e+02,-1.071421498297261792e+02,3.447312910969039024e+00,-3.902238790986142192e+01,-6.481661752963258039e+01
-7.341217525555069301e+01,-3.052605019075907222e+01,3.951994161475552403e+01,1.013071087955401026e+02,1.631336576169417185e+02,-9.665293400192629747e+01,3.703513485900998603e+00,-4.832956598464281228e+01,-5.974349608025612213e+01
-6.335123855237119272e+01,-6.936862442076403568e-01,1.508302427117996558e+00,8.582102017395339999e+01,2.017047743134023108e+02,-3.988084597864460079e+01,-6.222924705505391785e+00,-9.983816092403336029e+01,-8.004724050973533167e+01
-5.742969038229963274e+01,-2.855475078728088789e+01,3.106978927677117497e+01,8.667065484677823406e+01,1.365402298215429369e+02,-7.617377518039103279e+01,2.869847490246165478e+00,-3.759856516415388228e+01,-5.839373992119416101e+01
-4.841550520354426368e+01,-2.973835885178501215e+01,2.450242427153108338e+01,8.730189915076067564e+01,1.134557856135946849e+02,-7.604589089556502302e+01,9.148211257378548567e+00,-3.440810979546773041e+01,-4.680045554690421739e+01
-1.763062853192228729e+01,9.103840243150784772e-01,-1.574320345259675946e+01,2.828654308521947769e+00,2.167796298301997524e+02,1.376566662258365170e+01,5.602363787566440578e+01,-1.584728049112360964e+02,-9.946133576552725231e+01
-1.703233726807951953e+01,-1.473026136283841936e+01,-1.087988997729084417e+01,9.059240565547210622e+01,2.579706816337901500e+02,1.025132154036244003e+02,-1.239809602137900129e+02,-2.133682195761733169e+02,-7.208463429473957262e+01
-2.397980452726133649e+01,-1.485365144761289713e+01,7.935272547215269867e+00,5.620165686117851322e+01,1.534052856321865193e+02,2.214683104326766738e+01,-6.460772566609270484e+01,-1.208199927216081591e+02,-1.642787172126605810e+01
-2.007125808740391903e+01,-2.308252780936598825e+01,1.639728629915289915e+01,3.584823544360163794e+01,6.655940399108698102e+01,-3.817536291437625096e+01,2.780606801877443246e-01,-3.046191335434365755e+01,-8.291924248522906993e+00
-1.916041036845421530e+01,-1.716987385373223773e+01,1.621298423927542842e+01,7.719647963406004010e+00,3.121358450758988923e+01,-4.017315802730630026e+01,1.944961432111883326e+01,-6.686847661912000973e+00,7.594458879978024157e+00
-6.156865123254529948e+00,-1.839384750348943598e+01,1.773298169894597009e+01,6.440113239942363066e+00,4.086210190588766977e+01,-4.304581657897398372e+01,1.984088702586733177e+01,-2.398983500143274483e+01,5.710280336520773048e+00
-1.963637667352161742e+01,-1.656340837275207534e+01,1.989943410747035557e+01,1.443285117967738174e+01,3.423745505695737279e+01,-4.464550861214214450e+01,1.442691093149111836e+01,-8.902863441086406482e+00,5.751505823922874683e+00
-1.228614746616079856e+01,-2.209430975260213614e+01,1.458495324610145616e+01,9.462308653903107825e+00,4.852953234394026083e+01,-4.381757595136896555e+01,2.372964353790179715e+01,-2.682207156599280040e+01,7.713666953272365845e+00
-1.604058783113892872e+01,-2.170597863357974688e+01,1.867094751204020042e+01,9.872716471272738659e+00,4.613516989464788765e+01,-5.021822518925874590e+01,2.473958497736446560e+01,-2.190606836452130679e+01,9.452441162894173132e+00
-1.881363746494827893e+01,-2.485520243534068641e+01,1.807705546288335796e+01,1.949544385795335444e+01,5.590070351121934067e+01,-4.810211677463348678e+01,1.902024676632117917e+01,-2.665044425496615332e+01,4.927951111994802957e+00
-2.401037897087191553e+01,-2.872276822166519850e+01,1.939609919222449719e+01,2.771433772348564162e+01,6.561871755752252966e+01,-4.774258554166390667e+01,1.478674778116729627e+01,-2.959401301086541736e+01,1.553843490550889328e+00
-2.377343393926285842e+01,-6.102043326876548690e+01,-1.174590315438803856e+01,6.638254759953566975e+01,1.374942148580026071e+02,1.461995588166064408e+01,9.534221158320397294e-01,-8.334447594725554609e+01,-4.056589414562562013e+01
-7.461334089803420966e+01,-7.607773521201008293e+01,-1.151640174290918139e+00,7.468475854045169626e+01,1.331852657639607855e+02,2.286792156135791032e+01,-1.183545418111388248e+00,-5.055945107535603711e+01,-2.815223308833689231e+01
-9.820912259433470126e+01,-8.974713614243140114e+01,4.621632126153681952e+01,6.104443945489045120e+01,1.534892160796451606e+02,-5.463024646262422834e+01,2.630975780495076322e+01,-3.983323425914524307e+01,-5.639995142473019030e+00
-5.340823836663918200e+01,-9.765410972890973085e+01,-4.680600164682400077e+01,2.034233629562291767e+01,7.634941027494508603e+01,2.294109585914078764e+02,1.414123070145229022e+01,-5.819361234694662244e+01,-8.518197377412184323e+01
-6.056842470829315062e+01,-9.251907776191117705e+01,-2.285195925631342106e+01,1.901364911241344657e+00,-2.645366124442318778e-01,2.396656577013152400e+02,5.549506224375915764e+01,-3.462360846201502085e+01,-8.723447805534044619e+01
-4.552239790667445618e+01,-2.585311192976411121e+01,-6.022290044399241538e+01,-2.054013773783689345e+01,-1.563448021978148006e+01,2.290636916891406258e+02,1.342516243229540862e+01,-7.982970197488505448e+00,-6.773285568589561478e+01
-3.758193269776437262e+01,-6.614128721417230850e+00,-3.887566560534112625e+01,-9.563038198534172807e-01,-2.236962640298807514e+01,2.029933664183136841e+02,-8.225086852797190318e+00,-1.605672888924927832e+01,-7.331389342892852312e+01
-3.249478723604740082e+01,-8.622034573068113161e+00,-4.683419295376359770e+01,2.089063022954213977e-01,-7.350081646497727661e+00,1.804144549883568800e+02,-1.354379415334204495e+01,-1.102599512236919210e+01,-6.175247560519914458e+01
-3.260484208941260675e+01,-8.904761283870998412e+00,-4.239184064529383278e+01,9.557912324908865997e-01,-7.583147057402539915e+00,1.632054702093535070e+02,-8.198832472848703645e+00,-5.910392430841528544e+00,-5.956744546214521563e+01
-2.420122537695739595e+01,-4.580460078149351943e+01,-1.218539235091328266e+01,-1.857547502064336697e+01,-1.065690101849494908e+01,1.590963947415846462e+02,1.663592721801698815e+01,-2.158751378866283233e+01,-4.372121362240513776e+01
-2.289049208746175168e+01,-4.479338971293375948e+01,-7.501722934780815422e+00,-1.640907573495167071e+01,-5.023119719275769057e+00,1.432993544721028911e+02,1.480790123011423276e+01,-2.631448413760391958e+01,-3.617497137557212739e+01
-2.392574467932179516e+01,-2.898412489673230397e+01,-1.589757634288730337e+01,3.236168461480943392e+00,2.222071400342903758e+01,1.214970249515747014e+02,-3.514306687834645970e+01,-1.528071409759913202e+01,-2.872268052161675911e+01
-2.656920755583714566e+01,1.263480838093555825e+01,-2.982456262830514149e+01,2.843307575044495650e+01,1.463188450476015845e+01,9.735324074285738050e+01,-5.049520499971271903e+01,-5.816253328949033907e+00,-4.134778086615738601e+01
-3.253835509448497021e+01,-5.770636458579277317e+00,-2.274653402719068040e+01,2.221114093061004624e+01,3.096813655993461012e+01,8.059365814347438572e+01,-3.195924494044106012e+01,-2.034942975480439031e+01,-2.140875777357579324e+01
-1.227746648229950743e+01,-2.082680427277389157e+01,-3.606833635792845882e+01,2.974910371184139990e+01,3.207653400272137389e+01,6.355901950795012567e+01,-2.001577730446120285e+01,-1.721795926627191164e+01,-1.997831353877434424e+01
-1.383869919274584959e+01,-3.106608923227078733e+01,-4.585862829086114800e+01,4.731742726556734624e+01,5.108256488225443803e+01,6.616838013037980204e+01,-3.375158034662653250e+01,-2.466820153104502467e+01,-1.638517368403718777e+01
-1.948880353547287569e+01,-3.337519463476858306e+01,-4.621420206431731259e+01,5.091188988055981923e+01,6.080017331813522219e+01,7.038964785228864685e+01,-3.962277746802499223e+01,-3.177984250095047258e+01,-1.262089084744827616e+01
-2.283677385522037895e+01,-3.465175345718711242e+01,-6.504670795224166113e+01,7.148804779561251621e+01,6.586086291647872315e+01,7.170917077662238626e+01,-4.656272225229483297e+01,-3.259170021959968722e+01,-8.368423752176504138e+00
-2.376611576713222007e+01,-6.842794512328313772e+01,-5.923666840609354978e+01,8.066469798410453507e+01,1.027497070680315403e+02,8.150042692064747030e+01,-6.113140791882694458e+01,-5.195063374865631545e+01,-1.402061007765604383e+00
-2.149120743511014808e+01,-2.086478271105063698e+01,-5.377802505619592921e+01,3.769077224159028106e+01,3.444885297482495190e+01,8.055658677832093417e+01,-1.730623353878259962e+01,-2.136980359685749420e+01,-1.888615965672482133e+01
-2.325805208906819388e+01,-2.007804019423981146e+01,-6.708690978042076836e+01,4.851455471048907242e+01,3.618547611735157687e+01,8.701983978798607211e+01,-1.928965653764188914e+01,-2.240711431462959879e+01,-2.060009769981508043e+01
-2.853748379908318356e+01,-2.304461406341736662e+01,-5.597260174240187780e+01,3.438449726877450274e+01,3.873975523409703925e+01,1.014125918401934285e+02,-1.942345168251903686e+01,-2.294496936195248082e+01,-2.561372369369131263e+01
-1.589381527434266417e+01,-6.007767230770082278e+01,-1.033303744502846229e+02,1.016292642610852681e+02,8.507002075211275383e+01,1.109762246493258431e+02,-4.691072691425530650e+01,-5.488257299251241506e+01,-1.758034772412998947e+01
6.269499940390062420e+00,-1.758710713912179102e+01,1.091807691189515594e+01,-5.602646256946444225e+01,-1.816853712606365434e+01,1.798356747829968754e+02,-5.564416576071729992e+01,4.086453310829995189e+00,-5.468343235078157960e+01
-1.545991606100091076e+01,6.457887837165799283e+00,-5.811527330366789101e+01,1.569830704163913140e+02,1.889174795134874785e+02,1.106452446821966760e+02,-2.358151812169665789e+02,-1.352600223481977650e+02,-1.935328951954045351e+01
-2.296894541192048678e+01,4.058694644152197384e+00,-6.953618263898044916e+01,1.840757877488240410e+02,1.830792824585241760e+02,9.388501306146838488e+01,-2.438030844581018073e+02,-1.263036836029833694e+02,-3.486881800963146816e+00
1.210405509757916889e+02,-2.879944272072155087e+01,-2.986424952174809277e+01,7.237708897626401949e+01,1.095465811612853031e+02,1.695374223036890271e+01,-2.432567717977253778e+02,-5.512189019748382179e+01,3.612439089399117620e+01
4.954958057455058906e+01,-6.295952388305317982e+01,-4.415606189717874486e+01,1.520314193314846420e+02,1.115599899417587721e+02,7.526473342350300300e+01,-1.765933982953493455e+02,-4.449331042366901556e+01,-6.120342877204598153e+01
-1.571175970065183947e-01,-6.315261646957839048e+01,-4.941274749622637330e+01,2.103950157547320714e+02,1.220695322750048035e+02,1.067026805065626007e+02,-1.722311577083715974e+02,-4.555512593644515107e+01,-1.096584633286450128e+02
1.986738132513778510e+01,-5.575280751820925218e+01,-4.985463568292217929e+01,1.801560896629686681e+02,1.247066658224309492e+02,9.137133248992654444e+01,-1.748850886423292934e+02,-4.344558257256673528e+01,-9.316335488443337454e+01
7.052777596224245826e+00,-8.151218963964716124e+01,-7.673389970031507801e+00,1.259776154790780538e+02,1.319043685075683356e+02,8.512370392771379102e+01,-1.138489895780746224e+02,-2.882661061056893459e+01,-1.191972857122863161e+02
-2.482803166638221626e+01,-8.543559778638564239e+01,-8.408547212355287570e+00,9.611939065302293272e+01,1.314036060275192312e+02,1.085265535838243665e+02,-8.500298826507327021e+01,-4.765746342461325469e+01,-8.571692190960698099e+01
-2.360098015130640903e+01,-7.869052913532688365e+01,1.540284593955976788e+01,8.297277608951996797e+01,1.219863518507085729e+02,6.735885075843403058e+01,-6.637097160702292342e+01,-5.299668725527166657e+01,-6.706165648927634493e+01
-1.028896525098486592e+01,-6.855161187927129163e+01,1.392509059716526565e+01,6.823117043090755374e+01,1.102502438140784307e+02,4.803089833490460592e+01,-6.310573662618894986e+01,-4.882291089081012814e+01,-5.066817852947836798e+01
9.495284494561673228e-02,-5.312816177329140999e+01,7.920892124893001096e+00,4.933904266066369360e+01,8.988924736649099145e+01,3.434830069102591210e+01,-5.352912432750370186e+01,-4.140918572376038043e+01,-3.452596386689563701e+01
8.992532195496970360e+00,-3.482919081697914976e+01,1.466496591793168847e+01,7.430522214998347863e+00,4.134333391620722864e+01,2.479506435143632359e+01,-4.208953809529036505e+01,-1.721844360008898178e+01,-4.089246083726315817e+00
5.242611067078300380e+00,-3.501917580785595874e+01,9.659275721802238479e+00,-1.820854408629969612e+00,4.926085627743823636e+01,2.006772770704868947e+01,-4.835156501765406745e+01,3.081233217814975944e+00,-3.120108757049653292e+00
4.609012760567306799e+00,-3.812387878423201215e+01,1.418670590858820901e+01,3.485458568577541882e+00,4.683236189424007989e+01,3.191145593330342933e+01,-5.220715332016475685e+01,-7.826379397062591892e+00,-3.867583563793780765e+00
4.592332241282161220e+00,-3.856728688709380037e+01,3.883835794219230308e+00,1.867139680960988812e+00,5.972070779904731808e+01,2.386542680457558419e+01,-5.651817347756767873e+01,7.057140717144211095e+00,-6.901122672863447605e+00
-9.341763186416907061e+00,-4.820965958060489243e+01,-2.497263310803216285e+00,1.394462940846838706e+01,6.992740646408218197e+01,5.104570050084998911e+01,-7.191086699576703722e+01,1.025872017245876933e+01,-1.421690347229823814e+01
2.193672193741308263e+01,-4.286192650856811781e+01,9.730005204639693872e+00,-1.261452999287777033e+01,4.435033884842880525e+01,1.319182751213152827e+01,-5.421690405432098459e+01,1.733859676302852293e+01,2.145870290149066051e+00
2.688034298905514419e+01,-4.153297121695698024e+01,-3.870645904368920309e+00,-2.279856307077186273e+01,5.077397779151171164e+01,1.171828474215704574e+00,-5.818193100236648974e+01,4.518967598772492522e+01,1.368285951823392299e+00
4.143517619705525590e+01,-4.235798080986438663e+01,7.377333253480343522e+00,-3.114432119360888862e+01,4.478697524396369545e+01,-4.663377981428190822e+00,-5.744324181568228482e+01,3.197658922318043295e+01,9.032847882883258350e+00
6.548761193533238156e+01,-5.388149795051265301e+01,4.454903287059783423e+01,-3.994867784126914501e+01,3.678724377878629070e+01,-7.229337464522968659e+00,-6.106981252278252725e+01,-9.752227309618586304e+00,2.405766450397815959e+01
7.638807329468167495e+01,-1.470237831578743126e+01,2.374322996281349774e+01,-6.933932566676207898e+01,8.525944784421787404e+01,7.527233044252014338e+00,-1.168476502832725430e+02,-7.092384225003044662e+00,1.406375434486801090e+01
-2.755585059400788595e+01,1.522834752319413099e+02,-3.576999420133074636e+01,-8.939026553831564570e+01,-5.200734401534685247e+00,-5.230946844157071496e+01,-4.066708812145297713e+01,1.085452746726409146e+02,-1.093534860639855921e+01
-4.031169952645161914e+01,7.649229482080605180e+01,-4.003136874698760295e+01,-6.602165127799693778e+01,1.712242045415823100e+01,1.344052458365351299e+01,-6.654404676647263273e+01,1.358617559776520238e+02,-3.100822951841569619e+01
-3.348020295888630926e+01,1.032183625445367312e+02,-5.218001499069131199e+01,-7.426575072899096597e+01,4.035791624568632585e+01,2.731252909452393851e+01,-7.193494068145001563e+01,9.289535708420555693e+01,-3.292325560892221148e+01
-3.316067705796945120e+01,6.524356011316459103e+01,-2.862472534165054583e+01,-7.135703237001573029e+01,-4.326671468583352720e+00,1.764554011613900997e+01,-4.768280430801353731e+01,1.220751120975115782e+02,-2.081230178057756319e+01
-1.589800012045795086e+01,8.378459448761411466e+01,-3.270745050375676755e+01,-7.835043844356142984e+01,4.298144663305102142e+00,1.267025006895910266e+01,-4.044292233388765823e+01,9.233739359787894330e+01,-2.669157141590382665e+01
-1.316365158609868402e+01,7.699543200502996854e+01,-3.305643181577934797e+01,-7.069985242597854835e+01,7.114250455795287920e-01,5.284445794238401106e+00,-3.247684920630654659e+01,8.696347249147213176e+01,-2.155799030198343047e+01
-1.571004138599281141e+01,6.496668336273627631e+01,-3.140940560853013608e+01,-6.175508026913514925e+01,8.521187146277426905e-01,1.176970753311053386e+00,-2.630138355029398411e+01,8.354643974044756760e+01,-1.636630175725892400e+01
-1.444467630022466587e+01,5.758365582029512098e+01,-2.899627578507212178e+01,-5.479358263218574621e+01,2.282717521146793160e-02,5.748777284055250902e-01,-2.306525447980780186e+01,7.421578663458232938e+01,-1.209735816121774299e+01
-7.796528830542692745e+00,6.207559843058189841e+01,-2.080192931715917126e+01,-5.263828531027242974e+01,-1.412700019152059028e+01,-8.499702501263371346e+00,-1.218260364895788683e+01,6.109973048596674516e+01,-8.129279116835807173e+00
-3.618706825541156746e+00,5.901145682567689477e+01,-1.623905241077647688e+01,-4.740680611619951890e+01,-1.941595906826300677e+01,-1.286169757487468246e+01,-4.327747797193172374e+00,5.007993021671573786e+01,-6.221417249586217224e+00
-9.265572293978705076e+00,2.721324140383833878e+01,-1.350333739418259249e+01,-3.349655202340387916e+01,-2.135890706468387634e+00,-8.715223508072881486e+00,-9.984610338546410446e+00,5.287727890274114628e+01,-3.989334041760223215e+00
-2.695139406790100445e+00,1.439768689945186253e+00,-7.826763954226512610e+00,-1.675346383602870759e+01,-1.337037149595742846e+01,-1.535048180932304973e+01,-1.035635355158294679e+01,5.566978903789708966e+01,8.243016325941820099e+00
-4.614822988882211874e+00,1.342211011070071436e+01,-6.548681327518776740e+00,-2.935570854858044854e+01,-1.155122784316267470e+00,-1.256190261348782400e+01,-1.364158681955554719e+01,3.825100000478846596e+01,1.520471496761602026e+01
-3.925858781839790090e+00,1.174012933573630590e+01,-3.852175403929701147e+00,-2.871019908703051016e+01,-1.023855906480765476e+01,-1.748087293238266682e+01,-8.867346055913175817e+00,4.533970270550960890e+01,1.499517928478417517e+01
-3.160395723359248343e+00,1.127828639342763495e+01,-4.499832534626500902e+00,-2.811056858341287068e+01,-1.216773332737983360e+01,-1.813322076880792366e+01,-8.108965353762108919e+00,4.807017949285177849e+01,1.383225040547112528e+01
-5.055520706214772453e+00,2.052287768366732834e+01,-1.554459147671074781e+01,-2.698690100015770810e+01,2.314231086761333600e+00,-2.263757510709266896e+00,-1.799994552105381018e+01,3.818138862345250573e+01,5.832218821049387714e+00
-3.835252597045360812e+00,2.262543983563836392e+01,-1.651251841854456615e+01,-2.681210172336734843e+01,-8.582664687525787262e-01,-4.181143571604839515e+00,-1.784723049388705718e+01,4.169859195487262582e+01,4.722481483134997937e+00
-6.688910768866832335e+00,2.604023118567652517e+01,-1.804177689287677566e+01,-3.065634677090093874e+01,5.632258291660931171e+00,8.354421068885500290e-01,-2.178259887214152712e+01,4.178641617451163626e+01,1.875285546033588879e+00
-6.423389887389197916e+00,3.080382122923187893e+01,-1.498737956868561838e+01,-3.614528712304199587e+01,4.611937160564716365e+00,-1.584771957652049590e+00,-2.431570996226793113e+01,4.509693049190912006e+01,1.943849617267748187e+00
-8.696950937340460541e+00,3.909986383790015196e+01,-9.413000869274515736e+00,-4.237949146251203558e+01,2.636024106877368212e+00,-1.450444450529669194e+00,-2.627579407065832839e+01,5.364179408222237555e+01,-8.162000238873881486e+00
2.889510964287399020e+01,-2.470247812019124467e+01,1.482991329263995794e+01,-3.357610969662356126e+01,-1.284281790761604611e+02,-6.622334042463533876e+01,5.304233318504236649e+01,1.231496888408653376e+02,3.201306235611768614e+01
3.594796970293796790e+01,-4.753913328435623953e+01,8.520191587530109700e+01,-8.537555384203668041e+01,-8.977556587971037061e+01,-1.050731885999255155e+02,2.623793376123060739e+01,1.393295308652329823e+02,4.004609140121610267e+01
1.853033442871194936e+01,4.710977125234710172e+01,1.535305141946022722e+01,-6.374936065387122142e+01,-8.245387864040745285e+01,-8.446248182802608540e+01,-2.077114129506185236e+01,1.491223196291847444e+02,2.032138568749050833e+01
-2.373162910836434492e+01,1.432828487680479270e+02,-2.542005346427120571e+01,-5.346652091664063278e+01,-7.341260343789549836e+01,-6.947552770786344922e+01,-2.589226788986217187e+01,1.264304841623387858e+02,6.852695945074422923e-01
-1.069662650410740667e+01,1.389069156917557848e+02,-2.596264092554929093e+01,-3.673502254901688246e+01,-5.774857173544148736e+01,-1.013422830119282878e+02,-2.628105790801149055e+01,1.066359535769081077e+02,1.222333336541430526e+01
8.856005402877059396e+00,7.296286199038380005e+01,-2.680547440823841043e+01,-1.123206397209176544e+01,-7.013808375983120413e+01,-6.474663425587573329e+01,-6.386390181579442782e+01,1.441645198152847911e+02,9.802771003302268582e+00
7.371160461529505881e+00,5.326760814750036843e+01,4.186950222268949773e+01,-5.862105928659603649e+01,-6.413921932322972452e+01,-4.754665410604162190e+01,-1.800674580802127878e+01,8.988369180748496490e+01,-5.078284115310561120e+00
-1.479462324161048059e+00,8.913118061089716093e+01,9.137602211974172661e+00,-4.257551060456282244e+01,-7.162615446693271792e+01,-4.014213704689895224e+01,-4.788545793189754818e+00,6.802739704874271354e+01,-6.684369635845676783e+00
1.391984451799977762e+01,5.147207364749671399e+01,1.809033804124850064e+01,-2.951423606162442326e+01,-5.152101249310215536e+01,-4.614922233813369701e+01,-2.158520264999992122e+01,8.165458125366110664e+01,-1.736716391751364341e+01
1.662522896646017756e+01,5.148822630163247283e+01,-8.179051634605391641e+00,-2.186246310625723765e+01,-4.667020319013759178e+01,-1.403575757847421457e+01,-6.339065489326452507e+01,9.232807773410968366e+01,-7.303402555452346512e+00
8.902753285421256990e+00,4.789015656236470875e+01,9.269475393591537937e+00,-3.924966092861707523e+01,-4.199996743563601598e+01,-2.001003392417555915e+01,-2.361790963219406336e+01,5.727224721860855539e+01,5.429394606431294790e-01
5.039109109930705266e+00,3.763031958069278460e+01,1.794304890630204952e+01,-3.458136602937499759e+01,-3.984272706822255827e+01,-2.829617498634446804e+01,6.734856445136031766e+00,3.729028313721713062e+01,-2.917349095330949105e+00
-6.316034083227414442e+00,3.478620146089023990e+01,1.833766020849057554e+01,-2.274642132864498478e+01,-2.022622823592077168e+01,-1.833729168818997834e+01,4.674008661738042747e+00,2.268525957889262656e+01,-1.385715457396533523e+01
1.594768601999339097e+01,2.282016690181736607e+01,1.399862983276488748e+01,-2.737556320939358301e+01,-3.675607143297216339e+01,-2.849117387666897372e+01,2.698128856795445785e+00,2.728800361798760576e+01,8.870193289683630411e+00
3.092052000406515333e+01,1.278746335632051512e+01,8.617587013311670319e+00,-2.993827137768562352e+01,-5.059509143337615455e+01,-3.445184320097061459e+01,3.542710030771871743e+00,3.470338303928505752e+01,2.341354256832974556e+01
1.679595881167003313e+01,2.315423950914495776e+01,1.120213564344370383e+01,-2.782158277712439798e+01,-4.288134489707407226e+01,-2.947260060717905716e+01,5.505695859443058282e+00,3.404041355094058474e+01,8.477084906789620788e+00
2.013782346257705314e+01,1.909109596956542987e+01,8.772217565377061987e+00,-2.830094899789133933e+01,-4.848109087907032944e+01,-2.999495390846011844e+01,5.219984510810476763e+00,4.127251841189017512e+01,1.128335386517573014e+01
1.306683600366847564e+01,3.180313648524720094e+01,1.901367719598042783e+01,-3.286847105741174602e+01,-3.862047945710324370e+01,-3.966755276421614695e+01,7.759168016065984830e+00,3.505267180023538032e+01,3.461013777149815063e+00
2.044499513599313190e+01,3.154429176860267603e+01,1.474842585946331042e+01,-3.938358199423069550e+01,-5.139731850424642801e+01,-3.127570160732059890e+01,-7.066291235411625848e-01,4.110439618592019428e+01,1.392112227941705349e+01
2.451170619563978903e+01,3.036846848619850903e+01,9.836561989966043029e+00,-4.496975817163007605e+01,-6.136790624659214899e+01,-3.234455798088436040e+01,1.950248704893866147e+00,5.136156352072200093e+01,1.965367350174616945e+01
-1.673682901912735588e+01,6.159954472711342532e+01,3.298811730593160974e+01,-5.722317536859322473e+01,-2.077321085231147890e+01,-2.930104881921182880e+01,-7.986342275555159631e+00,5.533800362800229777e+01,-1.890505932607942441e+01
1.801999115806665941e+00,2.930480168781059547e+00,-2.599043970086108857e+01,-3.811180628319221597e+01,-6.606628576904017791e+01,5.397456415002508834e+01,-3.342806781560528862e+01,8.910249996598531652e+01,1.478705617216138535e+01
-7.146751119125882568e-01,7.313296039752366084e+00,-2.936888894509757364e+01,-4.660992264631928350e+01,-9.333106473311210038e+01,7.456471481081656805e+01,-4.504697262763323806e+01,1.110672590742173753e+02,2.112625413928596174e+01
4.459802739678250916e+00,1.212986797909942993e+01,-1.695398258980758044e+01,-6.427564751425968836e+01,-9.527688481845368074e+01,-1.461052681011885568e+00,-2.671872042455493101e+01,1.536439251988849151e+02,3.345269211042001700e+01
5.033981763944352039e+00,1.242117290394076079e+01,-1.350973316179108608e+01,-7.734013699976210887e+01,-8.497120728000368217e+01,3.991054028735098314e+01,-2.544114198574946428e+01,1.196233326764282481e+02,2.327319179563904328e+01
4.005794974268924058e+00,1.187379072514845113e+01,-1.173400865844141983e+01,-6.732583286207578510e+01,-7.952645677554588133e+01,2.576438436415214639e+01,-2.180160154395650807e+01,1.172470099211006413e+02,2.049691985534707683e+01
5.729843676490337323e+00,5.689677841837301742e+00,-2.288033685264417372e+01,-1.210103694553821185e+01,-7.325127469145785142e+01,2.168402824849094657e+01,-1.483832868432729413e+01,1.007622741581234891e+02,-1.179484675096969681e+01
1.807518846360601339e+00,9.402539124765377565e+00,-1.703875449853051194e+01,-1.004187087782931087e+01,-7.290192821953164071e+01,1.798118567985804361e+01,-1.161332464828826616e+01,9.158790169905290668e+01,-1.018326710550428871e+01
4.030399819271965001e+00,7.092515428147463830e+00,-1.310017098428651749e+01,-1.754129855025755091e+01,-7.599264438113355880e+01,-6.545253364858865552e+00,-2.275167287927343907e+00,9.926904796071943338e+01,4.062571360324440661e+00
-1.561007304762394909e+00,-1.165392668298064649e+01,-2.328188229591042457e+01,7.657989873687100157e+00,-5.231083772248851460e+01,1.059267394781181792e+01,-1.167054841299943746e+00,7.675976139800029330e+01,-6.035716372059145129e+00
-5.154735144418108206e+00,-1.507740305341139120e+01,-2.394717730137230305e+01,2.383137006016802673e+01,-3.627665596700518336e+01,8.298337080023287626e+00,-1.961799128750450905e+01,6.049286697656449974e+01,6.451388636949452859e+00
-7.420801561718164407e+00,-1.102849654364909782e+01,-2.006603528481888432e+01,1.695959635586990544e+01,-2.076903722319149637e+01,3.494247740573536021e+01,-2.189610702504012707e+01,3.510964184681982658e+01,-6.831237970771441681e+00
3.771027283792616203e-01,-5.796421099117019082e+00,-9.530140307502220409e+00,-6.948774165676354642e+00,-2.767730639855999186e+01,1.839278608887418898e+01,-7.689923078062163242e+00,4.191958343330497883e+01,-4.046907201641538165e+00
-8.210891779523272760e-01,-1.661109038401988869e+00,-8.872265888996000882e+00,-3.969082296846352165e+00,-1.754991659599728848e+01,1.512089602116628839e+01,-8.040521607709450791e+00,2.822492958924458151e+01,-3.431841006359948043e+00
-4.677524768568139812e+00,1.032703874913243780e+01,-3.862133740027569928e+00,-8.067203300927587861e-01,-2.815272844851103784e+01,1.612062798093984384e+01,-1.025759782568362333e+01,2.420834117091887094e+01,-3.899302788107032125e+00
1.971025603531900039e+00,-1.340628482397662857e+01,-9.343230070878698612e+00,-1.404773325896389480e+00,-1.659163342098122129e+01,1.617938694778063535e+01,-8.408203237231116844e+00,2.990801361680329151e+01,9.569871084097814062e-02
3.060998837379019122e+00,-1.473483681121716771e+01,-1.011135353861747355e+01,-4.387374617004390132e+00,-1.673625729508482962e+01,1.564549271862258806e+01,-7.196747001892984663e+00,3.368858274358838401e+01,-2.285050357753720396e-01
6.880689152163190769e+00,-2.880207646533694898e+01,-1.256851225697688612e+01,-7.076402225223407783e+00,-1.338472791226217495e+01,1.530099144035423819e+01,-3.512185906176962025e+00,3.842059640667451248e+01,3.741627766757762874e+00
-1.102546808577301363e+00,1.822619747535099144e+00,-8.755595810241494803e+00,-6.579242040510287381e+00,-2.422226422963880310e+01,1.784623647270312219e+01,-1.078409715056502449e+01,3.744774539942846303e+01,-6.672855580342785586e+00
2.814422588659390101e+00,-1.359545929233647321e+01,-1.145004889543863591e+01,1.335161126824424116e+00,-2.258341317041131546e+01,1.933806193697859754e+01,-1.396029923936931638e+01,3.724360138118964159e+01,-1.420264371553940919e-01
6.071709146822774628e+00,-2.036228635970103173e+00,-1.155065029312532054e+01,-1.111515062519643138e+01,-2.823788306620194177e+01,1.326946261926947379e+01,-1.675062410810220115e+01,5.007902289506917271e+01,-7.296579324849911119e-01
2.391154555021080697e+01,-2.124629005394960046e+01,-1.796644031218820814e+01,-1.740375506333040079e+01,-1.794538788357811043e+01,-1.644213549692210563e+00,-2.263868938943187459e+01,6.627939627108420950e+01,7.653834430771258468e+00
3.022932810632965683e+01,-3.675405483465084444e+01,-2.305611570815793243e+01,-9.388292534344119034e+00,-2.146508076094516326e+01,5.176825535056920558e+00,-3.001176919275069821e+01,8.028547283400506274e+01,3.983686555862366419e+00
6.877421976282171556e+01,-6.204004248832161039e+01,-1.243077806582027556e+01,-7.084284330088843262e+01,3.029700001944828358e+01,-6.843374157905618915e+01,-1.660594725771026603e+01,9.853621674071223424e+01,3.174591620390377855e+01
4.452505989665920083e+01,-3.545356834835570936e+01,-7.188033733217977783e-01,-7.170811096669400797e+01,-5.794367819930329233e+00,-7.597301370849034186e+01,2.768353404998975975e+00,1.224328511390352077e+02,1.892159977625713196e+01
6.101463584760789161e+01,-6.297967568293341856e+01,-1.587914645996985286e+01,-5.708567906486447185e+01,3.855318672602955132e+01,-4.729861937642624525e+01,-2.946612354089797492e+01,8.798745151580192214e+01,2.415397003555214894e+01
5.316220853019522252e+01,-6.008154892303853245e+01,-1.559592669693977740e+01,-5.444473494905955135e+01,3.918261820740828227e+01,-3.918243403212864706e+01,-2.766679700495912542e+01,8.009702101911652505e+01,2.352959384941337362e+01
4.562184399025661463e+01,-4.031803125864880144e+01,1.562884731963871587e+01,-5.671112939926586449e+01,2.672592574175505220e+00,-5.566629084386800486e+01,-1.756338062970893077e+01,1.014427062233412329e+02,3.892842024073949858e+00
6.365066965901677776e+01,-2.995766172864715315e+01,5.126030563711827881e+01,-6.336424334524635782e+01,1.157538406622016680e+01,-4.976943433519054594e+01,-3.288433236870415044e+01,1.269216953471896545e+02,-7.843238293175295439e+01
3.436518024954756356e+01,-5.891721277967094039e+01,-3.568601252276900482e+01,-3.804300280215738894e+01,6.231034185813882686e+01,3.178853377934720115e+00,-2.773528521995258345e+01,4.752576976110961482e+01,1.200136807781873927e+01
2.513959903333345380e+01,-4.957448249258514750e+01,-3.208907167255764392e+01,-3.754436964373009289e+01,5.203288066684422120e+01,2.844782671051115486e+00,-1.650508543146981566e+01,4.306712140502084196e+01,1.162862546408383935e+01
1.435545283871523736e+01,-4.068053775812858674e+01,-2.278935371469039950e+01,-3.515662509360802801e+01,4.408926257533151016e+01,-1.305349550536136860e+01,5.662716273205656847e-01,3.169251579906487493e+01,1.997650923139176626e+01
1.438160059032896854e+01,-3.435056557453722803e+01,-2.059138150804283995e+01,-2.979114003423348578e+01,3.812249979332915473e+01,-1.020160740187672666e+01,3.295027749382481552e+00,2.703362535407753953e+01,1.110194103156855050e+01
1.193225313505471519e+01,-2.920250663387390233e+01,-1.731195537272434493e+01,-2.123397905163878363e+01,2.795306435770454812e+01,-6.313185561847129534e+00,5.060995809808268575e-01,2.180625322989592263e+01,1.086395631644099780e+01
6.119400047213755300e+00,-2.113713170272062314e+01,-1.195330774046895961e+01,-1.345302713788774085e+01,2.084152299662052599e+01,-4.959433024973627369e+00,9.008356154505250402e-01,1.539107638681262102e+01,7.250064560013427695e+00
4.111168340032637758e+00,-2.023904423942156328e+01,-6.698734168759850505e+00,-1.770477913396664249e+01,1.816542800398636359e+01,-8.496442735459524442e+00,2.899940121435999885e-01,1.744108620447720170e+01,1.213132371697236067e+01
1.094436358509963014e+00,-1.490588767024423511e+01,-9.813906683786486340e+00,-2.267692142259977217e+01,3.247203347386079741e+01,-4.699790769632169685e+00,-2.270646482133434230e+00,5.062880520996152711e+00,1.473780267501971508e+01
6.938775830898141095e+00,-1.797179302621874797e+01,-8.404630518812012951e+00,-2.405495754935374109e+01,2.058633208369120382e+01,-7.548048424314963256e+00,-1.348666296516625618e+00,1.661825971544026714e+01,1.418472818519502354e+01
1.000144699158783901e+01,-2.136561230583702908e+01,-1.005746218455367647e+01,-2.304052440075398067e+01,1.866460973948589697e+01,-7.751145756514231877e+00,-1.765130936430255204e+00,2.115734052033783286e+01,1.315647833267504296e+01
2.558065213123246551e+01,-3.803901369990856551e+01,-1.292070938533735891e+01,-1.319667033850677029e+01,-6.740992355183109908e+00,-1.153647282594385715e+01,1.411173740192378290e+00,5.296247169724245651e+01,1.479561036211279657e+00
3.201591635922259371e+01,-4.619211968793900525e+01,-1.915427422375243793e+01,6.346579672907068925e-01,-2.687355737308848802e+00,-1.591692744276231508e+01,-5.219629770780393585e+00,6.616555653296690309e+01,-1.064582399691758496e+01
2.410541378697797654e+01,-4.736676991977062556e+01,-3.901060808782222722e+01,3.400356395698537426e+01,4.399686192393642159e+01,-1.377034918350452131e+01,-3.229785181175381581e+01,4.017847299170199449e+01,-1.083873365693224855e+01
9.046378655909599331e+00,-2.116068722602545549e+01,-2.910390422610625194e+01,-1.731119075867469093e+01,7.614362772530478196e+01,-1.237158370758075066e+01,-1.015636337066446337e+01,1.173454395719143406e+01,-7.820821049410035641e+00
1.296153877510700880e+01,-2.757069112631931063e+01,-4.255829451753905346e+01,-1.762548426334420526e+01,1.106829934044496895e+02,-2.319405622301081138e+01,-1.826892320022200167e+01,1.905973607116589719e+01,-1.448681892029047802e+01
6.869620241628130231e+00,2.319936670486304564e+01,-9.104180463676047452e+01,8.233368583574596755e+01,2.783871164829456575e+02,-6.021703670674853015e+01,-5.550158160112701466e+00,-6.188610566438555338e+01,-1.730946840984989308e+02
2.116091590128032607e+01,5.199787614557700977e+01,-7.924990683266941005e+01,6.973003237925735220e+01,2.146829354392849041e+02,-9.697766995799884171e+01,2.971408154406413971e+01,-2.565274827016886050e+01,-1.864055163480097974e+02
3.778390871499490800e+01,5.551206598666398406e+01,-9.005605079692017512e+01,6.343847552420552915e+01,1.800162475389455778e+02,-8.646154026832427064e+01,3.741582880388993004e+01,-2.702511864733079250e+01,-1.716238168561764894e+02
9.185284842353709678e+00,-1.714405392488799862e+01,-1.126797247622928069e+02,7.040099331830947449e+01,2.282471889520730883e+02,5.554254097825548797e+00,2.219349704650858257e+01,-9.745336469915275757e+01,-1.093040748707230136e+02
1.971960700675883515e+01,4.073779451195846946e+01,-6.724073722162017930e+01,5.967040832870637246e+01,1.369241663815217862e+02,-6.162005868355882399e+01,5.721164656894542588e+01,-5.386107516209871449e+01,-1.325417517307459150e+02
-2.091352986775835632e+01,-2.593418477989904858e+01,-7.714788877944597800e+01,8.010011431407772875e+01,1.834513005028567250e+02,-4.801077599029042631e+00,2.472811318466525066e+01,-7.131289237231102618e+01,-8.916995460313913213e+01
1.104475142148864553e+00,2.519200875511362270e+01,-5.741453600120446765e+01,4.755079800621598451e+01,1.279126465785132893e+02,-4.048594357069632821e+01,3.524277286682860932e+01,-4.624045163057496666e+01,-9.386177014634385785e+01
-2.780434219375841209e+01,2.909006757368790019e+01,-3.630002409816525244e+01,4.899228567222702679e+01,1.404805422954432288e+02,-2.256036097077629421e+00,-7.941946821658645739e+00,-6.416176655866340184e+01,-8.109877977215634814e+01
-1.330441227339095889e+01,2.970418408925493736e+01,-3.141836645685890161e+01,3.741088026116467802e+01,1.102860955078980538e+02,-1.381920096133336529e+01,2.670693547740348173e+00,-4.919272184141584603e+01,-7.333715187191619123e+01
-3.565957077603131076e+00,9.967201782988373893e+00,-2.914241036450421518e+01,3.588554656746413940e+01,9.717473758556015184e+01,-1.894939562678095157e+00,-1.355691015982749548e-01,-2.899421040569785291e+01,-8.029439942392643559e+01
-4.992275613925926336e+00,3.741617851375573878e+01,-2.737310897787516240e+01,1.878029246058933666e+01,6.277510493807728409e+01,-3.306543833057261850e+01,6.533331650361127174e+00,-1.785780749642482235e+01,-4.321627714396520048e+01
-4.236267497114448943e+00,2.545607584393224343e+01,-2.109991215104820128e+01,1.206614260009425621e+01,5.039254185685284426e+01,-3.167129815976680263e+01,2.389485392604546288e+00,-6.692922240689564539e+00,-2.760384564445728728e+01
-2.835884045797275377e+00,2.983786889390915320e+01,-2.082235211297491873e+01,1.060033477242020084e+01,4.851451157280249049e+01,-3.520653411365012175e+01,3.340392950691772889e+00,-5.931469025001568696e+00,-2.849686889240405563e+01
-2.224319582205713353e+00,3.608073476295717086e+01,-2.036009541652913057e+01,7.581376554970187698e+00,4.734282584776175895e+01,-4.107153557357160878e+01,3.512356249407749154e+00,-4.009779524627516523e+00,-2.785156331774847516e+01
-1.394597814940102865e+01,3.786779260840773986e+01,-2.124505015662437302e+01,1.663681296848965019e+01,4.659896868274888959e+01,-2.063644440638637434e+01,1.192193534524610143e+01,-2.064678684698230882e+01,-3.755125004468871452e+01
-7.936250709909369760e+00,4.497953522469134668e+01,-2.069562245775337317e+01,1.507291241277104987e+01,4.153431366212944198e+01,-2.590199625602704714e+01,1.381341404695696085e+01,-2.257843837331742520e+01,-3.928786754952969318e+01
-1.713337116169616792e+01,5.092839953603448322e+01,-2.055043869300651238e+01,1.631144852889459074e+01,5.012941609306485446e+01,-2.355395530180605590e+01,1.359038836848179344e+01,-2.568134091806517105e+01,-4.504054645224314868e+01
2.454996026883655702e+00,5.431497517020829235e+01,-2.172929829381356370e+01,1.200097230843153895e+01,3.790424342835035532e+01,-3.501872289099938484e+01,2.548789546123680694e+01,-3.619501202233920623e+01,-4.022004918809150809e+01
1.740569498843186480e+01,4.911619457843867309e+01,-2.127125799422798025e+01,1.864054368025450259e+01,2.847891002222842971e+01,-3.159517365217659091e+01,3.809605945545888517e+01,-4.419978271065319575e+01,-5.567118836777406443e+01
3.151742816386081358e+01,3.885822427332452378e+01,-2.654053069143979116e+01,2.976224413720424167e+01,3.889601983979764555e+01,-4.676118978353578370e+01,4.023881497001610796e+01,-4.200951775531970611e+01,-6.496149315372812794e+01
2.726647367171388225e+01,5.971257330353039805e+01,-4.478889273072316257e+01,4.423300882725690997e+01,5.774440878209895800e+01,-6.456209119829728138e+01,6.061818447999048232e+01,-5.150801882356738304e+01,-8.971564631205720275e+01
1.136401670485006719e+02,-5.310243809079760524e+01,-1.353589837010623498e+01,2.936536263232315491e+01,-9.368888908243530977e+01,-7.710626275660368378e+01,1.137814588958824231e+02,-4.075096528750991354e+01,2.039746501074318985e+01
1.193803656760323406e+02,-4.965252974440158340e+01,-7.308315368623050645e+00,2.448674775199546616e+01,-8.308556881685146323e+01,-7.014084402348593983e+01,8.225478113975651695e+01,-3.642592947827577632e+01,1.949129286384664539e+01
1.049653087297709959e+02,-4.266017362380721067e+01,6.724548381108080619e+00,2.452272120255057075e+01,-9.963657569257492241e+01,-6.778013044409725296e+01,7.294848809323504213e+01,-2.947262329889003496e+01,2.938843665270534444e+01
1.039221503648376483e+02,-2.975456608819285975e+00,7.910334974253224516e+01,-6.567193435705037530e+01,-2.212920994893941042e+02,-6.982515334103253224e+01,7.214666670424188055e+01,1.721055615755957291e+01,8.638192082713030118e+01
8.832921006620671278e+01,-2.574955843026901547e+01,-2.051429016448991760e+01,1.149433450129910739e+01,-4.148337624778507404e+01,-6.807408329357456012e+01,7.266146994542418724e+01,-3.148679797490899901e+01,1.382309159809493337e+01
8.464223424765127390e+01,-1.397303263741336821e+01,-1.910552559276042572e+01,4.204470692336286675e+00,-4.300577305829311570e+01,-6.902533164925878850e+01,5.431881596837737902e+01,-2.552563062880840761e+01,2.646977265816555303e+01
6.239818121508048421e+01,-2.699015963420905351e+01,-2.574742010903353417e+01,2.355084438815651993e+00,-6.916165619428070954e+00,-5.853884700931630647e+01,8.130210349580192997e+01,-4.055753233452006867e+01,1.169475555681637502e+01
2.794721332322902185e+01,-2.671471621318038103e+01,-4.815004769865007006e+01,2.170417126278900355e+01,3.026594238714763208e+01,-4.749470736490845013e+01,9.971955078603053835e+01,-6.442633573100695799e+01,6.148929248550189186e+00
2.238821232206420575e+01,-4.234051692204450745e+01,-4.218247121289004298e+01,3.607179637137048189e+01,6.738229267147463730e+00,-3.983173926358797701e+01,7.613508156371105429e+01,-3.026665722237190437e+01,1.228806509660231683e+01
4.346162856741894132e+01,-2.770649351172623298e+01,-2.839842505784146098e+01,2.789441551114097706e+01,-3.132564366331514805e+00,-3.318778454291759061e+01,2.958591706967349921e+01,-2.263824487872854618e+01,1.312155120933256569e+01
5.453308233039405195e+01,-5.186645802961832530e+00,-1.405565093178420533e+01,3.930014871485273176e+01,-2.129479763740746634e+01,-1.182751678270840223e+01,-3.198171143056434573e+00,-1.433020822055774701e+01,-2.494024052676800096e+01
3.485811523492173336e+01,-5.234654962677971923e+00,-1.107907212596820301e+01,1.396003424323512832e+01,-1.335874931256128662e+00,-1.900688443418062690e+01,7.880810078930565510e+00,-1.546463640905962933e+01,-5.577836694161391051e+00
3.049378762649120489e+01,-8.744596167655306118e+00,-9.066141245235042945e+00,1.365043324197759489e+01,-1.533746257093426379e+00,-1.615855204597766104e+01,1.970624157872862270e+01,-2.469625647956981140e+01,-4.651170251670791345e+00
5.526253311976283555e+01,3.977234050616175409e+00,1.566618032226325852e+01,-8.942425187228081995e+00,-3.751754370607478961e+01,-2.252893961090336461e+01,-7.737144256704439726e+00,-2.831809023733964636e+01,2.913819573183732814e+01
4.737493740607389014e+01,-6.099993655929630165e+00,-5.633291933394593443e+00,1.225306047977157675e+01,-1.105773491864060887e+01,-2.100542777997266342e+01,5.278328866349902171e+00,-1.900143150151291138e+01,-3.108446962742839048e+00
9.309041642282886642e+01,9.192446853500996440e+00,2.401930662822735485e+01,3.205143769317828628e+00,-7.245769010674052879e+01,-1.094979997782002101e+01,-5.766129617215904091e+01,-7.753060016015467681e+00,1.831453259888689900e+01
7.284582652142783843e+01,-9.402073084298336880e-01,-3.487786932121537120e-01,9.778215948864016127e+00,-2.954990751473184218e+01,-2.411934782124474452e+01,-1.406865126574322744e+01,-1.449972700552163474e+01,-9.742286138171607490e-02
1.033830930032595319e+02,-1.656312894265312252e+00,4.591148270552878330e+00,-7.672640310749272885e+00,-6.352178727509156886e+01,-2.703886414935261939e+01,-4.781777868399470321e+01,4.483459687934271187e+00,3.424968235169706077e+01
1.307561617594688244e+02,1.451468787944509131e+01,-2.783209853339627671e+00,-2.075645001973359172e+01,-7.503348195260485909e+01,-3.578440597026121850e+01,-5.279505031398633719e+01,1.637031985563936587e+01,2.451142861554791352e+01
1.901263699050895752e+02,1.656403144859245913e+01,-8.216031279811048194e+00,-1.781178385652594898e+01,-6.726174789061192882e+01,-7.136565422343883824e+01,-7.767800979065827960e+01,3.602410223836039904e+01,-1.381276550989241514e+00
2.725921509689599134e+02,-8.320197385410733659e+01,-5.398198587839800666e+01,1.656321449608350918e+02,5.182230153370539938e+01,-1.530348238566477903e+02,8.692056401588411063e+01,-1.976307556413157727e+02,-9.011762224878202687e+01
-1.602290155135528948e+01,-4.153783071940006266e+01,2.156481755957474888e+01,-1.039563607160644665e+02,-7.667645881131738861e+01,5.545187252991468085e+01,-8.932421280589949220e+01,5.034794521062985950e+01,1.991531293039379307e+02
-2.759383874250579538e+01,-4.665619541472779019e+00,2.460357242084836571e+01,-9.004534676057114950e+01,-7.535025921941769411e+01,2.498922152746035863e+01,-6.863648186750663172e+01,6.093070851892707651e+01,1.547680436641933284e+02
-5.203585772605997306e+01,3.121419006848373101e+01,4.943445181027300350e+00,-7.136363791380097155e+01,-6.927045132577862319e+01,6.673955897293922135e+00,-3.749903958773415980e+00,9.503243203946260564e+01,5.755582773813034692e+01
-1.305523780368574194e+01,-6.035996477856059528e+01,-7.361726157982275254e+00,-7.290542995822411854e+01,-6.038185069953573247e+01,1.203762535067238559e+02,-8.902454235452559317e+01,1.648698071374616347e+01,1.652255175320448188e+02
-3.079663293350341746e+01,9.525315819152467611e+00,-1.561655787200095347e+00,-6.851847295830063445e+01,-6.411413961137586170e+01,4.001764545548286378e+01,-1.118751377622928089e+01,7.956694368094895253e+01,4.606851010996342666e+01
-3.325855007568848976e+01,-1.911037407857534731e+02,-4.208615728390486765e+01,-7.384135102566975206e+01,1.129724003851785596e+01,1.727515420226745846e+02,-6.314935384099283056e+01,3.645943823682813445e+00,2.147444271271192520e+02
-3.536485136387906891e+01,4.005306012298447627e+01,6.881228051067665774e+00,-5.606383205566358896e+01,-6.033980853426230340e+01,2.767526742412690055e+01,-2.521378503294045004e+00,5.896105722759023138e+01,1.971925763125528874e+01
-2.844947978347455830e+01,-2.311791301731578940e+01,6.646071541620326428e+00,-3.670931753840248746e+01,-3.227981521131017217e+01,-1.232215699543144183e+01,-4.861281173222394614e+00,7.978563342789092871e+01,5.030825874964359912e+01
-2.879273886572656238e+01,-1.730960188752129625e+01,1.035515417867478405e+01,-3.297161000288872401e+01,-3.010485151996460473e+01,-6.957603358884213662e+00,5.164798957866636897e+00,7.156969625575814575e+01,2.804675624268524814e+01
-2.315445916950396210e+01,1.421756253705059203e+00,1.353298956754975890e+01,-2.802125442626099527e+01,-2.856933870774539841e+01,-1.626359665124959974e+01,4.403433479800789030e+00,6.117049549787274998e+01,1.447997415581895098e+01
-1.826784526365928940e+01,7.326485485227239636e+00,1.032092234197519254e+01,-2.268188257814685471e+01,-2.369802819366017133e+01,-1.542040067015111404e+01,2.700003010994592501e+00,4.550442025679735991e+01,1.321632561062248712e+01
-1.364226777444891781e+01,2.926785813620703003e+00,4.612830313588894171e+00,-1.202590571007463183e+01,-1.772954741810161750e+01,-6.109156722721607480e+00,4.612462464000728346e+00,3.286038400434895834e+01,3.494415029781854365e+00
-1.235998098934945055e+01,5.531713820943118698e+00,4.672604882386393044e+00,-1.344610076834840662e+01,-1.944885841322096809e+01,-8.527591556195925904e+00,1.712112216984714053e+00,3.232138561500778451e+01,8.544715191790688280e+00
-1.679532722314528925e+01,1.082406546755226451e+01,1.365441333846774796e+00,-1.404161449864040634e+01,-1.976033460515952100e+01,-1.118736183942491635e+00,-1.448378033383235675e+00,3.069063442998520230e+01,9.284249312886778682e+00
