1.098796359056350314e+00,-5.535009282920018425e-02,-2.718033763927646951e-01,-9.599704145056808802e-02,-1.900933968104186189e-01,3.238722919876704243e-01,-2.024031726829663036e+00,4.878828041829970097e+00,2.714288607594183000e-01
9.636786006749944455e-01,-6.305672701055979601e-02,-2.503318601604072602e-01,-6.579301093495615316e-02,-1.405505278432285787e-01,2.582116331987450719e-01,-1.862894181903470336e+00,4.595467476050515643e+00,2.980818102166253314e-01
8.058921702274097765e-01,-8.689941425714234335e-02,-2.278046404286433180e-01,-8.600595384119630316e-02,-8.885231483473091108e-02,1.858182952241873021e-01,-1.494967234116783450e+00,3.578710387823161643e+00,3.760960919429587879e-01
8.218372054618158229e-01,-7.465853156691507064e-02,-2.382852513012604923e-01,-3.784403929864874061e-02,-7.046173857014270681e-02,1.289563760990928287e-01,-1.534237449147382470e+00,3.893046453592322376e+00,5.670282912541086962e-01
6.028879906887212314e-01,8.233853649063831506e-03,-1.767247938464679702e-01,1.272320375991177477e-01,1.488827074827164254e-01,-1.395944415626745871e-01,-5.992687549899420318e-01,1.480057588888681330e+00,2.921014659037206584e-01
6.251333941056670396e-01,-7.132728794184733934e-02,-1.802495721115586480e-01,2.248179605020203531e-01,2.479932282633452445e-01,-2.159674328574901492e-01,-5.500570342817870939e-01,1.465607669732095886e+00,2.605829132646327873e-01
6.024253475446460504e-01,-1.523217808181615285e-01,-1.783785886454868908e-01,3.427017222331844026e-01,3.314321847770130836e-01,-3.014192416613018510e-01,-5.435668295474705980e-01,1.429471312679467809e+00,1.643761755648140144e-01
6.172786452693392878e-01,-2.066306964649362865e-01,-1.841935178400070650e-01,3.784064614117490510e-01,3.781242426671664880e-01,-3.385957627264717384e-01,-5.918396857978394099e-01,1.621423189625840422e+00,1.867516309331475055e-01
1.577267377244812030e-01,-4.012316160909071283e-02,-5.417184585557356657e-02,5.561358328901031545e-01,6.320686810326391347e-01,-5.501372700958804263e-01,-2.629234497489013056e-01,7.080750330978087259e-01,2.268778504489109560e-01
-2.925201215402768035e-02,1.549377888891585557e-02,1.025052870806285495e-02,7.163448691215574815e-01,7.923488528642952389e-01,-7.069514984397299306e-01,-1.595194320804340649e-01,4.263151829544357119e-01,1.218234098554801526e-01
-1.374936616081825352e-02,7.780550953167902906e-02,4.769572699959574377e-03,7.031398047625931902e-01,7.876354349436992530e-01,-6.961382377145419742e-01,-1.337151171454549758e-01,3.604592143579579133e-01,1.223086433535219286e-01
1.529041294731518091e-02,3.344581285551286032e-02,-5.292341084009838902e-03,6.979606509134347325e-01,7.672517541882049041e-01,-6.861727756067634854e-01,-1.565318966582114613e-01,4.078551730013507681e-01,1.711373568541402213e-01
2.581847784487972461e-02,6.360697343828783379e-02,-9.241517041472541855e-03,7.289366167792907802e-01,7.585453541552564793e-01,-6.773271213208023056e-01,-2.456994960284946891e-02,6.396634661067898686e-02,2.172342189208796848e-01
5.954528558297732255e-02,4.106728431430835269e-02,-2.072977161650017483e-02,7.714616309050381648e-01,7.938710783943421223e-01,-6.981931511802312862e-01,-2.565758929876732833e-02,7.232479289913501530e-02,2.401956674511702694e-01
7.085221483587084146e-02,1.665233659795056081e-02,-2.689037422501512620e-02,6.831788189241121412e-01,6.866772564793082179e-01,-5.790175624437318147e-01,-5.023305100918179500e-02,1.359842200204139373e-01,2.080107179464189826e-01
3.606682461540913071e-02,3.544967685799923357e-02,-1.306723995911350696e-02,5.839506672227017248e-01,6.023557563123999037e-01,-5.388687390388958720e-01,-1.615440416877113664e-02,3.540920173244677116e-02,1.823511863651335885e-01
-5.010523402971690798e-02,7.896118817591138428e-02,1.776520128230628728e-02,5.999911081668095614e-01,6.277849551202696610e-01,-5.678763762014671368e-01,6.519244441207369678e-02,-1.345920077824776517e-01,1.744552027854882614e-01
-1.232641486019779228e-02,6.539585574576926852e-02,4.527441318347401496e-03,6.631832641952075669e-01,7.432431654408320210e-01,-5.995040271056708558e-01,6.244853567830603580e-02,-1.227668312144555851e-01,1.658230996740894247e-01
9.075173372822571694e-02,6.454236731679011130e-03,-3.181009078699368470e-02,5.087778939616679486e-01,5.660471072832780060e-01,-4.330516764257071327e-01,-1.173585817232715607e-02,2.229377247026848377e-02,1.863403139235002837e-01
4.308217761079775193e-03,-3.158161725603721159e-02,-1.713422438048067689e-03,8.210422660335343625e-01,9.773735702485781829e-01,-6.577570899163345253e-01,-3.034214761079992786e-02,5.712688325797438821e-02,1.809888122330644278e-01
-1.860250861145533452e-01,2.323008908178672283e-01,7.566133301919247822e-02,1.162841225701502834e+00,1.383958149337993326e+00,-9.965035411182966429e-01,2.920580577081230422e-01,-3.012727896062700195e-01,1.838141084805508529e-02
8.479196989590197242e-02,1.082540681866323573e-01,-3.720492306805950333e-02,9.605337651522749542e-01,1.206854123923408517e+00,-7.555147532991486337e-01,-1.319473859395326083e-02,1.977158377704367823e-02,4.731160562054168711e-03
1.843467899790299236e-01,1.081603347968428108e-01,-6.316475008453006912e-02,6.227383455404185142e-01,8.844870845473992160e-01,-5.238386827159909886e-01,-1.186232790997215486e-01,1.817670230085969285e-01,5.869741775914118914e-02
1.902311793411068652e-01,9.918615286286766586e-02,-6.905615528481758025e-02,5.282229673713217943e-01,7.605262411406956691e-01,-4.539092986052496448e-01,-1.375140658712867281e-01,2.184514416337499099e-01,6.928860356188461245e-02
1.706735299854061361e-01,-1.396524167128909422e-01,-6.010379269553001169e-02,5.500793960687023754e-01,6.463576018166083959e-01,-4.527552539922203856e-01,-1.296927068778515324e-01,2.341836297786171195e-01,1.858322894966446814e-01
4.048387094775459105e-01,-1.649575815870604201e-01,-1.294502468646695215e-01,3.419879487767391035e-01,3.901575304880536832e-01,-2.876606264830036119e-01,-1.568810574427456084e-01,2.952517637076438883e-01,2.760079323758365399e-01
4.839239999692665495e-01,-1.405372743533148394e-01,-1.546539032131576119e-01,2.596714294170264226e-01,2.762535676389449302e-01,-2.277213517228591777e-01,-1.432272295789777106e-01,2.584624664899760615e-01,3.182169331961551828e-01
5.218768314385500151e-01,-1.378568564752792602e-01,-1.669509136445997965e-01,2.298050216969083070e-01,2.431494160298429685e-01,-2.006350533651090895e-01,-1.902172847317389337e-01,3.493984145743755931e-01,2.980675816348123952e-01
5.097222916313510765e-01,-1.773331656781685917e-01,-1.606388554877535013e-01,2.908834296492819882e-01,2.986684224690014378e-01,-2.714327513239615519e-01,-1.041633164703734959e-01,1.780118340289986445e-01,2.725083527857758980e-01
5.584517129683029824e-01,-1.879085611846668946e-01,-1.755557614429782698e-01,2.619740379421316434e-01,2.709263914211564317e-01,-2.361260486168073602e-01,-1.240583420515927598e-01,2.118859598904934971e-01,2.890818018165879910e-01
4.499851601392972356e-01,-1.484322600792175040e-01,-1.319528075771420061e-01,2.954167777089689584e-01,2.687142417194252619e-01,-2.470464251111973430e-01,-1.804156127894772921e-01,3.192852292063718123e-01,2.758836354307360184e-01
4.353668732343210501e-01,-1.206246282480592930e-01,-1.407832022892351875e-01,3.078431878183466863e-01,2.822405627279220286e-01,-2.729132471621109612e-01,-1.401902742872035701e-01,2.483373801063202546e-01,2.026322978726749491e-01
4.094159469527045569e-01,-9.297012613824580385e-02,-1.323965456744434499e-01,3.247600918904421374e-01,2.977771008256293594e-01,-2.946371675032841697e-01,-9.950082732862963741e-02,1.790080562605414205e-01,1.735199788524680042e-01
3.642347571229762604e-01,-7.891757602974849850e-02,-1.176178213645416720e-01,3.543443545217671020e-01,3.262773992811683343e-01,-3.235582527370520767e-01,-8.366922614874584829e-02,1.481749911851156509e-01,1.500006936340156083e-01
4.510126995088823976e-01,-1.178785447465428571e-01,-1.438396408952882233e-01,3.276676809317616845e-01,3.082937167991500749e-01,-3.150254366524447014e-01,-7.109997153809953507e-02,1.230595275815049988e-01,1.863681218620311109e-01
5.146680968419550251e-01,-1.595280742536536456e-01,-1.616820739858606248e-01,3.033233364047693836e-01,2.875428592459727817e-01,-2.888796974688704888e-01,-5.810084544706018567e-02,9.524866961775088625e-02,2.689488734473537423e-01
4.826653828760947285e-01,-1.392797470464873233e-01,-1.479420383160441888e-01,3.480754488875416053e-01,3.161186662914485246e-01,-3.286620233678936298e-01,-8.351988086228237518e-02,1.459254854969008475e-01,2.355576533257043026e-01
4.635630057506796575e-01,-1.226053845770858908e-01,-1.377575097515440217e-01,4.002534355825070889e-01,3.612295660320985480e-01,-3.864436194243461298e-01,-8.076119486769126055e-02,1.417053383111026021e-01,2.068865817565107845e-01
4.023437319392144662e-01,-9.577080934733261941e-02,-1.179934457402257997e-01,4.036752789306791156e-01,3.685180217947613412e-01,-3.812067956358133891e-01,-1.371201467525011986e-01,2.782080247311197740e-01,2.043739381165242952e-01
5.091468527775590003e-01,-1.253728683219198781e-01,-1.450034358579903315e-01,5.556173217383127971e-01,5.169483359149483759e-01,-5.249926338651206281e-01,-2.879310568019696412e-02,5.513677126921834315e-02,1.287376517012276678e-01
5.133580549632429380e-01,-1.581350505365747006e-01,-1.505451921867017318e-01,4.663720353458630230e-01,4.683165971539534622e-01,-4.640048625826764805e-01,-5.874591995332679312e-02,1.122387164296907019e-01,1.978469066403600873e-01
4.480180199539409158e-01,-1.482943607772432559e-01,-1.413869117087504512e-01,4.158626994598950133e-01,4.184224912445384525e-01,-4.142610853965922324e-01,-3.488949972780419628e-02,5.984127645834502740e-02,1.581422638358194188e-01
3.494664436709935679e-02,4.686897522327321264e-02,-1.289087289622135694e-02,8.729683454495720252e-01,8.838440946068905069e-01,-8.179363032186646176e-01,4.999192054776215033e-02,-9.065865092893270194e-02,-1.126743076430127277e-01
1.599855202657991526e-01,4.300637954093211590e-02,-5.832044162203454257e-02,6.391923543831026233e-01,6.708347948497133117e-01,-6.386938139638755896e-01,-8.498406946462848388e-02,1.724543304302445790e-01,1.285700642503294910e-01
2.068935240634633133e-01,-2.690331167114549428e-03,-7.158199164644080126e-02,4.398143356499504275e-01,4.640155134632185097e-01,-4.301249073071486961e-01,-9.538125914126728555e-02,1.707191805388117989e-01,1.887627145960150132e-01
1.928753402409910944e-01,2.951791073210671690e-02,-6.712422429441909644e-02,3.519652594169981330e-01,3.676083966715017470e-01,-3.472095908622960247e-01,-1.076112777188217712e-01,2.059386294521638461e-01,1.911741676846978877e-01
2.557656117789764427e-01,3.977128121446912856e-02,-8.685974731748413724e-02,2.792651628042658873e-01,2.862334126699382919e-01,-2.821115966014791088e-01,-1.121572506321475843e-01,2.136609226196866940e-01,2.499553213715696720e-01
2.787895815852377002e-01,5.140981962456186993e-02,-9.453564620034962673e-02,2.348998392564262960e-01,2.367243341506712617e-01,-2.229552806912152851e-01,-1.072789694140930811e-01,1.933980362859371305e-01,2.825431493159282215e-01
3.462093404517294637e-01,7.073042867659909416e-02,-1.075067790458551220e-01,2.231452462725115882e-01,2.264215267735026627e-01,-2.049247757711081530e-01,-6.043040893026496718e-02,1.032133523166637451e-01,3.233394538621242598e-01
2.854789909927806790e-01,5.747350502055011134e-02,-8.962716629237335586e-02,2.590991210571621517e-01,2.570350090706369217e-01,-2.494113953746378287e-01,-7.517996377922388229e-02,1.234344006271352601e-01,2.404153976641775770e-01
3.045673733376210723e-01,6.581104424780651052e-02,-9.397642329598335231e-02,2.420673243532894536e-01,2.407463062421929534e-01,-2.332850747473722286e-01,-7.231897032974900219e-02,1.195762016146629386e-01,2.519166357637622755e-01
3.733101122431796703e-01,5.555641738075167702e-02,-1.161027402962458849e-01,1.821399108035306746e-01,1.791703657293846064e-01,-1.730686894919573893e-01,-6.351112730188092359e-02,1.067492365308741059e-01,3.433568849436193227e-01
4.186557216040744933e-01,7.772533359568387090e-02,-1.244060320441773976e-01,2.107751453077066905e-01,2.071081529448189074e-01,-1.941141115839790932e-01,-5.512278603531953203e-02,9.025429011103014432e-02,2.647019340488137584e-01
4.766552119894624795e-01,3.266241939309635911e-02,-1.424463651462464786e-01,1.372828677280417131e-01,1.364420560865050036e-01,-1.276571334561481252e-01,-5.289516977963168443e-02,8.895025714975439424e-02,4.461619505768769089e-01
5.454535204826786998e-01,-1.562639949217346086e-02,-1.630359440946933247e-01,5.843836040784166491e-02,5.782909783614532256e-02,-5.526690669394146438e-02,-3.214972877713546257e-02,5.364694343213486510e-02,6.571304236386618092e-01
4.898386101432030126e-01,-2.093224219235796310e-02,-1.501774397778115888e-01,5.719717273648931150e-02,5.486851154446466955e-02,-5.485091288965523310e-02,-5.038702863978774399e-02,8.093225173466596367e-02,6.586365864275480764e-01
4.327992874296623382e-01,-9.960427072390936123e-03,-1.342612109506787221e-01,6.881267496488087387e-02,6.899083856940471660e-02,-6.396647145330970619e-02,-7.024040224270332311e-02,1.138250041645326172e-01,6.324017436268430936e-01
4.410108903657767310e-01,-6.120521271648529486e-03,-1.378985797058267238e-01,5.070694598856730073e-02,5.006249927936417404e-02,-4.891062744726568795e-02,-6.755312306347581452e-02,1.076710149686523621e-01,6.354659850743580307e-01
4.599592096726820012e-01,-1.692046721688638539e-02,-1.495027134192342400e-01,4.142956518650904585e-02,4.077536091149946973e-02,-4.023946371734411082e-02,-6.672956130409959941e-02,1.095476667912541335e-01,6.776405157374982835e-01
4.377854547104404470e-01,-1.941550427602441176e-02,-1.452394222446748706e-01,7.462945082346039705e-02,7.829700353350056707e-02,-7.322140379973569868e-02,-6.687447321357614660e-02,1.098014572853304588e-01,5.846440391182546881e-01
5.815110824926039701e-01,-1.741051422901154430e-02,-1.907554436569490197e-01,4.115464913176603012e-03,4.131391496411720640e-03,-3.970565009774486460e-03,-5.246999602032357581e-03,8.001745719943605811e-03,7.153178994638306198e-01
5.396175491202425123e-01,-7.992199772073957376e-02,-1.728104124929294438e-01,1.637506819576031031e-02,1.686902710862496838e-02,-1.586020771065534476e-02,-5.936412741129191289e-02,9.306550034348901046e-02,7.857357298956935132e-01
7.720832226793118425e-01,-4.794519617826875635e-02,-2.493453806029826969e-01,-1.737319347323441898e-01,-1.634237303239427230e-01,1.615890477151958604e-01,6.284067585213103102e-02,-9.091043176894482436e-02,1.160920247987450082e+00
4.137987703239874304e-01,6.131259989963919188e-02,-1.273135293580838767e-01,-4.821119754841259736e-02,-4.379938878581126488e-02,4.400523407368255729e-02,-2.636903231384414292e-01,5.557883039907898226e-01,8.086885672111288059e-01
3.156750312193740138e-01,7.154069326783207838e-02,-9.714492393924850644e-02,4.032117412014501329e-02,4.047564766144236964e-02,-3.713408892484037355e-02,-3.038140422847543376e-01,7.300423622701619486e-01,6.892813124897368970e-01
3.683875233180200492e-01,1.273740474656861743e-01,-1.110890719213400990e-01,1.923175446900324270e-01,1.456861969703864279e-01,-1.701073690188383003e-01,-3.359151116446724705e-01,1.044654188758524338e+00,4.216123402016276334e-01
3.733918273758830564e-01,2.008185213441028572e-01,-1.060115408094974843e-01,2.578740975132144397e-01,1.677576833822014557e-01,-2.030437006115125009e-01,-5.265285833781847558e-01,1.324279079409764748e+00,3.970433849159684669e-01
6.158892507605286948e-01,7.225650303000699659e-02,-1.709490166827399293e-01,1.337733114158755898e-01,8.171161318247635585e-02,-1.123800157867406169e-01,-5.060546092454736300e-01,1.211391086197372235e+00,5.568836309484264113e-01
3.861723754574875045e-01,3.592229460563855364e-02,-9.779560948019694333e-02,4.826471030322527778e-01,4.067729119272208704e-01,-3.540528861669426375e-01,-3.147094115504858181e-01,6.502970853497456183e-01,3.553021942976023473e-01
6.129347450233789685e-01,-1.275820458594383588e-01,-1.455458942673053258e-01,2.509482455240991117e-01,2.015798303124404778e-01,-1.779749962126152552e-01,-2.359279011907003953e-01,4.280309056902811271e-01,5.760571122678843636e-01
6.476470877394453485e-01,-1.184837325366650262e-01,-1.719495727200455182e-01,1.422261543467302214e-01,1.171837600399178725e-01,-1.089557020347051569e-01,-2.269396478698786912e-01,3.946121942973092045e-01,5.895076932391414282e-01
6.383937931613423711e-01,-1.176824472966286339e-01,-1.569364444486558152e-01,1.780431438663850896e-01,1.502909597903037686e-01,-1.337247392881322772e-01,-2.262615472683227880e-01,3.880365808039363262e-01,5.962988141939740139e-01
6.308444943437248043e-01,-1.013763764198980788e-01,-1.520341358039895840e-01,1.566369140392861459e-01,1.333310025721089476e-01,-1.135710239304354163e-01,-1.840009169028299363e-01,2.998621842098894708e-01,6.503948542776254449e-01
5.613893079863276903e-01,-4.106529268684384198e-02,-1.679558525775402544e-01,2.393742655893387750e-01,1.809153916517410310e-01,-2.036184846917308555e-01,-3.650201606854400760e-01,6.617016911381379263e-01,3.946995618485641955e-01
3.181741618923139558e-01,4.925377438547291764e-02,-9.705251444527279725e-02,3.054473816304988376e-01,2.162176397649983595e-01,-2.505435032197700918e-01,-6.709994402265437863e-01,1.249752348113245315e+00,1.757673665373933325e-01
2.445837377208654739e-01,2.063252608171447233e-01,-7.653911089359019537e-02,2.076973461311639180e-01,1.804897690198724314e-01,-1.791417877063866126e-01,-4.942310672090771129e-01,8.446059229541239555e-01,1.145324264310091690e-03
2.349184970925674576e-01,2.527135791890093852e-01,-7.795590820101748475e-02,1.661543163171464721e-01,1.555234724792489143e-01,-1.573198098786652288e-01,-4.712140570214856106e-01,8.175467688604231009e-01,-4.511247230499468297e-02
3.714278493805672210e-01,3.686805554258593687e-01,-1.246212920356923048e-01,5.125872890842815555e-02,4.699493607903988679e-02,-5.034090062818373512e-02,-5.287183641358206287e-01,9.536137605152229524e-01,-5.772062778604376831e-02
5.650116403949816402e-01,1.807954295454893279e-01,-1.837785174890842754e-01,-5.073662052261418420e-02,-4.334746330393989683e-02,5.171956383495594778e-02,-6.012445920461605420e-01,1.173455848813480529e+00,2.294493833525987903e-01
6.942593166462446286e-01,-1.419685578034326767e-01,-2.211723131453539326e-01,-1.499658466798986789e-01,-1.315123082682782274e-01,1.602640746966600971e-01,-7.145308217555067509e-01,1.425658079397331690e+00,7.875059486480076032e-01
9.062754039862797040e-01,-4.651572079166710894e-01,-2.830545356338123320e-01,-2.195488897449467680e-01,-1.694402204574673443e-01,2.354775073146914144e-01,-7.395558831995373561e-01,1.584026945755110827e+00,1.639800910815266022e+00
7.356467713808707565e-01,-2.095695133748113892e-01,-2.291828810410240225e-01,-1.037366562657500435e-01,-6.586521355433694325e-02,1.023984858372403023e-01,-5.792788271491138286e-01,1.462645841964105520e+00,1.156027123481299546e+00
4.319129467009224510e-01,1.507283845457312033e-01,-1.296786393094807865e-01,6.663307221040520867e-02,6.670193096927702625e-02,-6.691226013902253078e-02,-2.156564019034275803e-01,4.100763043780145112e-01,6.243197529023513104e-01
1.715270953633322715e-01,3.975198248202380658e-01,-5.414904059523591162e-02,2.061887323152168938e-01,2.087455624140407973e-01,-1.921362403970559574e-01,-1.241752329233292013e-01,2.032920866678098737e-01,5.514689323047621689e-02
1.840132420715855921e-01,4.507353090735091161e-01,-5.794129460600767889e-02,1.701622668468301680e-01,1.683821904240204170e-01,-1.678355352864777661e-01,-1.715257417604249823e-01,2.933136754011174685e-01,3.930126888297362509e-02
2.038885196394492061e-01,5.136786991120150248e-01,-6.621440896371666440e-02,1.574913235392927380e-01,1.526630467827954085e-01,-1.567182434232886612e-01,-1.697318491998504597e-01,2.987488603252078101e-01,2.774936791521655927e-02
1.829608609314851975e-01,6.560646900848317031e-01,-5.999668095675277785e-02,2.415803144982803241e-01,2.215416044107214044e-01,-2.555075555095699391e-01,-1.206309648958461406e-01,2.615284417832777208e-01,1.593270593105934260e-02
2.050060943488403176e-01,5.824209632572833195e-01,-7.001487037396830759e-02,2.429367243923271913e-01,2.246381186353497428e-01,-2.410063865406367745e-01,-8.235143387674009885e-02,1.444330222694040211e-01,1.877841058566079302e-02
2.950380301078391332e-01,8.117288172496759380e-01,-1.080545323290597465e-01,2.176173761391033690e-01,2.015177555672533483e-01,-2.277774785728478579e-01,-3.755494661477164209e-02,6.065030025889596443e-02,8.740549842323577442e-03
4.013407548338328024e-01,1.124977978399528844e+00,-1.498403839465675680e-01,6.663286555303907233e-02,7.777769456060149023e-02,-9.148384500832387745e-02,-2.573040127101317714e-02,3.824892366188385739e-02,4.349707599208750552e-02
4.963607931514362193e-01,1.116156421994799253e+00,-1.861830868065174616e-01,-3.457796250270992258e-03,-4.405792022652944145e-03,4.944801828135144198e-03,-3.762311222729523147e-03,6.476590547711498502e-03,4.409456409193977106e-02
5.956213252603045349e-01,1.049761170751156492e+00,-2.181922946317123024e-01,-6.160825429295607031e-02,-8.340659100804048709e-02,9.637566151650052426e-02,-6.274063115413038016e-02,1.244742159497325140e-01,4.036502817993364162e-02
5.496395024397141560e-01,7.916278293466547655e-01,-1.851949884030971993e-01,-2.592395544139369790e-02,-2.759824032105125807e-02,2.992471899601192517e-02,-7.372358631696307452e-02,1.435010853483875970e-01,7.300515947785763543e-03
5.695656844793147711e-01,7.913129745681508620e-01,-1.911763214733858685e-01,-2.656866198054040965e-02,-2.759482479232399851e-02,2.976643197977762653e-02,-4.409532782743241092e-02,8.338460605097863798e-02,-5.563297711872781243e-03
6.126708730285251869e-01,7.896715833590604028e-01,-2.060133654640141365e-01,-3.924279574717293162e-02,-4.205314688460334155e-02,4.174440296629634839e-02,-3.943934299165834795e-02,7.313382234675611104e-02,-2.167730867244645893e-02
6.209984098281846610e-01,7.382650877932250832e-01,-2.044998932005119008e-01,-2.582237380561216641e-02,-2.872359869372576383e-02,2.784310873722045665e-02,-3.297392594388634524e-02,6.038987709118018993e-02,-2.881122526836689055e-02
2.775086291662261506e-01,3.735633355515612930e-01,-8.945977164400382986e-02,1.515184255961843363e-01,1.601923512607197064e-01,-1.464206216870502231e-01,-1.369823179554448545e-01,2.530617385850214007e-01,6.382628032724832479e-02
2.377518985584198830e-01,3.354410461427592138e-01,-7.649097850765307349e-02,1.655389530975977241e-01,1.737686415697408393e-01,-1.584646943767154537e-01,-1.650787640101461229e-01,3.108600300999117549e-01,8.612233929954217493e-02
1.898438432130935272e-01,2.767761973936763709e-01,-6.004182256974383708e-02,1.935642265392042149e-01,2.003286207058365687e-01,-1.819757931871563705e-01,-1.919998550972402407e-01,3.915180429630764070e-01,1.130458439175448804e-01
1.834917569988121500e-01,2.696692168552671243e-01,-5.826234547102789735e-02,2.555182754059160954e-01,2.643699938108042824e-01,-2.386156968966916259e-01,-1.948823438915110451e-01,6.222071626675553802e-01,1.101100463308791882e-01
1.688999968992924428e-01,2.136106461369371157e-01,-5.252590812656589975e-02,2.990851295663942144e-01,2.780465285635730921e-01,-2.861796725881097792e-01,-2.440229239860514099e-01,7.159807531489842392e-01,1.407228185459309666e-01
2.052325975701138061e-01,2.319844019783103839e-01,-6.684748354265639125e-02,3.175906515583468703e-01,3.079132298302403870e-01,-2.995378576693560335e-01,-2.162054604180905504e-01,5.487732901274225972e-01,1.103678476586709423e-01
1.311534763098043954e-01,1.370930059548708946e-01,-4.495974042556025174e-02,4.002804093684512732e-01,3.890743052045217976e-01,-3.773154745268287868e-01,-2.303609836138211242e-01,5.284168492430186825e-01,1.392105587707115066e-01
2.549360918869476023e-01,2.474047806741045130e-01,-8.782938817145656551e-02,2.814108889830660432e-01,2.942849636557204329e-01,-2.621251926459710058e-01,-1.416471827433459785e-01,2.907609092983329258e-01,7.711654451771490781e-02
4.065843629687533323e-01,5.206154661820844298e-01,-1.358870223662794474e-01,7.690146979250332693e-02,7.573796141196337262e-02,-7.393947647617053753e-02,-1.371677504190127184e-01,2.791268716166376285e-01,1.556659942174231162e-02
1.780536307168082422e-01,3.056438051790092564e-02,-6.523810025009185720e-02,8.272143408631389416e-01,7.468748353816296870e-01,-7.493049193784537820e-01,-2.989787069070919401e-01,1.664012310581271858e+00,7.255678910643341417e-02
1.696509443255864169e-01,2.917014764309180941e-02,-6.903110541763658736e-02,6.775888638444680367e-01,6.952577411817715269e-01,-6.880555530015575183e-01,-2.387080317193168433e-01,1.493184464669059297e+00,7.405964638953507762e-02
1.946875476620577583e-01,6.255033141979997324e-03,-7.814735217787273369e-02,6.114604944019687016e-01,6.276497080976277676e-01,-6.339956570475602238e-01,-2.398103214832381092e-01,1.544370653341372357e+00,8.476377140862143000e-02
2.283609863924258854e-01,-4.079565626314425597e-02,-9.728142439117230811e-02,4.197374724909040955e-01,3.976352178233175660e-01,-3.310208905633501564e-01,-1.004564024698932356e-01,1.697253872684036713e+00,8.755315898542616326e-02
2.720611197235237588e-01,-4.087832231373651759e-02,-1.058745955705363284e-01,2.784163258591116907e-01,2.461533952688215454e-01,-1.812737223875951487e-01,-1.968529419809369740e-01,1.334993653017028548e+00,1.434305392371026389e-01
1.259768747652482701e-01,-8.946947195821734755e-02,-5.159168597054735600e-02,8.219611207256309615e-02,2.991196129513325197e-02,-1.433666246347173323e-02,-3.099775795936088874e-01,2.059615297094038677e+00,8.794078505265878754e-02
9.085045454091135453e-02,-1.808346369505630657e-01,-3.541245361176779960e-02,4.593251347322085953e-02,5.449160188049639864e-04,1.072360347323247920e-02,-2.578331708686572021e-01,2.505852854771617899e+00,8.232741288191960938e-02
1.524016125307584846e-01,-1.989891027841234061e-02,-5.739359978681005808e-02,2.556692223256313845e-01,2.673741017812218956e-01,-1.810141843103535153e-01,-3.355410406322413830e-01,1.206175085279691306e+00,8.784545099386134592e-02
1.760392675206359503e-01,1.662722662945193344e-02,-6.164240019873528514e-02,2.203504745879464599e-01,2.348442126563180798e-01,-1.914347327893459738e-01,-3.403205808137674815e-01,1.004384538770860091e+00,9.500400628656659185e-02
1.696739923673638850e-01,3.658089387749701576e-02,-6.094585553635985253e-02,2.088274017949827699e-01,2.258626637656379887e-01,-1.781857097128810019e-01,-3.101037941442203461e-01,1.066267032743471788e+00,6.705399727322444714e-02
1.236001714555549358e-01,1.183084210382401823e-02,-4.700588984864881997e-02,2.858778485736006014e-01,3.638651577705157569e-01,-3.054605025475324864e-01,-2.926901928248691886e-01,8.346076987411501502e-01,5.404032410799354536e-02
2.150158544020360774e-01,8.380978066018276995e-02,-7.733663209405539085e-02,1.158194726580076273e-01,1.368910705052667764e-01,-1.305552302241678453e-01,-4.273690315809842155e-01,9.998153680627368534e-01,1.251117957377775314e-01
1.412607117324254369e-01,7.137593367351520446e-02,-5.044113594846331983e-02,1.958759812190884742e-01,2.259224181200089610e-01,-2.155278469726010504e-01,-3.738839483344954528e-01,8.495617133499731022e-01,9.765493338088622466e-02
1.561065917734268949e-01,7.821068133628847341e-02,-5.365023850450797299e-02,1.819148477188713975e-01,2.009062200744167193e-01,-1.958785557002282463e-01,-4.279541705587804334e-01,8.324970068010093538e-01,1.219154433873687743e-01
1.488914737388016551e-01,7.943197620546900428e-02,-5.102751666046752982e-02,1.964409610564823994e-01,2.113248355809493884e-01,-2.060659306871049368e-01,-4.160964007222126559e-01,8.370877068952926603e-01,1.177393450210252879e-01
9.012505161071057702e-02,1.015607976096587067e-01,-3.060595883647733439e-02,1.486392006736414473e-01,1.588199406710432415e-01,-1.595411153414612038e-01,-5.314551538153715615e-01,1.018924745515160879e+00,1.296084989533004550e-01
4.986916160838848061e-02,1.038845052006563963e-01,-1.660662231644863610e-02,1.353122965805199640e-01,1.497224018590756212e-01,-1.461857972883584544e-01,-5.624857007236295781e-01,1.154092814201153949e+00,1.276627419256466389e-01
1.230982409906715563e-01,1.255851476580275017e-01,-3.936084216531370028e-02,7.193832695764092178e-02,7.320436891160546355e-02,-7.581103061439743718e-02,-5.987527094932230121e-01,1.251297421597233450e+00,1.712499813495944878e-01
1.227528830286920419e-01,1.300488121518527107e-01,-3.990039578676195242e-02,7.787640220466186813e-02,7.746078141315004828e-02,-7.722063712039559102e-02,-6.251364961507083207e-01,1.259356989331167576e+00,1.689551979939302173e-01
1.199059374386496624e-01,1.271325663281363261e-01,-3.818718366278135018e-02,1.041088386166450497e-01,1.025173468238580188e-01,-9.898589202644188234e-02,-6.154931060626105399e-01,1.287281263809248344e+00,1.665955589285595118e-01
1.902361610695524619e-01,1.754401576374557403e-01,-5.755945726349179226e-02,4.439958692951524039e-02,3.962843907075943445e-02,-3.674213059427730577e-02,-6.658646590431005485e-01,1.570284207464019310e+00,2.648118605039621598e-01
-4.807669664950019461e-01,3.260150817070399665e-01,1.534107678560676924e-01,7.380836221784587980e-01,6.728587186521598484e-01,-5.357395453184294887e-01,-4.332900729320620092e-01,8.573133434603465997e-01,3.891152968922390737e-02
-2.990565983776718451e-01,2.993540010724603517e-01,9.653803474169665721e-02,7.198414996222732842e-01,6.473086831535863617e-01,-5.202552664983520758e-01,-3.801533449344094984e-01,7.341501430640059445e-01,4.994106633056764888e-02
-8.361243664967196731e-02,2.686054083348879407e-01,2.485811429081061924e-02,6.176884784382592475e-01,5.837252246710724624e-01,-4.673559737409044845e-01,-3.567705193149238729e-01,7.066497201584784893e-01,8.399564629087655221e-02
6.374110000127344300e-01,2.059212680816279728e-01,-1.573865701389703109e-01,7.541959944341973809e-01,6.733167636805472700e-01,-4.654126777185227937e-01,-1.927621032684210256e-01,4.638214425284837295e-01,2.134530939031256680e-01
1.323650268643005834e+00,1.123532163087578306e-01,-3.279976185445935832e-01,3.792653579001996622e-01,3.414120752268802739e-01,-2.026380444259260616e-01,-1.275258849732308353e-01,4.177845055689544118e-01,2.389215084958099811e-01
1.334935959090082003e+00,9.258429505941170867e-02,-3.355890395800750214e-01,3.989199212321098420e-01,3.407378202588772220e-01,-2.389915765243624257e-01,-1.140950344666919331e-01,2.939651829151992413e-01,3.837423077400099469e-01
4.676985655659031127e-01,1.879519805308013936e-01,-1.305896561958357072e-01,6.579653073926905460e-01,6.146135995970793964e-01,-4.163737080494848142e-01,-1.711952334234837642e-02,3.564844728168665988e-02,5.045755855632750864e-01
3.685909643719562645e-01,1.108691038868978573e-01,-1.070042832633417706e-01,4.562857094404751956e-01,4.709897353688811128e-01,-3.009926532955853884e-01,-3.079905921707619676e-01,7.189831041133865064e-01,3.941172098462408235e-01
6.338246924032326923e-01,1.117807265625087639e-03,-1.857305174608564480e-01,3.819938864531745581e-01,4.234721002317986538e-01,-2.656667306282123886e-01,-3.118995664061150475e-01,8.469537700086280374e-01,3.203567282293020568e-01
3.080478981053368370e-01,-4.481435355908855445e-02,-9.140654963458678950e-02,4.752202078590722634e-01,5.480708340125961531e-01,-4.245344644688300861e-01,-1.941310968711315310e-01,4.431390109950528178e-01,7.751863572397015012e-02
2.531376769488649092e-01,2.016596899537326584e-02,-8.109170707267540634e-02,2.585516058262796735e-01,2.924284243219708035e-01,-2.216509986638021124e-01,-3.212298123634442781e-01,7.163817018330603803e-01,1.385019695534169260e-01
3.819039705782542038e-01,-6.058737634382475173e-03,-1.150481727391048925e-01,4.075082557531334859e-01,4.249229669650773644e-01,-3.555682096580337070e-01,-1.232313177869440723e-01,2.541682081340285171e-01,6.979727992701223460e-02
3.484680999853687067e-01,6.327749981468480667e-02,-1.045575256407768328e-01,4.043200287459504105e-01,4.283727310455346937e-01,-3.541835172799330245e-01,-9.007031277737824471e-02,1.877912046361634724e-01,4.839256577716699592e-02
3.379308939726898831e-01,7.700684626256643073e-02,-9.992611131738116104e-02,4.375327541975486123e-01,4.524000767712716975e-01,-3.788349564392607394e-01,-5.456022088044381463e-02,1.129346846513103741e-01,3.226595241415613352e-02
3.857863661651847464e-01,8.593296198016034393e-02,-1.097643402954662228e-01,4.509428368472780946e-01,4.382926466206750193e-01,-3.846850027032855390e-01,-1.018056551627913309e-02,2.007100008794585055e-02,2.088456837770798560e-02
4.190092262641454401e-01,8.906617576886281806e-02,-1.235784378836984748e-01,4.557832784103904578e-01,4.463889403948262946e-01,-3.764494139413950280e-01,1.520775332299050160e-02,-3.226577678421509165e-02,1.963953986121023607e-02
3.434889642187755054e-01,1.128944190365271938e-01,-1.051771002736831551e-01,4.256281575913296034e-01,4.108608161704851991e-01,-3.740648927256169931e-01,-5.440667465800172464e-03,1.147973120807889436e-02,9.656637195686145272e-03
3.704870072755557797e-01,8.855013489315989583e-02,-1.133522402436814985e-01,4.198557084016409369e-01,3.957923063422781884e-01,-3.465687689279821071e-01,-1.771683576194614876e-02,3.837658758669268422e-02,1.284324091572191899e-02
3.703593903871555959e-01,8.336385697681258922e-02,-1.106957480397506022e-01,4.279863392144384049e-01,3.957706510956312540e-01,-3.517489101000964569e-01,-2.512055216730947615e-02,5.259124007444997834e-02,1.886572488687020266e-02
5.283438069507406798e-01,6.913457662896813072e-02,-1.557442701000025520e-01,3.406709992566069878e-01,3.174377916817856526e-01,-2.831897975522697508e-01,4.616686178519395500e-03,-9.588883565087762476e-03,5.396418729655651225e-02
1.588612425656485527e+00,-1.224436963623736496e-01,-4.388799428181502371e-01,3.178521993097132431e-02,3.489232638856814422e-02,-4.220989452368813927e-02,7.745259917292998120e-01,-9.411380088551032363e-01,4.601240412842892979e-01
-2.888260051119346250e-01,5.481526463360715529e-02,1.060527389382772967e-01,4.755142521732783623e-01,3.385528167626834506e-01,-2.087739294861737926e-01,-1.805748106631366867e-01,1.624907447641675162e+00,2.625267889356378351e-02
-9.038679682294861739e-02,6.230208967950533194e-02,3.197115947762477206e-02,7.107014702935520178e-01,4.562102799552992805e-01,-1.744074029714330898e-01,7.262312580897606340e-02,8.087534008063363977e-01,-3.720001493743237825e-03
2.539173346501931439e-02,5.464955368764101706e-02,-9.628244619067579529e-03,7.384373102777547215e-01,6.151324981982781992e-01,-2.226087105739008587e-01,6.953204629342929488e-02,6.047996966794306761e-01,-2.923076868888692392e-02
-1.159625586665907482e-01,1.694800710220114304e-01,5.189046671567144886e-02,7.883271531876281379e-01,6.547756286121411140e-01,-3.050136299869149470e-01,3.345964442778113779e-01,1.149375776340049615e+00,1.764019808598064898e-02
-5.714400353647648423e-01,3.531485227079280698e-01,2.231296076110694526e-01,5.642171324596378934e-01,4.418443249975502751e-01,-3.958987615910930513e-01,-3.732268941436495679e-01,2.048338369405194648e+00,-7.290391502262254242e-02
-4.462912600556303011e-01,3.532620344871879037e-01,1.528064039879605540e-01,2.268796065644278770e-01,2.535995440875281060e-01,-1.487743832396819510e-01,-5.888835491317886417e-01,1.910878968404178035e+00,3.484485242272000044e-02
-5.361267815026113936e-01,5.570191824882823051e-01,1.916725378496019760e-01,1.738584134885191868e-01,1.636984697265668476e-01,-1.496215119188608333e-01,-5.996045062557110450e-01,1.449044483342346812e+00,1.856691050479663818e-01
-4.757985296804462250e-01,5.389368156529911191e-01,1.813835071963596779e-01,8.983098557369449677e-02,8.687209105572060719e-02,-7.822120457128550752e-02,-7.185278877103945527e-01,1.533422940367201726e+00,2.152105725517189927e-01
-4.038069650370444963e-01,5.336496091621381055e-01,1.538071469599383290e-01,1.088902610889059958e-01,9.500991721089176167e-02,-8.564878917916539380e-02,-6.628644308696888254e-01,1.584104747144411629e+00,1.780606960409406858e-01
1.300964635092997880e-03,3.429630414881396638e-01,-4.248158340150471192e-04,-4.830446969249120592e-02,-4.670473177158628031e-02,4.785330587921821782e-02,-8.562683364490260018e-01,1.721590920449492579e+00,4.135663700480485816e-01
2.665938584837198033e-01,1.733837404328826270e-01,-8.397554958682197646e-02,7.506854891569234023e-02,7.754354846993855022e-02,-6.487627379624233415e-02,-6.093473471180759216e-01,1.229216380859033730e+00,2.637271839277295360e-01
3.995835206063004241e-01,2.105028140741486420e-01,-1.246577491760083312e-01,1.752343951873748529e-01,1.917952192516751697e-01,-1.614791162488990461e-01,-2.276455191933755284e-01,4.053699959295380406e-01,1.623223774577064737e-01
2.970517242999535790e-01,3.268540911898764056e-01,-9.143788613062002468e-02,1.699514964889660973e-01,1.817383092677328504e-01,-1.593876212539591941e-01,-2.125241053224836141e-01,3.654290093935997352e-01,1.352975870533275893e-01
2.604760325928817677e-01,3.958412438172961845e-01,-8.130039925273345458e-02,1.554438574071812518e-01,1.640004421496855935e-01,-1.456316999831803738e-01,-1.832285943895330671e-01,3.140456404625494580e-01,1.335185811279031576e-01
2.433019786173633847e-01,4.658793815241585312e-01,-7.589721334727793367e-02,1.482742931083748661e-01,1.574447353463168942e-01,-1.387280813583810501e-01,-1.686776772422204362e-01,2.873631136237362882e-01,1.311680600763927007e-01
2.080997838960048363e-01,5.449870780044251406e-01,-6.340460164484829075e-02,1.546639043208254405e-01,1.554938945454284460e-01,-1.357229647929625860e-01,-1.856476673021064672e-01,3.181766174497576705e-01,1.362723993786466026e-01
2.283557136259135589e-01,5.018543204032123173e-01,-7.138017513322468532e-02,1.575760199463403788e-01,1.733627126866726376e-01,-1.434603113896043836e-01,-1.271798592237112779e-01,2.125180202460029144e-01,1.152472568129083164e-01
2.206178791271092288e-01,4.195551155023317103e-01,-6.882117054679301460e-02,1.883536286200074572e-01,1.982535316573086903e-01,-1.700327369956905477e-01,-1.648350128095501799e-01,2.785996212249702286e-01,8.023208935233316907e-02
2.014760992558418951e-01,3.417952711609964500e-01,-6.242165063412021681e-02,2.491308280824801047e-01,2.603962439585316702e-01,-2.242982700656743211e-01,-1.868740500871336196e-01,3.097759384472582589e-01,4.249873266508254199e-02
2.203124996880752307e-01,3.459092926093073062e-01,-6.965617256913962663e-02,2.523887619949421457e-01,2.611895481560063681e-01,-2.316596489069182585e-01,-1.614429424005321134e-01,2.695860751754578510e-01,3.394666700012191618e-02
-4.136991580601377949e-01,8.549373592763210850e-01,1.732858512525676242e-01,3.676638472752414843e-01,3.156093696091111234e-01,-2.961569694037149425e-01,-8.439615672590884410e-01,1.840996158244680991e+00,-2.008822615126527045e-01
3.295047379549982391e-01,4.124936116571369382e-01,-7.703566948431402051e-02,2.604495317868349979e-01,2.323034298391627728e-01,-2.384742102839036426e-01,-2.401194395441617613e-01,4.396441631117850024e-01,-1.780896866824766001e-01
5.164261938421543796e-01,4.375881204742587682e-01,-9.101819960658384667e-02,2.788770684715642378e-01,2.597665330878320411e-01,-2.531847093944952221e-01,-8.880033771975449908e-02,1.401173551017396712e-01,-1.822154562679691725e-01
4.282911029415655824e-01,4.092122466855681595e-01,-1.093548320173636790e-01,3.402122494688360477e-01,3.102852890606706548e-01,-2.478575909626163087e-01,-4.946042429047598638e-02,7.882038544950339953e-02,-1.664483771934775480e-01
4.219180607677198713e-01,4.481075539559564724e-01,-1.052504097612476236e-01,3.227823616578570087e-01,2.719132455795347791e-01,-2.233660394114702075e-01,-4.198880359080618685e-02,6.722081358933025552e-02,-1.893707235431414948e-01
4.329531097682025598e-01,4.410616517090120148e-01,-1.360546758864316086e-01,2.608764664789525733e-01,2.439822859522046972e-01,-2.285940106890398948e-01,4.531921512591520484e-02,-7.242561600762531526e-02,-1.829863498435524150e-01
4.125962693966239714e-01,3.057028804885255635e-01,-1.162144767204066065e-01,4.806002370931310441e-01,4.841397540475970152e-01,-3.417259188663816505e-01,-4.450297280676793893e-02,7.995836385738641638e-02,-9.744192737524584591e-02
3.735355100360183700e-01,2.073989726556594304e-01,-9.696596113804080430e-02,6.044176760316113395e-01,5.861667407544142172e-01,-3.949891962635619924e-01,-1.403419899791258640e-01,2.504855787779754484e-01,-6.992867449025363946e-02
5.142571781220015570e-01,3.387705269844617506e-01,-1.369678250994938451e-01,5.200824867086109027e-01,5.183154544051306045e-01,-3.122814830669269348e-01,-8.787677221763377441e-03,1.501265826166634301e-02,-7.072173227023087483e-02
4.559140820028964591e-01,2.187837040330070926e-01,-1.337987089124250406e-01,5.164276162059305841e-01,5.257982780544068202e-01,-3.428548032245959942e-01,-1.549872026677568126e-01,3.225843142863525914e-01,-5.258928183536199646e-02
5.519626637928118917e-01,4.209059391640682102e-01,-1.651588196081738569e-01,3.532541592167662281e-01,3.705439306506279618e-01,-2.384675658845047674e-01,-9.299819583774981968e-02,1.752488995076578737e-01,-6.475390968990024643e-02
2.685933952165084904e-01,1.387907490222940465e-01,-8.819704093745329987e-02,5.572600183506141169e-01,5.764250631707230621e-01,-3.595882166365716448e-01,-2.087393542538659441e-01,4.047428659353158320e-01,2.697485826712188103e-02
1.349967653653062205e-01,2.623918846324200249e-01,-4.975669595713079485e-02,4.501270398224895830e-01,4.140618252089249829e-01,-2.775113812812856073e-01,-1.804935114617604586e-01,3.893998137577950325e-01,6.830634000860275057e-02
1.505052248295389861e-01,4.004614475422185182e-01,-5.341602300328594094e-02,3.779580962254800447e-01,3.546726875198801254e-01,-2.551634121600531158e-01,-1.129556264326216433e-02,2.303641669391990471e-02,7.897999436873692769e-02
1.061529130023669415e-01,3.286746416591745934e-01,-3.866675579965197368e-02,3.559360362375782461e-01,3.325567311818101723e-01,-2.552083864295313087e-01,-6.326479531722750682e-02,1.303309051606835189e-01,1.046661836777602744e-01
1.452823187659859350e-01,4.188385780336095210e-01,-4.833864946729002354e-02,3.848776814462187001e-01,3.561517508169749768e-01,-2.547400490100769632e-01,1.013130241992754935e-02,-2.010086002933522686e-02,8.623623704370408927e-02
1.230460353397067191e-01,5.085578310037127681e-01,-3.502333466045479127e-02,2.895596290137962270e-01,2.559911074659833585e-01,-2.435052716371963188e-01,1.637523147566290194e-01,-2.576491856105012634e-01,1.216410293384649760e-01
1.085379866210672423e-01,5.373106073955741246e-01,-3.617165981322439938e-02,2.017156834869769377e-01,2.164391320051393119e-01,-1.970652669638619237e-01,1.786528643998889498e-01,-2.742903920061676715e-01,1.345627193187812209e-01
1.009542757946224611e-01,6.395394372994039900e-01,-3.306333616722603730e-02,1.929877891981344462e-01,2.212224529704694409e-01,-1.939555105796474943e-01,2.167062474637465042e-01,-3.288881002446762403e-01,1.283654130955526607e-01
1.596344583700540568e-02,6.097363776824324955e-01,-5.035496999180623205e-03,2.624565254170979633e-01,3.489317227138308830e-01,-2.840635535874020401e-01,2.259060762514167320e-01,-3.311524786859960101e-01,1.893227109135917352e-01
-3.226853073064740451e-01,6.474416594105836253e-01,1.166573992394692033e-01,2.544536343279422130e-01,3.093398736567286034e-01,-2.539134961375116850e-01,8.898977498215421278e-02,-1.737101723833118505e-01,5.063797740272686365e-01
-7.414407410633304385e-02,-6.814237186415348368e-01,2.586656018344166835e-02,4.454216024563775189e-01,4.077515647134808963e-01,-4.117108004414177791e-01,-1.042776212990474960e+00,2.445552405049895128e+00,3.113497448802758361e-01
5.077089597961205181e-01,1.746831966441526884e-01,-1.417793552272874902e-01,1.428641065612637207e-01,1.412389023809255129e-01,-1.239153127079153233e-01,-4.800572067378783281e-01,1.183179828839563408e+00,5.076897777748036467e-02
5.373493273959829564e-01,1.385723672122320949e-01,-1.385723311432567328e-01,1.317915165436159830e-01,1.194269871377955650e-01,-1.227750132958289331e-01,-5.417643946013146472e-01,1.294180273235378209e+00,7.713578823769381976e-02
7.411863239278482229e-01,1.959626997760632039e-01,-1.634856887557241678e-01,1.105951854765398479e-01,9.773284906860488230e-02,-9.940881670254839153e-02,-6.239697223761770939e-01,1.677698427908498768e+00,2.599057067128933418e-02
7.734559815931224547e-01,3.033320774089846017e-01,-1.685800122753752517e-01,8.065644178059072633e-02,6.384325255930098364e-02,-7.029288908921246803e-02,-7.758277800650356104e-01,2.138971975238792123e+00,-5.897035149550458599e-02
7.736508252223637250e-01,3.389604469812874665e-01,-2.066756275302963353e-01,8.512161291703967264e-03,6.633840965802142477e-03,-7.637426573518275516e-03,-7.068668329289971020e-01,1.658959288748156125e+00,-9.474487877664948543e-02
7.527343102369733474e-01,3.653785677636811058e-01,-2.231210914547377688e-01,-2.203053057402553500e-02,-2.305226849802545497e-02,2.152846124281833015e-02,-6.067278351376806933e-01,1.265345334756417639e+00,-1.245212085105475847e-01
5.615260858231481134e-01,2.193883599633598136e-01,-1.707860888401395993e-01,2.685819362029287852e-02,2.606454692703121315e-02,-2.615366864992371004e-02,-5.520916446054306981e-01,1.207035529250367611e+00,-2.435669048891301106e-02
4.276839331939761291e-01,1.905924468088665280e-01,-1.327124779407049537e-01,7.190535340577546009e-02,7.773324297433681362e-02,-7.564738834726990324e-02,-5.370978987311514352e-01,1.100935335101093759e+00,2.046870762533069266e-02
3.294080385334126615e-01,4.406900228549329862e-02,-1.009929525672720318e-01,7.085991321416827693e-02,7.537973968592086293e-02,-7.036732973455879503e-02,-6.956915511082291115e-01,1.817109023377037946e+00,2.021707644451111244e-02
2.372656106582645141e-01,1.213006253485412050e-01,-7.399641240441565126e-02,1.032945517842259187e-01,1.088360806278357018e-01,-1.036449488118170170e-01,-7.321726224835346519e-01,1.658007193934555090e+00,-2.452303801535759414e-02
7.230066979541835415e-02,8.629692436627500740e-02,-2.107418522734849989e-02,1.545918165317136383e-01,1.754792859637200053e-01,-1.758285950580049384e-01,-5.351591996337534685e-01,1.312563857180131910e+00,9.296561247848042497e-02
5.349399791356165834e-02,1.642136672171336520e-01,-1.693384126973931231e-02,1.666939430311094872e-01,1.814976096127582927e-01,-1.781497893303810309e-01,-3.255122548301906393e-01,7.044885118802657331e-01,2.068456253984448656e-01
3.648165892497269303e-01,1.683309564956686211e-01,-1.153728915814972167e-01,3.668447158461977942e-02,3.988643348158380647e-02,-4.017425810356263505e-02,-5.456645646726532295e-01,1.132149331783214974e+00,7.166517997398889894e-02
2.682158687278689557e-01,1.174230849882998973e-01,-8.558197461046014587e-02,4.703483133893000823e-02,5.170729758236394108e-02,-5.195407239602329447e-02,-5.959913933348501835e-01,1.257242668749797510e+00,1.117331520962933783e-01
3.015212783163602195e-01,1.475708801198277187e-01,-9.519994070378165474e-02,3.455931333832248237e-02,3.746333673779848883e-02,-3.764196740295291249e-02,-6.022435096500877716e-01,1.265477970581936118e+00,9.845778167360430544e-02
2.710171397352533762e-01,2.134509037537649367e-01,-8.649788814455434960e-02,8.010767393385399837e-02,7.884120901853056140e-02,-8.622217754666704204e-02,-4.230282244911721667e-01,8.750658526535536330e-01,1.439518367437425950e-01
3.357150885976855625e-01,2.130789289474404324e-01,-1.125002245815592689e-01,3.032513332176527132e-02,3.005912744745668427e-02,-3.158222013456325750e-02,-6.137500615043517405e-01,1.109370896774837467e+00,6.963100910056507775e-02
4.532414916950850414e-01,2.992065070460506737e-01,-1.525447714843685687e-01,7.378194617351009968e-03,7.139291497055216297e-03,-8.083834494896984316e-03,-5.534561445149437375e-01,1.083213719555084387e+00,-1.326575262675134224e-02
4.094891525891277140e-01,2.757994833804215951e-01,-1.368536629538223415e-01,5.554441201048298908e-03,5.484707089936220054e-03,-6.239592165218659468e-03,-6.499627558958174234e-01,1.232451449482937500e+00,-1.612786429738664526e-02
5.824105261471924644e-01,4.208553973897442568e-01,-1.961599561466902120e-01,-5.766914728495541737e-02,-5.574112501231878042e-02,6.755705445788978691e-02,-5.334125398002359519e-01,1.019522796683409283e+00,-3.396002108428516214e-02
7.311466039172193065e-01,4.171509298045323333e-01,-2.639107554048786275e-01,-1.731029499794697335e-01,-1.484639449342139428e-01,1.897608091897226013e-01,-1.032205679620360694e+00,1.866144386685926637e+00,-2.068265369852729518e-01
9.210043128068275825e-03,2.448977593064320946e-01,-3.111301164178393447e-03,2.661036364089207351e-02,2.413473239424928501e-02,-2.764586545687946345e-02,-9.491070171120637999e-01,1.744520595862476986e+00,8.600963799924245257e-02
-1.006490657462502519e-01,2.060682311613696860e-01,3.377318283230149737e-02,8.545937319391064269e-02,7.884778642300382945e-02,-8.921653412599490907e-02,-8.213510355079047809e-01,1.560243972472463492e+00,1.696410501063985998e-01
-1.422282475992808770e-01,2.143674888353563901e-01,5.053589613450869267e-02,2.829204069274227074e-01,1.943594150215139926e-01,-3.571840150647530576e-01,-5.479686670015875283e-01,2.128756177422384877e+00,2.115776445847815934e-01
-2.280315483506204985e-02,8.703150371668878782e-02,7.739733322510727702e-03,1.696922208680553545e-01,1.614278783773577808e-01,-1.779590373512744406e-01,-6.358383482768685813e-01,1.217824005366350493e+00,1.754591667945599176e-01
-2.758519665213357563e-02,7.550818057997712995e-02,9.344677149611060538e-03,1.538586298578268896e-01,1.487887622925888331e-01,-1.606751417102834922e-01,-6.701158952427870297e-01,1.279176970996766194e+00,1.724812335795220253e-01
-4.317015166988723285e-02,7.029395347079579748e-02,1.445376752047963786e-02,1.528781453570406401e-01,1.490741959320247279e-01,-1.592843332495497422e-01,-6.852311453060689894e-01,1.306557769469192554e+00,1.725754206982571259e-01
-7.805977903259476991e-02,6.674353475281830095e-02,2.657574041978900958e-02,1.751689401867641827e-01,1.664389675749327613e-01,-1.867995352638169848e-01,-6.557365407064180696e-01,1.425935876284207149e+00,1.702265526100219528e-01
-5.201618970594350244e-02,5.902128280413414252e-02,1.780569281621079136e-02,2.085350213890336257e-01,2.010512500791947765e-01,-2.158834902655987487e-01,-5.854890303696863585e-01,1.249438083587464998e+00,1.543463249300314477e-01
1.217063081897695881e-01,1.120450645752900098e-01,-4.119738026833860700e-02,2.533921856209223056e-01,2.521089045955747232e-01,-2.539083831526878221e-01,-3.548194165712431625e-01,6.498085031290605773e-01,1.185982789542112809e-01
3.080956874809274160e-01,1.523563683811495761e-01,-1.009231564433091255e-01,3.554421633115801837e-01,3.516419746976032212e-01,-3.508071450761987009e-01,-1.696802110039301870e-01,2.692339310322517387e-01,1.107640543597881999e-01
1.480124641895168014e-01,1.051144634794566046e-01,-4.873654556422374329e-02,2.459581080316201873e-01,2.351766962612914791e-01,-2.475946155521014380e-01,-3.530847319445018506e-01,7.477715530839008640e-01,1.137021290540808915e-01
2.983651304311071284e-01,2.075377703569155075e-01,-9.502541811994114074e-02,2.574613723672031229e-01,2.441690423769186102e-01,-2.402405455503240361e-01,-2.060125904825745036e-01,3.074920314014203959e-01,1.009594470031782709e-01
3.708836757675394447e-01,2.422912366106753090e-01,-1.136467022372934649e-01,2.854765996943193218e-01,2.659265395176076408e-01,-2.500752695128814485e-01,-1.484565421620916148e-01,2.115018134155872143e-01,1.012259365230948754e-01
3.226963553096727777e-01,2.140162733933759776e-01,-9.745714819952119856e-02,2.694918570078035924e-01,2.339882585964429829e-01,-2.583039842955402454e-01,-1.702364661397696155e-01,2.751251541023078118e-01,9.000475199525952152e-02
3.754196587704081156e-01,1.792874420451547601e-01,-1.103720429948152892e-01,2.796047035292366090e-01,2.571868006796184658e-01,-2.604104207765959855e-01,-1.079905974588535184e-01,1.709017343748761575e-01,9.976446824831594617e-02
1.594047466830940674e-01,8.976420850086290482e-02,-5.321846404674544090e-02,2.139239603229980968e-01,2.131099024320940172e-01,-2.158103373397671776e-01,-4.002315595172645235e-01,7.597745308245295037e-01,1.093543831584146975e-01
2.013938486317853049e-01,3.683220718744152633e-02,-6.424996292776467832e-02,2.290262826941908414e-01,2.280868222274970714e-01,-2.428778935759344504e-01,-5.078594858236420428e-01,1.137003127603808394e+00,1.185160593508243765e-01
1.622520043879971119e-01,-4.528065590803974708e-03,-5.276818178416547989e-02,1.921739848353430091e-01,1.918591828551614309e-01,-2.099770470471993278e-01,-6.563416148452453358e-01,1.551445965050340270e+00,1.365861045898112136e-01
-6.826352464503634282e-03,1.627765305188423953e-02,2.196491926726644710e-03,1.700632089370772149e-01,1.635243350986835542e-01,-1.902147928758014805e-01,-8.805456390487864660e-01,2.164379849533919931e+00,1.707223538114943096e-01
-8.692654938723313671e-03,5.628264149645635650e-02,3.009949556628564900e-03,2.083529555475025774e-01,2.046613749626847167e-01,-2.344672926937713675e-01,-9.096961951585695871e-01,2.290911484321072500e+00,1.296915445225946262e-01
-3.219877215206074506e-01,8.950672878839032592e-03,1.221891948989297094e-01,2.643938952337057668e-01,2.708503552242000900e-01,-3.296546876377836055e-01,-1.313337731707895140e+00,4.502972665603234503e+00,1.426721083641095955e-01
4.281301804461488114e-01,7.639827928267342583e-02,-1.256668604608586204e-01,4.702386706622034840e-01,5.187998301466039131e-01,-4.233121949632338010e-01,-2.215051566047162024e-01,4.076283464099318410e-01,-9.564763471070110434e-03
2.451523507786556033e-01,3.916299658097711911e-02,-7.750677783843511193e-02,4.559825731089934275e-01,4.923404317495791993e-01,-4.307299845268549587e-01,-1.023699362891857673e-01,1.840009728935720623e-01,-3.129450946215372314e-02
1.575681178507038205e-01,1.648748717659255861e-02,-4.963136423113140988e-02,4.860699222014395748e-01,5.433923764147037261e-01,-4.595501586673723105e-01,-1.348345103951626156e-01,2.388560337118924015e-01,-6.685121291944494393e-02
2.184030004643880418e-01,9.089008503376425074e-02,-6.750279978545098425e-02,4.913824540706419608e-01,5.304422862338357136e-01,-4.939785003473825542e-01,-4.208703680105695399e-01,8.556134299336066729e-01,2.378166882402212023e-02
2.178740926814223267e-01,2.657114389191626569e-01,-7.811028822331984867e-02,3.233164110075844033e-01,3.114442217517682798e-01,-3.120933562959256058e-01,-5.575605487120225412e-01,1.332120798749914625e+00,2.176736372474502579e-01
1.264732229772975447e-01,1.885698329674160290e-01,-5.098169920968692592e-02,2.218541503688999106e-01,2.042848658673147577e-01,-1.941891197991968132e-01,-6.711479914764557630e-01,1.499029479047150559e+00,3.282763909003273417e-01
1.090234525360136708e-01,9.395388510809209170e-02,-4.461880803023000192e-02,2.021982689589869320e-01,1.801364064433489953e-01,-1.656663063981015094e-01,-8.107989341082356693e-01,1.927530221960237711e+00,2.706876113698635788e-01
1.108783960896892878e-01,6.464260216016755323e-02,-4.563231370185105024e-02,1.326872497417992403e-01,1.063889239707336704e-01,-1.158602957959640467e-01,-7.498777726001213395e-01,2.146253913629072585e+00,2.671961670046525961e-01
8.474440698991594911e-02,-9.395749353455222497e-02,-3.308487740114371412e-02,2.760639537352739814e-01,2.153404054881947194e-01,-2.302443326621288477e-01,-6.632981465257505871e-01,1.881893247263059621e+00,2.926299379756904240e-01
1.127368264780765350e-01,-2.040862675753239153e-01,-4.367487942081608315e-02,3.214208052921493364e-01,2.306228738789905530e-01,-2.680287431001898701e-01,-6.631370264224096811e-01,2.033550064440567073e+00,2.232174649417506540e-01
1.115319307787274034e-01,-2.656257922262053039e-01,-4.320788453310048238e-02,2.912542983130934071e-01,1.986763286531029182e-01,-2.479087703838761536e-01,-7.454714989974235984e-01,2.287668428025257938e+00,2.513755655306785797e-01
2.774701007886296034e-01,4.345525286510081298e-01,-8.691302565098228683e-02,3.375976918588496911e-01,3.521343825750464784e-01,-3.149431037280431833e-01,1.409372598628040874e-01,-1.933301625103267252e-01,-4.862475559896487637e-02
2.964954731669974253e-01,6.474494638481913256e-02,-9.999767595003331011e-02,2.478680219775687976e-01,2.174149784957887521e-01,-2.281368209005336933e-01,-3.220524799563016516e-01,6.793324015936508253e-01,9.543058236870576028e-02
3.564062130074501233e-01,2.240805751811120183e-01,-1.166892542778191072e-01,2.871148191230731839e-01,2.963574984559808612e-01,-2.712297063046002488e-01,-3.260718811016920932e-02,5.305560397759117447e-02,1.496959077438813138e-02
3.803704180876000263e-01,2.615276200783059890e-01,-1.263791142071724050e-01,3.036034232591648396e-01,3.149308666902814191e-01,-2.799236949391568641e-01,5.053594718182547602e-02,-8.374247874887616461e-02,-1.046948238648417323e-02
4.239205791336910223e-01,1.810919188170198590e-01,-1.356212780520615890e-01,2.531088487905975293e-01,2.556917852064907182e-01,-2.446236419353715330e-01,-1.172191964716525203e-01,2.152236505171120362e-01,3.126677249937258318e-02
4.151623385038746283e-01,4.493285679360761731e-02,-1.329220626983008968e-01,2.826839579663661950e-01,2.886747854762272691e-01,-2.812551395480822891e-01,-2.354936548967476728e-01,4.368381139206007902e-01,6.829043580595227370e-02
4.120624161093200399e-01,4.798029408958342373e-02,-1.341226362580243414e-01,2.709708159709745545e-01,2.896302276394456809e-01,-2.728100336080121480e-01,-2.412233825436573276e-01,4.293478196433176963e-01,6.958623737110389285e-02
4.076121226726496238e-01,1.044556793433482761e-01,-1.296772004507924791e-01,2.646117948253931540e-01,2.830867076089045864e-01,-2.615801780958619815e-01,-2.116264585461954395e-01,3.612088513869231576e-01,3.608014652236384706e-02
4.494320195557206521e-01,2.920590296048692358e-01,-1.389912791561805361e-01,2.151267183975832664e-01,2.282957308280629538e-01,-2.099345073597706501e-01,-1.291825314785686740e-01,2.244438759414724704e-01,1.896648158109600496e-02
7.278031368091135711e-01,8.490265685442935917e-01,-1.778570947711561601e-01,6.409576719473845108e-01,6.740267380666211672e-01,-3.078612029259913396e-01,1.830606020830593650e+00,-1.359825253113020604e-01,-3.353204630551985810e-01
9.627368645423959315e-01,3.243239477847353336e-01,-2.286509603839488869e-01,3.834971712047337278e-02,4.765227593082404373e-02,-4.229935103555432924e-02,-3.666985701312742707e-01,7.323311194525630174e-01,2.833965820100401434e-01
9.140097603156080996e-01,2.313765939880100819e-01,-1.992248114217658461e-01,1.435451316260348276e-01,2.077805430612781334e-01,-1.253840746395661343e-01,-1.834337676825646413e-01,3.109299231809525832e-01,3.767749224441865885e-01
6.397941538599785094e-01,2.252472530946176277e-01,-1.522902245465267701e-01,1.801213467350925579e-01,2.356985512420204654e-01,-1.725083223367544771e-01,-5.603519811820392542e-03,1.029255428643873621e-02,3.072427227568515495e-01
-3.273150801559026463e-02,8.590337877000576994e-02,7.741394794791702470e-03,8.875345265577030407e-01,1.161354328545227022e+00,-7.971787793117728338e-01,1.526290552062564698e-01,-2.447218693565502423e-01,-2.823754036413756580e-02
3.709389206977688203e-02,9.632365338571997893e-02,-9.081060932377319622e-03,8.144479168787299717e-01,1.035009599279530512e+00,-7.842766901520863421e-01,1.362178209138265317e-01,-2.006179798560090988e-01,9.897852605506177268e-04
-2.316304348947837571e-02,9.160811638215124453e-02,6.620995024301578290e-03,6.999511618193585694e-01,7.574133689473974140e-01,-6.421080617150283221e-01,1.255632044977987027e-01,-2.176927304232371685e-01,-1.196659046937532424e-02
9.605722171638647611e-02,-7.756127857915824783e-04,-2.211526911302477000e-02,9.755688200039454028e-01,1.168358873741583981e+00,-8.735612820225557851e-01,8.726926039077496922e-02,-1.542971324443361825e-01,1.602959242829932879e-02
1.440969693910285898e-01,-5.733371291020927102e-03,-3.770183662943003833e-02,7.702313741106946443e-01,9.316213180947621186e-01,-7.196394375579026059e-01,2.807466435759875534e-02,-5.029371407008303985e-02,2.549289675472428060e-02
9.146284449033506569e-02,2.731079111055690484e-02,-2.258086888255706262e-02,8.280937221488682276e-01,1.024109244338579749e+00,-7.663733784380559744e-01,-1.384372834520594675e-02,2.528772499719907432e-02,4.920537810461422801e-03
1.808765526267711032e-01,4.402134414270417878e-02,-4.403279729836082068e-02,7.577585466386066448e-01,8.854631880634362684e-01,-7.071289490760988006e-01,1.068685427659471845e-02,-2.068515634779317242e-02,3.913186859440752341e-02
1.822554960447458350e-01,6.769334528748198465e-02,-4.590826199664014423e-02,7.058813139247015478e-01,8.020823151451559330e-01,-6.480192543607494748e-01,-5.604813430427833809e-02,1.223781235336245249e-01,1.808938226998266577e-02
2.115265629593360286e-01,-8.117564837721286120e-02,-5.655266471718300991e-02,7.415618205676848262e-01,8.241350569553299588e-01,-8.318137269008090140e-01,-1.080046784901130680e-02,1.933170063517542989e-02,4.800716727418059132e-02
2.969648898733999176e-01,-5.676147148755777971e-02,-8.599776356664493027e-02,5.103424131502127814e-01,4.706446445581097260e-01,-5.168376945056744054e-01,-9.092946544062623093e-02,1.583627516826552895e-01,8.911281814019732239e-02
4.813016035105714963e-01,-6.875622056373252577e-02,-1.437295083152317354e-01,3.105885151600535909e-01,3.009716586842258179e-01,-3.123876810547772109e-01,-2.568445051954857880e-02,4.202089583076534796e-02,1.766181669087679984e-01
4.600093193774513201e-01,-5.818848831500905011e-02,-1.355145671128075158e-01,2.992549196962614455e-01,2.760447581093259384e-01,-2.918827709666375059e-01,-6.958982391611744089e-02,1.209106020929080066e-01,1.696823331497901710e-01
3.610368446478987581e-01,-7.774282735914189724e-02,-1.140140454950478860e-01,4.120917506091930638e-01,4.322735163001283909e-01,-4.085688983455849632e-01,4.175044726208521073e-02,-6.945078851816935406e-02,1.812234078348010924e-01
2.566229822492248624e-01,-8.175371004702840227e-02,-8.738855974200569754e-02,5.450915525861420585e-01,6.098452072008613278e-01,-5.484228434426453580e-01,3.382291390250515700e-02,-6.549476969424825046e-02,1.653581222677840135e-01
2.916006499075664560e-01,-7.137569953991072802e-02,-9.919807943456901422e-02,4.998946458099400858e-01,5.579549151330154277e-01,-5.035718790340035778e-01,4.272868294679531276e-02,-8.300656287339869266e-02,2.037923982413174517e-01
3.769923972149989977e-01,-1.163533866009569817e-01,-1.282014659506779397e-01,4.192308290299245899e-01,4.603149104685443360e-01,-4.232853957945341694e-01,-1.107587071508071754e-03,2.094137127203690545e-03,1.953744670733344180e-01
1.964575801955007472e-01,-1.392704081985012277e-01,-6.623816668390179740e-02,6.542541413801767902e-01,7.228070582174670466e-01,-6.583293532951683957e-01,1.012335157047342393e-01,-1.920005556114028622e-01,1.409558347897864050e-01
6.940611321599051697e-01,-4.732107716678925560e-03,-2.624480364089622486e-01,6.821314390407516859e-01,7.683337084716521659e-01,-6.607741277967217330e-01,-3.451822251102424355e-01,1.153065901805816251e+00,1.639795384608631057e-01
7.504968921910103452e-01,-1.842028186738241605e-02,-2.990372719336932272e-01,6.767431256731529787e-01,7.397977072080597072e-01,-6.211773678003080779e-01,-2.883659413487317802e-01,9.813896300378153192e-01,1.982236680891800162e-01
7.396701397826384028e-01,-1.873263007468195171e-02,-2.811528880460079094e-01,6.622593957789627561e-01,8.056728861152198107e-01,-6.140333106349165071e-01,-2.261743012780598472e-01,6.104875750833442805e-01,1.888981160427769534e-01
5.653443706947787195e-01,-9.758778858368007819e-03,-1.979786354280108629e-01,3.543756650582610135e-01,3.996881673491265996e-01,-3.447394157699528727e-01,-1.439212780585661655e-01,2.989956812715209855e-01,1.462600077044390601e-01
5.855564681845667474e-01,1.381813725556519518e-02,-2.028189801209178411e-01,3.145809308058858944e-01,3.569792149564126049e-01,-3.122189300807706736e-01,-1.271921957728065489e-01,2.553499147083965193e-01,1.951487726447391768e-01
9.173607059494862659e-01,-9.897985835390888613e-04,-2.582084858450715004e-01,1.010978500763656251e-01,1.195509952004061849e-01,-1.255811856302190554e-01,9.549953676278823134e-02,-1.235228380666265752e-01,4.059902996899669714e-01
9.359759204836086699e-01,-9.517908809076066831e-03,-2.670905471820835819e-01,5.677303309555450928e-02,6.541255688787768474e-02,-6.429183648211977964e-02,-2.073666856906222766e-02,2.887324827747826672e-02,3.973196807840304046e-01
8.826264528787413077e-01,-6.095507682157097484e-02,-2.529013618061686786e-01,1.096813964323959945e-01,1.128073250778911518e-01,-1.160362612407313532e-01,-5.184780746035524968e-02,7.943500835831243667e-02,2.868381878259441131e-01
8.718880614386316230e-01,-1.570901752302687748e-01,-2.359762331351809572e-01,2.424750810693597491e-01,2.336177283308356334e-01,-2.393146230481524028e-01,4.262983962766028756e-02,-6.220651662355954070e-02,1.945610738948531093e-01
8.353341082118569405e-01,6.154951559247000964e-02,-2.369409383837372540e-01,-4.702561980786233720e-02,-5.448319832079728114e-02,6.989595914849111580e-02,-4.488256080752742738e-01,8.615926469387475972e-01,4.198506862568396891e-01
2.615677684788542678e-01,1.961033473641612263e-02,-9.058020001937105992e-02,3.918757541994012383e-01,4.173156755001141693e-01,-3.690618914992761512e-01,-1.368009580704102057e-01,2.864479601509128393e-01,9.915785606712192168e-02
2.438317940343966150e-01,-4.111603246835356107e-03,-8.532889942557765617e-02,4.734544047268250955e-01,4.998664114268892011e-01,-4.307801704242560370e-01,-1.306454718329704556e-01,2.600806691650636715e-01,6.337965522491201265e-02
1.529429274947428918e-01,5.545609566034023774e-02,-5.378043001768541276e-02,4.306553281775065134e-01,4.599047380608410895e-01,-4.116032751571969128e-01,-2.831037438405454854e-01,5.386151274445246662e-01,2.593410844111294217e-02
1.413018428534534854e-01,8.124201563640820467e-02,-5.000839443844429938e-02,4.835111647003089153e-01,5.280694841004379692e-01,-4.483826399718791045e-01,-2.093358904697928125e-01,3.950731754575264043e-01,5.764783638848223341e-03
1.314299465503515063e-01,9.878281876177491538e-02,-4.590336712374813721e-02,5.176610688559061257e-01,5.502431776010314746e-01,-4.573714353914021258e-01,-2.318357061667793984e-01,4.301626068140727566e-01,7.581443105523285632e-03
1.290041936681269041e-01,8.845301969234586892e-02,-4.534046744558366260e-02,6.059036411969644931e-01,6.419871685019948870e-01,-5.309216092872446335e-01,-1.938618600607691644e-01,3.490432405602009180e-01,2.338816746070729573e-03
1.067794392247657653e-01,9.019639256508216185e-02,-3.792061994909957240e-02,6.039140604801445100e-01,6.536262446499115919e-01,-5.343333239966170378e-01,-2.023873876946248873e-01,3.708911842134576253e-01,-2.950368369300989616e-03
1.022667475051972918e-01,8.620547746779222420e-02,-3.585432134830260353e-02,6.126072739047068172e-01,6.665763786745458885e-01,-5.411172763271342445e-01,-1.960597048316243818e-01,3.568858691908248781e-01,-3.663686010010411536e-03
1.200835598260236448e-01,9.501186884142609479e-02,-4.195594960177954913e-02,5.676369876952396254e-01,6.104443961241101668e-01,-4.912585690721338327e-01,-2.343939296860032273e-01,4.126543578621075237e-01,2.131561992379025876e-03
1.492446720276361938e-01,1.076452337347712923e-01,-5.071546537535821797e-02,5.434192468462308856e-01,5.911583951850820640e-01,-5.027016247098857749e-01,-2.946703856201884908e-01,5.803136912589885732e-01,1.038352083993953831e-02
2.335843979981744867e-01,6.022768657029839434e-02,-7.503545963660490647e-02,5.160544621480868122e-01,5.626814768431587233e-01,-4.682653930957494937e-01,-2.802726704113909784e-01,5.231617907273062862e-01,1.875463478124141450e-02
1.038667526629112769e+00,-1.963006059722980923e-01,-3.267208725527536162e-01,7.786507154731016067e-01,8.672978881891458824e-01,-7.272541249436462740e-01,1.763697221185267505e-01,-2.932479197356827605e-01,5.448759795910356613e-02
-1.073781531967530310e-02,8.626806443160991988e-02,3.928982838141505118e-03,1.332275246680135528e+00,1.631281831903133028e+00,-1.297220507662485200e+00,-1.514935145976059605e-01,3.770954191539657718e-01,-2.369993701557548613e-02
-9.174181747313078783e-02,1.888196970602860625e-01,3.063493004317962773e-02,9.056564478660158457e-01,1.102549788814921605e+00,-9.373056864243007880e-01,-2.688916707410448081e-01,5.206229101746098209e-01,-5.772521818264836346e-02
-1.218884679100672164e-01,2.367913344234011674e-01,4.395511481564866318e-02,6.493279300942953469e-01,7.225306448245851776e-01,-6.546415422217704005e-01,-2.261338574234048882e-01,4.878026467400650157e-01,-5.130624379039825517e-02
-1.335670978075357007e-01,3.321404887725497024e-01,4.436971350138210757e-02,9.849762679638391916e-01,1.171520395439348938e+00,-9.889283070517405072e-01,-2.511970206951705809e-01,4.673873912849296208e-01,-5.457081556964171742e-02
-1.395051059755984812e-01,3.527534497537230251e-01,4.522081762745989303e-02,6.426659524392555056e-01,6.725924178087874239e-01,-6.025360900954652710e-01,-3.040772783974112770e-01,5.430802654418663833e-01,-5.771191294985273529e-02
-1.139265080485733599e-02,2.927213068957896791e-01,3.388303640940045023e-03,1.145786270321762945e+00,1.322078156310268815e+00,-1.113925175699486569e+00,-2.167608713963073419e-01,3.131363728641057831e-01,-1.637263830339086290e-02
1.380802834926789513e-01,1.625664900255603396e-01,-3.794201426227748059e-02,1.169617115158398279e+00,1.369001224237813341e+00,-1.158289770974282540e+00,-5.865781686316498544e-02,6.732053934370618720e-02,1.827014583119917004e-02
2.672722147916636315e-01,7.187164225338010803e-02,-7.685020695968559912e-02,8.799714910604726770e-01,1.024582898810309617e+00,-8.855297249393028203e-01,4.825719371275594138e-02,-5.229720955129408405e-02,4.730113672612082376e-02
4.891326888064783107e-01,1.150736733581378402e-01,-1.262104715202067573e-01,8.564751289749193974e-01,1.029280297020013002e+00,-8.611838937552863671e-01,6.916409405802338706e-02,-6.436542474035156225e-02,1.005624826757996193e-01
3.928950694540341293e-01,6.693356790853685623e-02,-1.156846932425685259e-01,7.384744522341091244e-01,9.169896164945354755e-01,-7.930464763329367894e-01,1.979583258785703181e-01,-1.889710809195944974e-01,1.227418282052498699e-01
4.792239703993996236e-01,5.754070731518674819e-02,-1.277553592015676920e-01,7.375342819406729422e-01,9.058123530230408615e-01,-7.583804671985401313e-01,2.069160327915255948e-01,-1.601012218347103999e-01,1.238683845826127616e-01
2.757485343500979402e-01,1.892401614481268868e-01,-7.889310880505270851e-02,4.864027775186885449e-01,5.689179780078019721e-01,-4.913242589237732383e-01,-1.781159884502079085e-02,2.202444634734076340e-02,2.042229499929237857e-01
2.217541970392171435e-01,2.154014981024335029e-01,-6.718952227110894238e-02,3.414089324582494367e-01,3.782557391989034290e-01,-3.303752515447606619e-01,-1.733065150336862426e-01,2.475148827816146535e-01,2.389282789638982885e-01
1.670675776725935591e-01,2.306467942944619431e-01,-5.396173623590760915e-02,2.225449398517350963e-01,2.383894741837047637e-01,-2.226117996565504242e-01,-2.600057916758061749e-01,4.112824942727246191e-01,2.386025856746883667e-01
1.843179574881023408e-01,2.168749526236052882e-01,-6.063067456307334735e-02,1.442293562275292207e-01,1.525217518813496986e-01,-1.498917635002599558e-01,-3.112769882263197729e-01,5.356995691154148309e-01,2.517554103383319863e-01
2.642636459786100733e-01,1.655027857567057115e-01,-8.580350713152315456e-02,1.472962872192346562e-01,1.511011972620305011e-01,-1.514922411114373590e-01,-2.848952400456609135e-01,4.863208829673310585e-01,2.371363289417242337e-01
2.784422945639796754e-01,1.775398836849725326e-01,-8.880243172918259043e-02,1.404107855514676595e-01,1.469539079235927248e-01,-1.475513017586080611e-01,-2.936320231075151832e-01,5.179555978206835665e-01,2.343965513048571481e-01
2.757045874879391900e-01,1.950726978728835048e-01,-8.830750678620026550e-02,1.227365352476134097e-01,1.266638570714264667e-01,-1.305672273786607496e-01,-3.043006024460048198e-01,5.480511990423493351e-01,2.277304353634095058e-01
4.807587737971192321e-01,8.455659805342603808e-02,-1.510760314399591797e-01,9.760446062450897631e-02,9.702064797196102708e-02,-9.814489716586573265e-02,-3.215189643282352350e-01,5.872790475541890265e-01,2.401565218468431073e-01
5.308230912676723534e-01,5.487115657243327865e-02,-1.668491690613954914e-01,1.270983169479905361e-01,1.270464931429622080e-01,-1.255290009461948464e-01,-3.015364742285039923e-01,5.524090163646635521e-01,1.979881896211983794e-01
1.271023234322448126e+00,1.282578441365365418e-01,-2.925153536438476198e-01,6.395582492915768968e-02,4.510115309667494382e-02,-5.882208844940077508e-02,-3.759454092072796461e-01,8.380641128111795402e-01,2.250331445347108009e-02
5.246345987770220098e-01,3.689663551123518181e-01,-1.480950019570205778e-01,1.315260347046252713e-02,1.035974006343752529e-02,-1.381158897867627855e-02,-4.811059946482084126e-01,9.737401067936541921e-01,-6.714263629106646813e-03
3.982513185411089007e-01,4.488967877000873408e-01,-9.012668440290107219e-02,3.899760569746250211e-02,1.926411390010667954e-02,-2.692764634604721818e-02,-1.837472774736749748e-01,1.080938857708383161e+00,-2.051815023747795980e-02
3.788394296235720327e-01,4.114204318708313268e-01,-9.195989002757451458e-02,6.402213614363701233e-02,3.350630251134571747e-02,-4.086498268100123565e-02,-1.843443063267492243e-01,9.858553572932164943e-01,-5.590609786838561177e-03
3.747039089684306989e-01,4.572458299785669977e-01,-8.580731197764744633e-02,6.988084596527574521e-02,4.298604003561412590e-02,-5.213204853567365848e-02,-1.584713631621970653e-01,1.099245154532197954e+00,-9.067280760200434331e-03
3.750944265839108449e-01,4.514685183789113321e-01,-1.119592405993437706e-01,9.093346237546898192e-02,8.128731941315564535e-02,-6.660046785467631236e-02,-2.246482306685096686e-01,1.024993701556394132e+00,-1.342383125809311524e-02
3.315053099871025366e-01,3.859464515026598819e-01,-1.062481794366626625e-01,8.459488303746028059e-02,7.659999326120590923e-02,-7.238872119931208382e-02,-3.302425987080397363e-01,7.849512316437462500e-01,-1.012613742589226276e-02
3.508394357956283183e-01,3.687072259818985898e-01,-1.107618054306227368e-01,1.285925751357852309e-01,1.154127716417710781e-01,-1.011016310828604936e-01,-2.467232502946953288e-01,8.063701891644557973e-01,-3.243719171530481168e-03
3.566027995708057619e-01,3.706226044125836561e-01,-1.132836159418253025e-01,9.765790611363005247e-02,8.871562216952767754e-02,-8.049025946410019727e-02,-2.578988000232629307e-01,7.877658177974901088e-01,2.791708518439328657e-02
3.183370542909080281e-01,3.456435071411159132e-01,-1.023737168288957056e-01,1.839448710024012834e-01,1.777389865136592695e-01,-1.655225624670206286e-01,-1.910076912796104809e-01,6.479840339898675916e-01,5.449595675274090251e-02
2.735517303809548162e-01,3.025445722395592174e-01,-8.772062899824561999e-02,1.725740726703331729e-01,1.646808266737956050e-01,-1.485138946492766954e-01,-2.277479397446890708e-01,1.011631146740243903e+00,6.144422977630981109e-02
2.346990603414933763e-01,1.813444723499401390e-01,-8.202325546987251914e-02,3.231983528571051312e-01,3.313750762243873327e-01,-2.876308332126845113e-01,-2.505033813745404792e-01,6.660748502817510630e-01,2.898048973813775048e-02
2.816119275026027213e-01,1.405886804758324504e-01,-9.694629889952124935e-02,2.772607566891742703e-01,2.974929182708565545e-01,-2.782997522531723833e-01,-3.177289957037904844e-01,5.645877595626027645e-01,5.741688783664090912e-02
2.722524534639305105e-01,1.629842104855068752e-01,-9.318417015861105157e-02,2.222222226311148241e-01,2.383153049430636883e-01,-2.176491362138484043e-01,-3.966362379558505125e-01,6.829543477221936554e-01,4.980355766110950572e-02
2.784746242510763858e-01,1.616293167494408656e-01,-9.984365633403401163e-02,2.406153838900632891e-01,2.622334108658172513e-01,-2.392167421039690933e-01,-3.791526197540404097e-01,7.087442915884999417e-01,5.527661938115217138e-02
2.396294525632066963e-01,1.424130189117288614e-01,-8.563459587114238825e-02,2.663610507665220561e-01,2.836127198649699421e-01,-2.658133843441523592e-01,-3.406033409422223879e-01,6.279175637474088134e-01,5.359765094462583257e-02
2.054983038847191801e-01,1.237144785882515058e-01,-7.380484832661307615e-02,2.896323754339482637e-01,3.107002129571875271e-01,-2.939684998664460203e-01,-3.362950792588056403e-01,6.211653898808079388e-01,5.145783253545187924e-02
2.647866579272774579e-01,1.699749673657395543e-01,-9.768761931722640124e-02,2.906727299057887959e-01,2.985730130824935102e-01,-3.062103972835625298e-01,-3.522695160181149032e-01,5.913907475798734215e-01,5.031825941247738965e-02
2.656820574022284998e-01,1.779337069784527325e-01,-9.057158286051415763e-02,1.781804192196424774e-01,1.863494109539259314e-01,-1.883833582735450207e-01,-4.542816664504038537e-01,7.987989951633580610e-01,3.896647471432498899e-02
2.532157352552775187e-01,1.496497910715180457e-01,-8.634300916319137542e-02,1.947856434831210515e-01,1.989827133807846316e-01,-1.944243015545616404e-01,-4.196708947109228371e-01,7.236091320610729127e-01,4.075468979677306092e-02
3.732562167569062339e-01,2.070036948269171062e-01,-1.217424545802188729e-01,3.512292219407375099e-02,3.537711531469250881e-02,-3.635541439106604322e-02,-5.623403808551706851e-01,1.008077906334011953e+00,9.128962121042764888e-02
4.187721461151360791e-01,3.015415395558259659e-01,-1.362103138316861917e-01,-2.664641125251016518e-04,-2.686209535589296387e-04,2.764800404923365980e-04,-5.722855224657595885e-01,1.030535834147178198e+00,4.285368681334116026e-02
-3.419191930274225084e-03,8.770583601866181744e-02,1.176330281313614284e-03,1.448807918796362337e-01,1.519281535710304831e-01,-1.560649418403122490e-01,-6.832878758858693669e-01,1.335304267101852238e+00,1.188177731786378699e-01
-9.685188893975651275e-03,8.285788993376405620e-02,3.475857631450143207e-03,8.616145163273258856e-02,9.051403200794416737e-02,-7.893493216352659436e-02,-1.003851871366838511e+00,2.246738764427373525e+00,1.417179960521276483e-01
-5.396605899731529710e-02,6.819502717107696343e-02,1.829901108634281875e-02,1.734918907975327163e-01,1.757387755453135025e-01,-1.629994831285392631e-01,-7.822551481314720112e-01,1.639220864300588998e+00,1.195216171258123572e-01
-5.145496999890831341e-02,6.311981072641384416e-02,1.651865050877729044e-02,1.621341281548169255e-01,1.591848652659935692e-01,-1.407754695822953650e-01,-8.386842488177141952e-01,1.749622819360899362e+00,1.029969707605662144e-01
-6.813425946697247715e-02,6.105667015123637797e-02,2.267685189050187844e-02,1.656248731954690911e-01,1.721508410766773300e-01,-1.417026736837199152e-01,-8.517992302582605424e-01,1.821079236236737398e+00,9.536962192960705964e-02
-5.866748243836365784e-02,3.771465864771288840e-02,1.903646255479330904e-02,2.465319497178092845e-01,2.754274949678906514e-01,-2.090252017797361583e-01,-6.693376851976869935e-01,1.535262628612251712e+00,1.075317651204994868e-01
-1.080521247638675658e-01,2.847395532996833609e-02,3.552798469442298296e-02,4.122091097895961842e-01,4.381146035388978066e-01,-3.448068947570379073e-01,-4.978530520758119859e-01,1.129590075299290231e+00,4.341322554713061138e-02
-7.110562039706519455e-02,4.844677690745474719e-02,2.347754201829503964e-02,4.269486251652364062e-01,4.643004082065498306e-01,-3.617006181120656638e-01,-4.849739890892839633e-01,1.050564915173788139e+00,8.386128915788495022e-03
-1.802242854064618413e-02,5.219276329535281478e-02,5.876824513332215387e-03,3.707451024309885157e-01,4.135471890402847572e-01,-3.220279689507123955e-01,-4.980151995291832168e-01,1.134780105537724459e+00,-2.724891163565658359e-02
1.701007890748709858e-03,6.692966833912124269e-02,-5.988155301218638787e-04,5.384784911464508550e-01,5.255192609199463849e-01,-4.567536739105576560e-01,-4.814372634255298378e-01,1.016471345008149729e+00,-2.128830863722604855e-02
-2.181114680831068228e-03,8.137796171870544104e-02,7.892657392937458367e-04,5.397875064693111735e-01,4.986720685862889857e-01,-4.467469998998890302e-01,-4.767099056880462205e-01,1.013989780205904356e+00,-3.613328970986000310e-02
6.840016429820440502e-02,3.326747381502435930e-02,-2.421530039176179178e-02,6.129722124671209693e-01,5.664358706091643381e-01,-5.029144287378188860e-01,-2.912741538539412312e-01,5.472459244386318478e-01,-1.183611838013236015e-05
7.442707950685277518e-02,1.318325560587100265e-01,-2.537964398717065806e-02,5.794955914301176403e-01,5.388174676548298514e-01,-4.737362918089945696e-01,-2.677902597531316986e-01,5.042677999527893640e-01,-1.399090221374975178e-02
6.344241692191786297e-02,1.736208205093731638e-01,-2.275056561650343548e-02,5.787322715833245201e-01,5.570246657179414029e-01,-4.968401596866018899e-01,-2.693259438838099817e-01,4.778393270180005814e-01,-2.993260198786994175e-02
7.043306870613455506e-02,2.178486375850889611e-01,-2.552428495779995171e-02,6.525628586226843719e-01,6.166312999795231509e-01,-5.568878094097149400e-01,-2.464626971605558270e-01,4.394826085664707560e-01,-3.771401918748934490e-02
8.008036292446499282e-02,2.366909241752157833e-01,-2.785354995395386210e-02,6.349464235227082476e-01,5.639078666656374139e-01,-5.161306632886586421e-01,-2.564091674387433684e-01,4.306343023694370054e-01,-4.311258914327131125e-02
1.663944366938986327e-02,2.535191979141117047e-01,-5.356267011039526557e-03,5.261839511492703014e-01,4.554751808272287095e-01,-4.370834085228446630e-01,-4.642224893074927139e-01,8.663255394138017484e-01,-6.362885100447930598e-02
5.595677511393197523e-02,2.996028434442841171e-01,-1.773413234176177827e-02,5.096999572313658522e-01,4.555390675425200486e-01,-4.321616423599265455e-01,-3.914447895563701874e-01,7.915722441897411477e-01,-7.300547433842685674e-02
7.147984450077227159e-02,1.396035421297579793e-02,-2.302309835512430375e-02,7.929407992192365473e-01,6.896914113102350363e-01,-6.275625148854364621e-01,-3.399051853272309631e-01,6.949863913984879460e-01,-1.640955509825364408e-02
1.390795233624241289e-01,-3.996298044605626210e-01,-4.388570386045778648e-02,7.845500590067772118e-01,7.367036085820704017e-01,-6.743917848380427404e-01,-2.680553961113565364e-01,5.127713781708301832e-01,1.699446801506997451e-01
7.810187158728393308e-02,-1.045806579932259256e-01,-2.551499445568764651e-02,2.420189155922015112e-01,2.640353301537229358e-01,-2.436208973787070409e-01,-6.500869465901029098e-01,1.407336060212120765e+00,7.290697777845449312e-02
3.361165494854694291e-01,9.083991685459627541e-02,-1.078261981601759539e-01,1.863340907654326972e-01,2.056597437014311414e-01,-1.785065706503935201e-01,-4.535129721777708678e-01,1.032720628418802855e+00,4.934399985850911746e-02
4.394201192565156955e-01,-8.119992641139668621e-02,-1.344016612160255919e-01,1.491080449642633865e-01,1.712188287149619681e-01,-1.557943423570618824e-01,-5.242725105672236818e-01,1.659022139578329114e+00,7.640521175331617398e-02
5.247269447631338624e-01,-2.387021257918163220e-01,-1.656967810364086136e-01,1.467962330837727369e-01,1.586398441794435454e-01,-1.497306359425925049e-01,-7.362490937561722015e-01,1.489775139703539031e+00,9.431793822658886273e-02
4.963289042787488170e-01,-2.996365244618325319e-01,-1.595720408672715307e-01,1.438219750912737016e-01,1.530696481055960900e-01,-1.409239469326491190e-01,-7.330473956812345593e-01,1.491558775738457410e+00,1.441398685707728222e-01
2.495971517999827638e-01,-2.165143105825966807e-01,-8.507174262514180518e-02,1.582955022645606280e-01,1.833988924599449510e-01,-1.628110324755317473e-01,-5.786551659979245477e-01,1.336884523474258568e+00,2.889462097447888511e-01
2.346953142795270286e-01,-2.312398575109813059e-01,-8.170646696980808643e-02,1.631086948624075605e-01,2.130287361338619179e-01,-1.517780311881122834e-01,-5.713491612066724512e-01,1.533966193150803736e+00,3.333336034320598662e-01
1.730003098764593683e-01,-2.494258800660532627e-01,-5.900247383415712504e-02,2.112809337261869758e-01,2.273709990472441433e-01,-2.090639957974329832e-01,-6.180726600262974602e-01,1.136119651307211154e+00,2.886621201400857983e-01
1.475928707422989594e-01,-2.629656682918112276e-01,-4.846057040295678742e-02,2.197995881093107173e-01,2.326015503142185858e-01,-2.140114788373402299e-01,-6.500267488589174247e-01,1.218039503446610272e+00,2.941586154161592304e-01
1.137765155341325385e-01,-2.949626127354860738e-01,-3.555183568037745268e-02,2.529253857101840808e-01,2.639276539217715323e-01,-2.461755530609436027e-01,-6.344766488461177634e-01,1.326084649042705177e+00,3.368361656206282362e-01
9.907668428547833361e-02,-2.934535453052792286e-01,-3.233456001642556754e-02,2.591654806080193607e-01,2.518269969796793073e-01,-2.384575028352417525e-01,-5.033515494965790094e-01,1.124899674554404427e+00,5.589892386046744210e-01
1.649768124386538637e-01,-1.180920495544161564e-01,-5.312460662890020752e-02,2.046725395478000142e-01,2.019987259531435542e-01,-1.883967484623224609e-01,-4.472603308344305084e-01,9.169666966163778632e-01,4.545402188594251935e-01
1.395866953410837275e-01,-1.070990256038120703e-01,-4.284467639453909404e-02,2.410782357658350361e-01,2.430229445868553328e-01,-2.181539738148212948e-01,-4.433866866922795968e-01,8.819026647775853878e-01,4.041904062477160720e-01
1.520118083383772412e-01,-1.429901533072073516e-01,-4.875121204847571860e-02,2.183217638164419716e-01,2.144233889360684098e-01,-1.924906341125829090e-01,-5.197599357130523456e-01,1.015099098769395747e+00,4.368631281228912422e-01
9.962706031565138343e-02,-1.759374825479388116e-01,-3.149314406675515765e-02,2.655262784730548775e-01,2.569634003000832445e-01,-2.311233888484947041e-01,-5.157310367999317080e-01,9.971972235479543700e-01,4.672824666854620834e-01
9.238224570371030009e-02,-1.140169037337895042e-01,-3.011372344342308841e-02,2.608124279587949457e-01,2.542511973165430539e-01,-2.329437090676017008e-01,-4.094895654720021039e-01,8.174975746967245716e-01,3.963293879711477508e-01
8.712481568848841340e-02,-1.016239807264441020e-01,-2.735331659565528109e-02,2.611773992894473873e-01,2.479829391664785665e-01,-2.409535047231206595e-01,-3.784302021068237099e-01,7.597137599232119953e-01,3.952210976866727399e-01
8.213455010001363688e-02,-7.977409248109855466e-02,-2.440302022723150888e-02,2.753409186576969980e-01,2.734872959885411015e-01,-2.603355996640709380e-01,-3.084243744305551482e-01,7.420552799066573169e-01,3.730280101133028325e-01
1.019557295970103805e-01,-7.466314471015367271e-02,-3.059286669031836478e-02,2.668477788046473842e-01,2.644771232360902946e-01,-2.603293190047563654e-01,-3.257957316649797153e-01,7.636063746418070286e-01,3.455382796147005164e-01
1.477602074662244525e-01,-1.350501191169593829e-01,-4.663555472737075658e-02,2.072192757662128515e-01,1.992157241540236934e-01,-2.042381128013050495e-01,-4.950386146307814705e-01,1.215052481670828577e+00,2.894239962584572723e-01
1.513549319046088304e-01,-1.718148071078525185e-01,-4.640564036504730983e-02,2.073565041950514998e-01,2.097990829513942390e-01,-2.085325209127672497e-01,-5.484084774665672901e-01,1.272604494783210916e+00,2.623193206333867544e-01
1.172004748082973030e-01,-2.505476326317365166e-01,-3.259654337249334038e-02,2.423972937906188896e-01,2.490936712302290190e-01,-2.463656808429623146e-01,-4.892409680933394456e-01,1.720697374424604575e+00,3.093995227651674673e-01
2.571049980979092306e-02,1.406195484274098129e-01,-9.585676804077992996e-03,7.421476779722502304e-01,7.148839831795856803e-01,-6.865264138962539064e-01,-1.574733770214156725e-01,3.348362425261667275e-01,-1.177650866529118268e-01
-1.241386109737655820e-02,1.238330526381596769e-01,4.717262252314694156e-03,8.709638695449839485e-01,9.057353771870733095e-01,-8.157157672287571604e-01,-8.131531080418193114e-02,1.199655019630757880e-01,-1.293308732174553721e-01
9.402591892140191657e-03,4.499550975540563685e-02,-3.671933503283821357e-03,7.525449250975649873e-01,8.317750246476846021e-01,-7.032436544274106582e-01,4.788731385902676198e-03,-6.725591697833524854e-03,-5.125747799501143009e-02
1.270301197992763642e-01,-2.597333513732810045e-02,-4.523459290741251720e-02,5.203388006116133058e-01,5.879282766658108228e-01,-5.107638446736393334e-01,-6.244344122758106394e-03,9.624259212770179539e-03,1.414179386237288949e-01
2.477447327578076453e-01,-5.524812838189933212e-02,-7.673516138555612487e-02,3.983455301328330256e-01,4.627259815044364455e-01,-4.229583742394149026e-01,-3.797178705889684563e-02,6.090995555287016111e-02,3.086221748507139706e-01
3.374662157193548673e-01,-1.106604935832468904e-02,-1.096811014006253415e-01,3.347932536270555870e-01,3.958163327394325637e-01,-3.708580562579772977e-01,-1.748908228623287098e-01,2.708726558982077481e-01,3.795599893541199976e-01
3.846981248279487398e-01,-5.270766161720650406e-02,-1.042612029454935973e-01,2.746274352899690241e-01,3.134339564713938264e-01,-3.036907983210255790e-01,-2.633664602552910905e-01,4.131242506585680596e-01,5.015050817381341286e-01
4.458967272725495867e-01,-1.098643985537720857e-01,-1.155458169158365689e-01,2.136533756709693976e-01,2.248718958777814469e-01,-2.358292488374256757e-01,-3.431017787945330744e-01,5.800140648478230299e-01,6.314200796120075232e-01
4.807639685159990073e-01,-1.337297038744567068e-01,-1.240320607311190121e-01,1.778810507914486971e-01,1.837221288685031984e-01,-1.899516877552849536e-01,-3.283140695583257052e-01,5.848165529466612389e-01,6.649118654641674730e-01
5.094311756175208261e-01,-1.786881035393252659e-01,-1.388671068801011210e-01,1.662706809911636552e-01,1.694029109419710188e-01,-1.742592767986074487e-01,-4.052237427007154835e-01,7.308940349004040549e-01,6.777085142457722755e-01
4.536318349310360376e-01,-2.090171313552222077e-01,-1.318506342861777147e-01,1.447902184963873740e-01,1.523472067281735620e-01,-1.542653099697159358e-01,-2.641430582951177497e-01,4.268930400402800585e-01,7.130299181994450564e-01
4.338090919278758117e-01,-2.728239041993107961e-01,-1.308677905698413524e-01,1.227708169800448834e-01,1.270938979546357428e-01,-1.300239300700780087e-01,-2.607787984498790568e-01,4.080724951714433946e-01,8.291755899424120280e-01
3.739813349039570745e-01,-2.982644649084146837e-01,-1.176552487133482872e-01,1.574155817079386788e-01,1.662557259349927152e-01,-1.640264567586459110e-01,-2.194442719939103947e-01,3.435814340021788871e-01,8.224939753280434696e-01
3.647784134918863885e-01,-3.125887521147487358e-01,-1.149883562538107917e-01,1.717006928455611370e-01,1.819337802802213355e-01,-1.781658270443016723e-01,-2.107566489931681497e-01,3.267114552285640960e-01,8.875385920981068155e-01
2.929486371576810466e-01,-3.268950528128654609e-01,-9.343854764789073786e-02,2.027760741137961675e-01,2.116516991873223508e-01,-2.035639334989836902e-01,-1.651592442669620464e-01,2.632419599965398760e-01,7.927763617130800800e-01
3.990754594012447809e-01,-3.154579211823524409e-01,-1.322982508966289161e-01,1.230232219302669489e-01,1.249620119282753711e-01,-1.238490194616730655e-01,-1.820827070683773141e-01,2.969037386912495857e-01,7.892775577889410421e-01
4.069428018948136327e-01,-3.321187827174919005e-01,-1.392452507540734297e-01,1.174167964220085014e-01,1.190456774850948696e-01,-1.121326106996101551e-01,-1.776677476310884463e-01,3.004387240342665799e-01,7.625957381239236721e-01
4.051699895123033190e-01,-3.592601624716542652e-01,-1.426506696836073174e-01,1.209122950016434245e-01,1.318046567495335386e-01,-1.082795052003327901e-01,-1.840845661863585447e-01,3.223029198865113298e-01,7.798257623019685392e-01
4.065871153618332845e-01,-3.303401722678297459e-01,-1.406136135150966859e-01,1.053485178872092115e-01,1.119603026308753357e-01,-9.935892924639919133e-02,-1.788515290801130364e-01,2.984261127017676096e-01,7.672209051456322371e-01
5.428166459219748718e-01,-3.720249847730201509e-01,-1.852704699558292423e-01,5.393752921341789935e-02,5.666333011641749851e-02,-4.931701569389223411e-02,-2.220376111994752377e-01,4.300171506782080044e-01,7.842309012047886663e-01
5.608038140012820971e-01,-3.384586105529426292e-01,-1.897385406586309109e-01,4.805108568898786708e-02,5.081342584913262767e-02,-4.509072429884634220e-02,-2.162123402780396220e-01,4.203688727643753453e-01,7.480601560705022468e-01
5.732547064916641011e-01,2.802074444877660636e-02,-1.842085215164732948e-01,1.281143272037653102e-01,2.058055604377365122e-01,-1.184780732334479864e-01,-2.892653138052188044e-01,1.286213529387572940e+00,2.027265794639226404e-01
5.332376780900193181e-01,2.715760321999456314e-02,-1.755363539833950104e-01,1.333173679038134052e-01,1.968288873601454769e-01,-1.165371540327605482e-01,-2.605823840611433129e-01,1.258056925247953206e+00,1.961966104634831898e-01
5.249147403550561419e-01,3.608559967156547673e-04,-1.475409856724697877e-01,1.371575798866651597e-01,2.125760604762924055e-01,-1.347932049100572793e-01,-2.696106396770132640e-01,1.212899220913050913e+00,1.458929490692760234e-01
5.051362013881566249e-01,-1.248515799703961210e-03,-1.438897089224558945e-01,2.315648992332467182e-01,3.466098698481107077e-01,-2.083299998290187305e-01,-2.705903783784088246e-01,1.082494267013516254e+00,1.302116272583657697e-01
4.668979324231981032e-01,2.748730328515279226e-03,-1.239623811711116630e-01,2.350439084223961694e-01,3.060127833080329429e-01,-1.941052913893979992e-01,-2.098085562529940218e-01,9.236497423196126100e-01,1.267108680007082988e-01
4.763929882974815566e-01,-7.514517557860053362e-03,-1.660099467092931436e-01,1.608933719944550533e-01,1.789489935075439242e-01,-1.914607223271636016e-01,-1.743611103710221988e-01,9.974627431646498898e-01,9.801940835718968292e-02
5.744870592511763796e-01,-2.175054877346347965e-03,-1.967001787627499498e-01,1.350700846449375270e-01,1.354113647683266031e-01,-1.518181709445424743e-01,-2.082357679808986839e-01,7.391133464429682220e-01,8.995028038897469325e-02
6.597058313847736777e-01,-1.144299037521602155e-02,-2.229239601641030410e-01,1.565565910136454686e-01,1.231463907136606944e-01,-1.588087237021457709e-01,-2.047681376465435021e-01,8.082847905508896424e-01,8.954525238148493271e-02
7.308379972128340452e-01,3.502340920038710809e-02,-2.538265354277925989e-01,1.608635976566465675e-01,1.269382618064830992e-01,-1.672113773135253667e-01,-1.656523811677651503e-01,5.449830792148608882e-01,6.563980093553090089e-02
6.649624647474280392e-01,4.256457337105619410e-02,-2.271124973609948139e-01,1.703387478017552858e-01,1.362322784227238959e-01,-1.799209824002012681e-01,-1.713889833768471038e-01,5.809225335397923962e-01,4.615522797706267388e-02
3.623510123205588851e-01,3.943650598578432587e-02,-1.268872698280739675e-01,1.682440927782870299e-01,9.897632463000036185e-02,-1.682195154994512443e-01,-2.205327102771167946e-01,8.297139348172803963e-01,1.874132965069339185e-01
1.212417279754852278e-01,7.923694424639489420e-02,-4.423012738287344925e-02,2.452764496620971901e-01,1.792656236026418937e-01,-2.433110966931348318e-01,-2.726357057815255169e-01,7.770731923588882761e-01,1.958892631406404794e-01
3.212830722001341205e-02,1.279300204462823221e-01,-1.125621939681248698e-02,2.245488133416992937e-01,1.925073086533176381e-01,-2.248462102811852881e-01,-3.366413622895794155e-01,6.726450865610857921e-01,2.007354342262204772e-01
7.012358011220884424e-02,1.269888074745254281e-01,-2.458459074687469395e-02,2.089668924959511564e-01,1.793212671445294781e-01,-2.109818107981780155e-01,-3.248129596364641714e-01,6.440958095141624540e-01,2.055089692310493044e-01
1.825674358289978289e-02,1.373549432687034000e-01,-6.606486293662970632e-03,2.180930468025419899e-01,1.890963624863867820e-01,-2.065519106075221489e-01,-3.345811229734387826e-01,7.060580319855189746e-01,2.200377419350063035e-01
9.067152134537226349e-02,1.298151191615074529e-01,-3.107965681036584452e-02,1.825898627850240374e-01,1.625612339888738433e-01,-1.705999861727632572e-01,-3.428483613336864022e-01,6.795313067858962386e-01,2.214840909074000941e-01
1.608485440330278127e-01,1.198893069378964976e-01,-5.418743942125727603e-02,1.535119850787668994e-01,1.395037892479971675e-01,-1.451490870400710398e-01,-3.549778357147312935e-01,7.156490336482564940e-01,2.329276640090073569e-01
1.935646918197181099e-01,7.620124956160810592e-02,-6.413357865060864693e-02,1.554437109426824171e-01,1.484998938753520903e-01,-1.476368997519410808e-01,-3.568988973851975333e-01,7.012347490026696883e-01,2.362826067990757284e-01
1.710360139582514649e-01,9.497153911663858139e-02,-5.502780800520024052e-02,1.538105036107998702e-01,1.471613050337239048e-01,-1.443856305982098298e-01,-3.945715455156439400e-01,7.840668384931919199e-01,2.237457748966713567e-01
4.008926866763926622e-01,9.008184623053408502e-02,-1.222762760175601648e-01,9.783965704841712796e-02,9.402840542670706792e-02,-9.311859232282014565e-02,-3.325915613621953648e-01,6.516600769435979545e-01,2.544339410311418637e-01
3.199780139630383213e-01,1.729648693178849894e-01,-1.019746093055120262e-01,2.669434380522130515e-02,2.586630243037622498e-02,-2.770479311458592248e-02,-4.129908029976163686e-01,8.943370736435739543e-01,3.255651430477540798e-01
4.023337890444730197e-02,2.533218668946938257e-01,-1.324702542822810136e-02,1.886960349175456977e-02,1.819398974215912651e-02,-1.941488127599307750e-02,-5.159195930079253367e-01,1.141360818367102015e+00,3.387135969923324996e-01
2.896697160438007138e-02,2.982113898599136892e-01,-9.355260398851299869e-03,1.251657240211385101e-02,1.183330510420681041e-02,-1.365668956309421672e-02,-5.264072011496554460e-01,1.317186700364051832e+00,3.186241005727313835e-01
5.819105036475461304e-03,3.306285130660139848e-01,-1.952016820407031367e-03,1.365845985916370325e-02,1.237440364298034862e-02,-1.405194526514578005e-02,-5.585837768157877470e-01,1.451131945961297465e+00,3.046279870837124149e-01
-2.535734996478615499e-02,4.687692808802335631e-01,8.744257808064894583e-03,1.753788145497081272e-02,1.119528655575665645e-02,-2.212164083655245722e-02,-3.600572952791684100e-01,2.247778732809556868e+00,3.706087726231441781e-01
-7.272290773642473005e-02,4.051880931622948157e-01,2.403662392188132824e-02,2.258068154572388797e-02,1.694450486497079897e-02,-2.503817017896184383e-02,-5.559070874745116742e-01,1.817028957867588002e+00,2.901608371746889348e-01
-8.443524527204195051e-02,3.339887657360101070e-01,2.964197068621092501e-02,4.970267212549408370e-02,3.363292058604807483e-02,-6.180809444485243359e-02,-3.351982229544833713e-01,2.020123674119965962e+00,3.944690370069920959e-01
-1.042214208582979834e-01,1.296465225270890809e-01,3.549076690176391352e-02,8.687566011717846870e-02,8.360301380984237751e-02,-9.162800510028279444e-02,-7.005746393073732925e-01,1.383449231458377948e+00,2.777487646226391438e-01
-5.991050505920998692e-02,1.269784187851256407e-01,2.228904099873077471e-02,1.415849019033280087e-01,1.296137526452427469e-01,-1.398868605905421725e-01,-4.872810603384030159e-01,1.141741312327141822e+00,2.106486757879638405e-01
-6.189263085952228377e-02,1.033134860454667237e-01,2.168819285105220290e-02,1.527915734604557429e-01,1.316190297638059892e-01,-1.400973564325081466e-01,-4.537284605208676824e-01,1.123849781890239541e+00,2.239384906330704472e-01
-8.919544491975898992e-02,5.196930840990617029e-02,3.037241299953422069e-02,2.175854233011645655e-01,1.965108709078598470e-01,-1.651356713191985404e-01,-4.643730812885572545e-01,9.736425674407231945e-01,2.099064745117601438e-01
-9.777038161498520508e-02,4.863019258375474163e-02,3.307977533247728058e-02,1.711872752329786085e-01,1.681435075014912628e-01,-1.541986306347877533e-01,-5.620660089356682709e-01,1.068485507002605139e+00,2.083695764264878736e-01
-9.345952282606495576e-02,4.407669957247629944e-02,3.205043674871039389e-02,1.644426566982405968e-01,1.445188543158885397e-01,-1.351507875903656397e-01,-5.492494382766693883e-01,1.137708344705996799e+00,2.100215921293800692e-01
3.108102301413286084e-02,-2.239420183593063274e-02,-1.047709231476647886e-02,6.520812025042048432e-02,5.807356481976222451e-02,-6.125179661516956531e-02,-7.249301443123937760e-01,1.517562080463248808e+00,2.325003573989067041e-01
2.398205369691833178e-02,-2.209715753856158343e-02,-7.954372919797931749e-03,4.715052705558842733e-02,4.226135705697788708e-02,-4.460153151373290326e-02,-7.958989235126587847e-01,1.597439206944545553e+00,2.561085684294725495e-01
1.096624235563967431e-01,-5.831020445056228629e-02,-3.498675701075557726e-02,2.501992935520881874e-03,2.373493260716586298e-03,-2.577938304316924195e-03,-8.930819261768676576e-01,1.919354163798796753e+00,2.914474203209573844e-01
-7.881017680113336366e-02,1.824123777015413186e-02,2.604712531915013424e-02,3.662801858614852385e-02,3.075541176560763618e-02,-3.639109476359846107e-02,-7.845738821581954570e-01,1.886139557356135477e+00,2.829589589990158527e-01
-3.098874125447340089e-02,9.859024774440701758e-03,1.011546112605308211e-02,3.261397676637923376e-02,2.875898925117359103e-02,-2.948412390056269830e-02,-8.470755948053212414e-01,1.911230911348302364e+00,2.569815936416068869e-01
